{"learner":{"attributes":{},"feature_names":["VNS_4","sEMA_13","sEMA_59","VNS_79"],"feature_types":["float","float","float","float"],"gradient_booster":{"model":{"gbtree_model_param":{"num_parallel_tree":"1","num_trees":"2000"},"iteration_indptr":[0,1,2,3,4,5,6,7,8,9,10,11,12,13,14,15,16,17,18,19,20,21,22,23,24,25,26,27,28,29,30,31,32,33,34,35,36,37,38,39,40,41,42,43,44,45,46,47,48,49,50,51,52,53,54,55,56,57,58,59,60,61,62,63,64,65,66,67,68,69,70,71,72,73,74,75,76,77,78,79,80,81,82,83,84,85,86,87,88,89,90,91,92,93,94,95,96,97,98,99,100,101,102,103,104,105,106,107,108,109,110,111,112,113,114,115,116,117,118,119,120,121,122,123,124,125,126,127,128,129,130,131,132,133,134,135,136,137,138,139,140,141,142,143,144,145,146,147,148,149,150,151,152,153,154,155,156,157,158,159,160,161,162,163,164,165,166,167,168,169,170,171,172,173,174,175,176,177,178,179,180,181,182,183,184,185,186,187,188,189,190,191,192,193,194,195,196,197,198,199,200,201,202,203,204,205,206,207,208,209,210,211,212,213,214,215,216,217,218,219,220,221,222,223,224,225,226,227,228,229,230,231,232,233,234,235,236,237,238,239,240,241,242,243,244,245,246,247,248,249,250,251,252,253,254,255,256,257,258,259,260,261,262,263,264,265,266,267,268,269,270,271,272,273,274,275,276,277,278,279,280,281,282,283,284,285,286,287,288,289,290,291,292,293,294,295,296,297,298,299,300,301,302,303,304,305,306,307,308,309,310,311,312,313,314,315,316,317,318,319,320,321,322,323,324,325,326,327,328,329,330,331,332,333,334,335,336,337,338,339,340,341,342,343,344,345,346,347,348,349,350,351,352,353,354,355,356,357,358,359,360,361,362,363,364,365,366,367,368,369,370,371,372,373,374,375,376,377,378,379,380,381,382,383,384,385,386,387,388,389,390,391,392,393,394,395,396,397,398,399,400,401,402,403,404,405,406,407,408,409,410,411,412,413,414,415,416,417,418,419,420,421,422,423,424,425,426,427,428,429,430,431,432,433,434,435,436,437,438,439,440,441,442,443,444,445,446,447,448,449,450,451,452,453,454,455,456,457,458,459,460,461,462,463,464,465,466,467,468,469,470,471,472,473,474,475,476,477,478,479,480,481,482,483,484,485,486,487,488,489,490,491,492,493,494,495,496,497,498,499,500,501,502,503,504,505,506,507,508,509,510,511,512,513,514,515,516,517,518,519,520,521,522,523,524,525,526,527,528,529,530,531,532,533,534,535,536,537,538,539,540,541,542,543,544,545,546,547,548,549,550,551,552,553,554,555,556,557,558,559,560,561,562,563,564,565,566,567,568,569,570,571,572,573,574,575,576,577,578,579,580,581,582,583,584,585,586,587,588,589,590,591,592,593,594,595,596,597,598,599,600,601,602,603,604,605,606,607,608,609,610,611,612,613,614,615,616,617,618,619,620,621,622,623,624,625,626,627,628,629,630,631,632,633,634,635,636,637,638,639,640,641,642,643,644,645,646,647,648,649,650,651,652,653,654,655,656,657,658,659,660,661,662,663,664,665,666,667,668,669,670,671,672,673,674,675,676,677,678,679,680,681,682,683,684,685,686,687,688,689,690,691,692,693,694,695,696,697,698,699,700,701,702,703,704,705,706,707,708,709,710,711,712,713,714,715,716,717,718,719,720,721,722,723,724,725,726,727,728,729,730,731,732,733,734,735,736,737,738,739,740,741,742,743,744,745,746,747,748,749,750,751,752,753,754,755,756,757,758,759,760,761,762,763,764,765,766,767,768,769,770,771,772,773,774,775,776,777,778,779,780,781,782,783,784,785,786,787,788,789,790,791,792,793,794,795,796,797,798,799,800,801,802,803,804,805,806,807,808,809,810,811,812,813,814,815,816,817,818,819,820,821,822,823,824,825,826,827,828,829,830,831,832,833,834,835,836,837,838,839,840,841,842,843,844,845,846,847,848,849,850,851,852,853,854,855,856,857,858,859,860,861,862,863,864,865,866,867,868,869,870,871,872,873,874,875,876,877,878,879,880,881,882,883,884,885,886,887,888,889,890,891,892,893,894,895,896,897,898,899,900,901,902,903,904,905,906,907,908,909,910,911,912,913,914,915,916,917,918,919,920,921,922,923,924,925,926,927,928,929,930,931,932,933,934,935,936,937,938,939,940,941,942,943,944,945,946,947,948,949,950,951,952,953,954,955,956,957,958,959,960,961,962,963,964,965,966,967,968,969,970,971,972,973,974,975,976,977,978,979,980,981,982,983,984,985,986,987,988,989,990,991,992,993,994,995,996,997,998,999,1000,1001,1002,1003,1004,1005,1006,1007,1008,1009,1010,1011,1012,1013,1014,1015,1016,1017,1018,1019,1020,1021,1022,1023,1024,1025,1026,1027,1028,1029,1030,1031,1032,1033,1034,1035,1036,1037,1038,1039,1040,1041,1042,1043,1044,1045,1046,1047,1048,1049,1050,1051,1052,1053,1054,1055,1056,1057,1058,1059,1060,1061,1062,1063,1064,1065,1066,1067,1068,1069,1070,1071,1072,1073,1074,1075,1076,1077,1078,1079,1080,1081,1082,1083,1084,1085,1086,1087,1088,1089,1090,1091,1092,1093,1094,1095,1096,1097,1098,1099,1100,1101,1102,1103,1104,1105,1106,1107,1108,1109,1110,1111,1112,1113,1114,1115,1116,1117,1118,1119,1120,1121,1122,1123,1124,1125,1126,1127,1128,1129,1130,1131,1132,1133,1134,1135,1136,1137,1138,1139,1140,1141,1142,1143,1144,1145,1146,1147,1148,1149,1150,1151,1152,1153,1154,1155,1156,1157,1158,1159,1160,1161,1162,1163,1164,1165,1166,1167,1168,1169,1170,1171,1172,1173,1174,1175,1176,1177,1178,1179,1180,1181,1182,1183,1184,1185,1186,1187,1188,1189,1190,1191,1192,1193,1194,1195,1196,1197,1198,1199,1200,1201,1202,1203,1204,1205,1206,1207,1208,1209,1210,1211,1212,1213,1214,1215,1216,1217,1218,1219,1220,1221,1222,1223,1224,1225,1226,1227,1228,1229,1230,1231,1232,1233,1234,1235,1236,1237,1238,1239,1240,1241,1242,1243,1244,1245,1246,1247,1248,1249,1250,1251,1252,1253,1254,1255,1256,1257,1258,1259,1260,1261,1262,1263,1264,1265,1266,1267,1268,1269,1270,1271,1272,1273,1274,1275,1276,1277,1278,1279,1280,1281,1282,1283,1284,1285,1286,1287,1288,1289,1290,1291,1292,1293,1294,1295,1296,1297,1298,1299,1300,1301,1302,1303,1304,1305,1306,1307,1308,1309,1310,1311,1312,1313,1314,1315,1316,1317,1318,1319,1320,1321,1322,1323,1324,1325,1326,1327,1328,1329,1330,1331,1332,1333,1334,1335,1336,1337,1338,1339,1340,1341,1342,1343,1344,1345,1346,1347,1348,1349,1350,1351,1352,1353,1354,1355,1356,1357,1358,1359,1360,1361,1362,1363,1364,1365,1366,1367,1368,1369,1370,1371,1372,1373,1374,1375,1376,1377,1378,1379,1380,1381,1382,1383,1384,1385,1386,1387,1388,1389,1390,1391,1392,1393,1394,1395,1396,1397,1398,1399,1400,1401,1402,1403,1404,1405,1406,1407,1408,1409,1410,1411,1412,1413,1414,1415,1416,1417,1418,1419,1420,1421,1422,1423,1424,1425,1426,1427,1428,1429,1430,1431,1432,1433,1434,1435,1436,1437,1438,1439,1440,1441,1442,1443,1444,1445,1446,1447,1448,1449,1450,1451,1452,1453,1454,1455,1456,1457,1458,1459,1460,1461,1462,1463,1464,1465,1466,1467,1468,1469,1470,1471,1472,1473,1474,1475,1476,1477,1478,1479,1480,1481,1482,1483,1484,1485,1486,1487,1488,1489,1490,1491,1492,1493,1494,1495,1496,1497,1498,1499,1500,1501,1502,1503,1504,1505,1506,1507,1508,1509,1510,1511,1512,1513,1514,1515,1516,1517,1518,1519,1520,1521,1522,1523,1524,1525,1526,1527,1528,1529,1530,1531,1532,1533,1534,1535,1536,1537,1538,1539,1540,1541,1542,1543,1544,1545,1546,1547,1548,1549,1550,1551,1552,1553,1554,1555,1556,1557,1558,1559,1560,1561,1562,1563,1564,1565,1566,1567,1568,1569,1570,1571,1572,1573,1574,1575,1576,1577,1578,1579,1580,1581,1582,1583,1584,1585,1586,1587,1588,1589,1590,1591,1592,1593,1594,1595,1596,1597,1598,1599,1600,1601,1602,1603,1604,1605,1606,1607,1608,1609,1610,1611,1612,1613,1614,1615,1616,1617,1618,1619,1620,1621,1622,1623,1624,1625,1626,1627,1628,1629,1630,1631,1632,1633,1634,1635,1636,1637,1638,1639,1640,1641,1642,1643,1644,1645,1646,1647,1648,1649,1650,1651,1652,1653,1654,1655,1656,1657,1658,1659,1660,1661,1662,1663,1664,1665,1666,1667,1668,1669,1670,1671,1672,1673,1674,1675,1676,1677,1678,1679,1680,1681,1682,1683,1684,1685,1686,1687,1688,1689,1690,1691,1692,1693,1694,1695,1696,1697,1698,1699,1700,1701,1702,1703,1704,1705,1706,1707,1708,1709,1710,1711,1712,1713,1714,1715,1716,1717,1718,1719,1720,1721,1722,1723,1724,1725,1726,1727,1728,1729,1730,1731,1732,1733,1734,1735,1736,1737,1738,1739,1740,1741,1742,1743,1744,1745,1746,1747,1748,1749,1750,1751,1752,1753,1754,1755,1756,1757,1758,1759,1760,1761,1762,1763,1764,1765,1766,1767,1768,1769,1770,1771,1772,1773,1774,1775,1776,1777,1778,1779,1780,1781,1782,1783,1784,1785,1786,1787,1788,1789,1790,1791,1792,1793,1794,1795,1796,1797,1798,1799,1800,1801,1802,1803,1804,1805,1806,1807,1808,1809,1810,1811,1812,1813,1814,1815,1816,1817,1818,1819,1820,1821,1822,1823,1824,1825,1826,1827,1828,1829,1830,1831,1832,1833,1834,1835,1836,1837,1838,1839,1840,1841,1842,1843,1844,1845,1846,1847,1848,1849,1850,1851,1852,1853,1854,1855,1856,1857,1858,1859,1860,1861,1862,1863,1864,1865,1866,1867,1868,1869,1870,1871,1872,1873,1874,1875,1876,1877,1878,1879,1880,1881,1882,1883,1884,1885,1886,1887,1888,1889,1890,1891,1892,1893,1894,1895,1896,1897,1898,1899,1900,1901,1902,1903,1904,1905,1906,1907,1908,1909,1910,1911,1912,1913,1914,1915,1916,1917,1918,1919,1920,1921,1922,1923,1924,1925,1926,1927,1928,1929,1930,1931,1932,1933,1934,1935,1936,1937,1938,1939,1940,1941,1942,1943,1944,1945,1946,1947,1948,1949,1950,1951,1952,1953,1954,1955,1956,1957,1958,1959,1960,1961,1962,1963,1964,1965,1966,1967,1968,1969,1970,1971,1972,1973,1974,1975,1976,1977,1978,1979,1980,1981,1982,1983,1984,1985,1986,1987,1988,1989,1990,1991,1992,1993,1994,1995,1996,1997,1998,1999,2000],"tree_info":[0,0,0,0,0,0,0,0,0,0,0,0,0,0,0,0,0,0,0,0,0,0,0,0,0,0,0,0,0,0,0,0,0,0,0,0,0,0,0,0,0,0,0,0,0,0,0,0,0,0,0,0,0,0,0,0,0,0,0,0,0,0,0,0,0,0,0,0,0,0,0,0,0,0,0,0,0,0,0,0,0,0,0,0,0,0,0,0,0,0,0,0,0,0,0,0,0,0,0,0,0,0,0,0,0,0,0,0,0,0,0,0,0,0,0,0,0,0,0,0,0,0,0,0,0,0,0,0,0,0,0,0,0,0,0,0,0,0,0,0,0,0,0,0,0,0,0,0,0,0,0,0,0,0,0,0,0,0,0,0,0,0,0,0,0,0,0,0,0,0,0,0,0,0,0,0,0,0,0,0,0,0,0,0,0,0,0,0,0,0,0,0,0,0,0,0,0,0,0,0,0,0,0,0,0,0,0,0,0,0,0,0,0,0,0,0,0,0,0,0,0,0,0,0,0,0,0,0,0,0,0,0,0,0,0,0,0,0,0,0,0,0,0,0,0,0,0,0,0,0,0,0,0,0,0,0,0,0,0,0,0,0,0,0,0,0,0,0,0,0,0,0,0,0,0,0,0,0,0,0,0,0,0,0,0,0,0,0,0,0,0,0,0,0,0,0,0,0,0,0,0,0,0,0,0,0,0,0,0,0,0,0,0,0,0,0,0,0,0,0,0,0,0,0,0,0,0,0,0,0,0,0,0,0,0,0,0,0,0,0,0,0,0,0,0,0,0,0,0,0,0,0,0,0,0,0,0,0,0,0,0,0,0,0,0,0,0,0,0,0,0,0,0,0,0,0,0,0,0,0,0,0,0,0,0,0,0,0,0,0,0,0,0,0,0,0,0,0,0,0,0,0,0,0,0,0,0,0,0,0,0,0,0,0,0,0,0,0,0,0,0,0,0,0,0,0,0,0,0,0,0,0,0,0,0,0,0,0,0,0,0,0,0,0,0,0,0,0,0,0,0,0,0,0,0,0,0,0,0,0,0,0,0,0,0,0,0,0,0,0,0,0,0,0,0,0,0,0,0,0,0,0,0,0,0,0,0,0,0,0,0,0,0,0,0,0,0,0,0,0,0,0,0,0,0,0,0,0,0,0,0,0,0,0,0,0,0,0,0,0,0,0,0,0,0,0,0,0,0,0,0,0,0,0,0,0,0,0,0,0,0,0,0,0,0,0,0,0,0,0,0,0,0,0,0,0,0,0,0,0,0,0,0,0,0,0,0,0,0,0,0,0,0,0,0,0,0,0,0,0,0,0,0,0,0,0,0,0,0,0,0,0,0,0,0,0,0,0,0,0,0,0,0,0,0,0,0,0,0,0,0,0,0,0,0,0,0,0,0,0,0,0,0,0,0,0,0,0,0,0,0,0,0,0,0,0,0,0,0,0,0,0,0,0,0,0,0,0,0,0,0,0,0,0,0,0,0,0,0,0,0,0,0,0,0,0,0,0,0,0,0,0,0,0,0,0,0,0,0,0,0,0,0,0,0,0,0,0,0,0,0,0,0,0,0,0,0,0,0,0,0,0,0,0,0,0,0,0,0,0,0,0,0,0,0,0,0,0,0,0,0,0,0,0,0,0,0,0,0,0,0,0,0,0,0,0,0,0,0,0,0,0,0,0,0,0,0,0,0,0,0,0,0,0,0,0,0,0,0,0,0,0,0,0,0,0,0,0,0,0,0,0,0,0,0,0,0,0,0,0,0,0,0,0,0,0,0,0,0,0,0,0,0,0,0,0,0,0,0,0,0,0,0,0,0,0,0,0,0,0,0,0,0,0,0,0,0,0,0,0,0,0,0,0,0,0,0,0,0,0,0,0,0,0,0,0,0,0,0,0,0,0,0,0,0,0,0,0,0,0,0,0,0,0,0,0,0,0,0,0,0,0,0,0,0,0,0,0,0,0,0,0,0,0,0,0,0,0,0,0,0,0,0,0,0,0,0,0,0,0,0,0,0,0,0,0,0,0,0,0,0,0,0,0,0,0,0,0,0,0,0,0,0,0,0,0,0,0,0,0,0,0,0,0,0,0,0,0,0,0,0,0,0,0,0,0,0,0,0,0,0,0,0,0,0,0,0,0,0,0,0,0,0,0,0,0,0,0,0,0,0,0,0,0,0,0,0,0,0,0,0,0,0,0,0,0,0,0,0,0,0,0,0,0,0,0,0,0,0,0,0,0,0,0,0,0,0,0,0,0,0,0,0,0,0,0,0,0,0,0,0,0,0,0,0,0,0,0,0,0,0,0,0,0,0,0,0,0,0,0,0,0,0,0,0,0,0,0,0,0,0,0,0,0,0,0,0,0,0,0,0,0,0,0,0,0,0,0,0,0,0,0,0,0,0,0,0,0,0,0,0,0,0,0,0,0,0,0,0,0,0,0,0,0,0,0,0,0,0,0,0,0,0,0,0,0,0,0,0,0,0,0,0,0,0,0,0,0,0,0,0,0,0,0,0,0,0,0,0,0,0,0,0,0,0,0,0,0,0,0,0,0,0,0,0,0,0,0,0,0,0,0,0,0,0,0,0,0,0,0,0,0,0,0,0,0,0,0,0,0,0,0,0,0,0,0,0,0,0,0,0,0,0,0,0,0,0,0,0,0,0,0,0,0,0,0,0,0,0,0,0,0,0,0,0,0,0,0,0,0,0,0,0,0,0,0,0,0,0,0,0,0,0,0,0,0,0,0,0,0,0,0,0,0,0,0,0,0,0,0,0,0,0,0,0,0,0,0,0,0,0,0,0,0,0,0,0,0,0,0,0,0,0,0,0,0,0,0,0,0,0,0,0,0,0,0,0,0,0,0,0,0,0,0,0,0,0,0,0,0,0,0,0,0,0,0,0,0,0,0,0,0,0,0,0,0,0,0,0,0,0,0,0,0,0,0,0,0,0,0,0,0,0,0,0,0,0,0,0,0,0,0,0,0,0,0,0,0,0,0,0,0,0,0,0,0,0,0,0,0,0,0,0,0,0,0,0,0,0,0,0,0,0,0,0,0,0,0,0,0,0,0,0,0,0,0,0,0,0,0,0,0,0,0,0,0,0,0,0,0,0,0,0,0,0,0,0,0,0,0,0,0,0,0,0,0,0,0,0,0,0,0,0,0,0,0,0,0,0,0,0,0,0,0,0,0,0,0,0,0,0,0,0,0,0,0,0,0,0,0,0,0,0,0,0,0,0,0,0,0,0,0,0,0,0,0,0,0,0,0,0,0,0,0,0,0,0,0,0,0,0,0,0,0,0,0,0,0,0,0,0,0,0,0,0,0,0,0,0,0,0,0,0,0,0,0,0,0,0,0,0,0,0,0,0,0,0,0,0,0,0,0,0,0,0,0,0,0,0,0,0,0,0,0,0,0,0,0,0,0,0,0,0,0,0,0,0,0,0,0,0,0,0,0,0,0,0,0,0,0,0,0,0,0,0,0,0,0,0,0,0,0,0,0,0,0,0,0,0,0,0,0,0,0,0,0,0,0,0,0,0,0,0,0,0,0,0,0,0,0,0,0,0,0,0,0,0,0,0,0,0,0,0,0,0,0,0,0,0,0,0,0,0,0,0,0,0,0,0,0,0,0,0,0,0,0,0,0,0,0,0,0,0,0,0,0,0,0,0,0,0,0,0,0,0,0,0,0,0,0,0,0,0,0,0,0,0,0,0,0,0,0,0,0,0,0,0,0,0,0,0,0,0,0,0,0,0,0,0,0,0,0,0,0,0,0,0,0,0,0,0,0,0,0,0,0,0,0,0,0,0,0,0,0,0,0,0,0,0,0,0,0,0,0,0,0,0,0,0,0,0,0,0,0,0,0,0,0,0,0,0,0,0,0,0,0,0,0,0,0,0,0,0,0,0,0,0,0,0,0,0,0,0,0,0,0,0,0,0,0,0,0,0,0,0,0,0,0,0,0,0,0,0,0,0,0,0,0,0,0,0,0,0,0,0,0,0,0,0,0,0,0,0,0,0,0,0,0,0,0,0,0,0,0,0,0,0,0,0,0,0,0,0,0,0,0,0,0,0,0,0,0,0,0,0,0,0,0,0,0,0,0,0,0,0,0,0,0,0,0,0,0,0,0,0,0,0,0,0,0,0,0,0,0,0,0,0,0,0,0,0,0,0,0,0,0,0,0,0,0,0,0,0,0,0,0,0,0,0,0,0,0,0,0,0,0,0,0,0,0,0,0,0,0,0,0,0,0,0,0,0,0,0,0,0,0,0,0,0,0,0,0,0,0,0,0,0,0,0,0,0,0,0,0,0,0,0,0,0,0,0,0,0,0,0,0,0,0,0,0,0,0,0,0,0,0,0,0,0,0,0,0,0,0,0,0,0,0,0,0,0,0,0,0,0,0,0,0,0,0,0,0,0,0,0,0,0,0,0,0,0,0,0,0,0,0,0,0,0,0,0,0,0,0,0,0,0,0,0,0,0,0,0,0,0,0,0,0,0,0],"trees":[{"base_weights":[-0.00046514822,0.37892956,-0.34418643,0.0019319715,0.0051024845,-0.0011716766,-0.004934481],"categories":[],"categories_nodes":[],"categories_segments":[],"categories_sizes":[],"default_left":[0,0,0,0,0,0,0],"id":0,"left_children":[1,3,5,-1,-1,-1,-1],"loss_changes":[1975.808,173.93518,268.22723,0.0,0.0,0.0,0.0],"parents":[2147483647,0,0,1,1,2,2],"right_children":[2,4,6,-1,-1,-1,-1],"split_conditions":[-0.000106641965,-0.27389693,0.008397281,0.0019319715,0.0051024845,-0.0011716766,-0.004934481],"split_indices":[1,3,1,0,0,0,0],"split_type":[0,0,0,0,0,0,0],"sum_hessian":[15131.466,7190.623,7940.843,2991.6606,4198.9624,3159.6855,4781.1567],"tree_param":{"num_deleted":"0","num_feature":"4","num_nodes":"7","size_leaf_vector":"1"}},{"base_weights":[-0.005484153,0.36034876,-0.34726077,0.0017608632,0.0048473743,-0.0010230568,-0.00476042],"categories":[],"categories_nodes":[],"categories_segments":[],"categories_sizes":[],"default_left":[0,0,0,0,0,0,0],"id":1,"left_children":[1,3,5,-1,-1,-1,-1],"loss_changes":[1895.231,166.26044,246.18793,0.0,0.0,0.0,0.0],"parents":[2147483647,0,0,1,1,2,2],"right_children":[2,4,6,-1,-1,-1,-1],"split_conditions":[-1.6432321e-05,-0.29086208,0.007217658,0.0017608632,0.0048473743,-0.0010230568,-0.00476042],"split_indices":[1,3,1,0,0,0,0],"split_type":[0,0,0,0,0,0,0],"sum_hessian":[15137.926,7309.9683,7827.957,2958.946,4351.0225,2706.1985,5121.7583],"tree_param":{"num_deleted":"0","num_feature":"4","num_nodes":"7","size_leaf_vector":"1"}},{"base_weights":[0.0094054965,0.3061931,-0.38963732,0.0037786867,0.00020886362,-0.0008068444,-0.004456516],"categories":[],"categories_nodes":[],"categories_segments":[],"categories_sizes":[],"default_left":[0,0,0,0,0,0,0],"id":2,"left_children":[1,3,5,-1,-1,-1,-1],"loss_changes":[1788.554,176.66357,110.56946,0.0,0.0,0.0,0.0],"parents":[2147483647,0,0,1,1,2,2],"right_children":[2,4,6,-1,-1,-1,-1],"split_conditions":[0.0032814045,-0.000628312,-0.14708833,0.0037786867,0.00020886362,-0.0008068444,-0.004456516],"split_indices":[1,1,0,0,0,0,0],"split_type":[0,0,0,0,0,0,0],"sum_hessian":[15082.713,8652.362,6430.351,6909.7305,1742.6313,993.40015,5436.9507],"tree_param":{"num_deleted":"0","num_feature":"4","num_nodes":"7","size_leaf_vector":"1"}},{"base_weights":[-0.00025388927,0.35613966,-0.32982144,0.0013783762,0.0044729826,-0.0012571908,-0.0046327454],"categories":[],"categories_nodes":[],"categories_segments":[],"categories_sizes":[],"default_left":[0,0,0,0,0,0,0],"id":3,"left_children":[1,3,5,-1,-1,-1,-1],"loss_changes":[1778.8564,143.57092,213.19678,0.0,0.0,0.0,0.0],"parents":[2147483647,0,0,1,1,2,2],"right_children":[2,4,6,-1,-1,-1,-1],"split_conditions":[-0.000106641965,-0.52598435,0.008397281,0.0013783762,0.0044729826,-0.0012571908,-0.0046327454],"split_indices":[1,3,1,0,0,0,0],"split_type":[0,0,0,0,0,0,0],"sum_hessian":[15125.131,7264.9697,7860.161,2150.6926,5114.2773,3118.1677,4741.993],"tree_param":{"num_deleted":"0","num_feature":"4","num_nodes":"7","size_leaf_vector":"1"}},{"base_weights":[0.00287821,0.36044034,-0.32755145,0.0018549127,0.004833805,-0.001108096,-0.0046131206],"categories":[],"categories_nodes":[],"categories_segments":[],"categories_sizes":[],"default_left":[0,0,0,0,0,0,0],"id":4,"left_children":[1,3,5,-1,-1,-1,-1],"loss_changes":[1785.4218,154.56525,226.56476,0.0,0.0,0.0,0.0],"parents":[2147483647,0,0,1,1,2,2],"right_children":[2,4,6,-1,-1,-1,-1],"split_conditions":[-0.000106641965,-0.27389693,0.00799926,0.0018549127,0.004833805,-0.001108096,-0.0046131206],"split_indices":[1,3,1,0,0,0,0],"split_type":[0,0,0,0,0,0,0],"sum_hessian":[15091.324,7249.0996,7842.224,3005.4456,4243.654,3002.6223,4839.602],"tree_param":{"num_deleted":"0","num_feature":"4","num_nodes":"7","size_leaf_vector":"1"}},{"base_weights":[-0.006286016,0.33889222,-0.3217506,0.0021738005,0.0052555148,-0.0009184041,-0.0043015587],"categories":[],"categories_nodes":[],"categories_segments":[],"categories_sizes":[],"default_left":[0,0,0,0,0,0,0],"id":5,"left_children":[1,3,5,-1,-1,-1,-1],"loss_changes":[1649.0414,162.10175,196.3274,0.0,0.0,0.0,0.0],"parents":[2147483647,0,0,1,1,2,2],"right_children":[2,4,6,-1,-1,-1,-1],"split_conditions":[-0.00018931416,0.11157615,0.006257422,0.0021738005,0.0052555148,-0.0009184041,-0.0043015587],"split_indices":[1,3,1,0,0,0,0],"split_type":[0,0,0,0,0,0,0],"sum_hessian":[15124.037,7220.0347,7904.003,4389.527,2830.5073,2541.528,5362.475],"tree_param":{"num_deleted":"0","num_feature":"4","num_nodes":"7","size_leaf_vector":"1"}},{"base_weights":[0.008177113,0.37179342,-0.3244442,0.0014260232,0.0047430876,-0.0007288414,-0.0044373428],"categories":[],"categories_nodes":[],"categories_segments":[],"categories_sizes":[],"default_left":[0,0,0,0,0,0,0],"id":6,"left_children":[1,3,5,-1,-1,-1,-1],"loss_changes":[1829.9977,168.57239,236.24622,0.0,0.0,0.0,0.0],"parents":[2147483647,0,0,1,1,2,2],"right_children":[2,4,6,-1,-1,-1,-1],"split_conditions":[-0.00018931416,-0.49648073,0.006257422,0.0014260232,0.0047430876,-0.0007288414,-0.0044373428],"split_indices":[1,3,1,0,0,0,0],"split_type":[0,0,0,0,0,0,0],"sum_hessian":[15110.269,7219.67,7890.599,2241.6755,4977.994,2546.0203,5344.5786],"tree_param":{"num_deleted":"0","num_feature":"4","num_nodes":"7","size_leaf_vector":"1"}},{"base_weights":[0.0023920033,0.33725968,-0.31431675,0.0016898672,0.0045464453,-0.001079912,-0.0044878875],"categories":[],"categories_nodes":[],"categories_segments":[],"categories_sizes":[],"default_left":[0,0,0,0,0,0,0],"id":7,"left_children":[1,3,5,-1,-1,-1,-1],"loss_changes":[1608.5261,144.25403,215.17963,0.0,0.0,0.0,0.0],"parents":[2147483647,0,0,1,1,2,2],"right_children":[2,4,6,-1,-1,-1,-1],"split_conditions":[-1.6432321e-05,-0.27389693,0.008397281,0.0016898672,0.0045464453,-0.001079912,-0.0044878875],"split_indices":[1,3,1,0,0,0,0],"split_type":[0,0,0,0,0,0,0],"sum_hessian":[15146.619,7363.4673,7783.1523,3039.3823,4324.0845,3081.1277,4702.025],"tree_param":{"num_deleted":"0","num_feature":"4","num_nodes":"7","size_leaf_vector":"1"}},{"base_weights":[-0.0052208067,0.3364442,-0.32100412,0.002480282,0.0056096604,-0.0007637283,-0.0043865363],"categories":[],"categories_nodes":[],"categories_segments":[],"categories_sizes":[],"default_left":[0,0,0,0,0,0,0],"id":8,"left_children":[1,3,5,-1,-1,-1,-1],"loss_changes":[1638.3679,142.56238,226.31732,0.0,0.0,0.0,0.0],"parents":[2147483647,0,0,1,1,2,2],"right_children":[2,4,6,-1,-1,-1,-1],"split_conditions":[-0.00029575598,0.35806918,0.006257422,0.002480282,0.0056096604,-0.0007637283,-0.0043865363],"split_indices":[1,3,1,0,0,0,0],"split_type":[0,0,0,0,0,0,0],"sum_hessian":[15165.376,7282.346,7883.0303,5243.122,2039.2239,2568.1042,5314.9263],"tree_param":{"num_deleted":"0","num_feature":"4","num_nodes":"7","size_leaf_vector":"1"}},{"base_weights":[0.0036160806,0.33768445,-0.30872935,0.0024237651,0.0057631265,-0.00054587127,-0.0041341633],"categories":[],"categories_nodes":[],"categories_segments":[],"categories_sizes":[],"default_left":[0,0,0,0,0,0,0],"id":9,"left_children":[1,3,5,-1,-1,-1,-1],"loss_changes":[1578.7739,164.08954,207.30145,0.0,0.0,0.0,0.0],"parents":[2147483647,0,0,1,1,2,2],"right_children":[2,4,6,-1,-1,-1,-1],"split_conditions":[-0.00018931416,0.34879988,0.005541498,0.0024237651,0.0057631265,-0.00054587127,-0.0041341633],"split_indices":[1,3,1,0,0,0,0],"split_type":[0,0,0,0,0,0,0],"sum_hessian":[15110.098,7302.314,7807.783,5235.5767,2066.7375,2285.1152,5522.668],"tree_param":{"num_deleted":"0","num_feature":"4","num_nodes":"7","size_leaf_vector":"1"}},{"base_weights":[-0.004484629,0.3375068,-0.3244615,0.0023951444,0.005114338,-0.0008987003,-0.0044652014],"categories":[],"categories_nodes":[],"categories_segments":[],"categories_sizes":[],"default_left":[0,0,0,0,0,0,0],"id":10,"left_children":[1,3,5,-1,-1,-1,-1],"loss_changes":[1660.4087,123.00372,223.56598,0.0,0.0,0.0,0.0],"parents":[2147483647,0,0,1,1,2,2],"right_children":[2,4,6,-1,-1,-1,-1],"split_conditions":[-0.00018931416,0.18144417,0.006816924,0.0023951444,0.005114338,-0.0008987003,-0.0044652014],"split_indices":[1,3,1,0,0,0,0],"split_type":[0,0,0,0,0,0,0],"sum_hessian":[15153.452,7322.977,7830.4746,4702.857,2620.1204,2688.6194,5141.855],"tree_param":{"num_deleted":"0","num_feature":"4","num_nodes":"7","size_leaf_vector":"1"}},{"base_weights":[0.00023442802,0.33578554,-0.31597698,0.0015611877,0.004584028,-0.00066039397,-0.0043387893],"categories":[],"categories_nodes":[],"categories_segments":[],"categories_sizes":[],"default_left":[0,0,0,0,0,0,0],"id":11,"left_children":[1,3,5,-1,-1,-1,-1],"loss_changes":[1608.9136,160.77216,229.21368,0.0,0.0,0.0,0.0],"parents":[2147483647,0,0,1,1,2,2],"right_children":[2,4,6,-1,-1,-1,-1],"split_conditions":[-0.00018931416,-0.2818984,0.006257422,0.0015611877,0.004584028,-0.00066039397,-0.0043387893],"split_indices":[1,3,1,0,0,0,0],"split_type":[0,0,0,0,0,0,0],"sum_hessian":[15143.21,7348.167,7795.043,2993.2095,4354.9575,2506.23,5288.813],"tree_param":{"num_deleted":"0","num_feature":"4","num_nodes":"7","size_leaf_vector":"1"}},{"base_weights":[0.01073534,0.33627898,-0.30270392,0.0022973127,0.005190298,-0.00089231454,-0.0043260246],"categories":[],"categories_nodes":[],"categories_segments":[],"categories_sizes":[],"default_left":[0,0,0,0,0,0,0],"id":12,"left_children":[1,3,5,-1,-1,-1,-1],"loss_changes":[1547.99,142.98474,213.37347,0.0,0.0,0.0,0.0],"parents":[2147483647,0,0,1,1,2,2],"right_children":[2,4,6,-1,-1,-1,-1],"split_conditions":[-1.6432321e-05,0.17353998,0.00799926,0.0022973127,0.005190298,-0.00089231454,-0.0043260246],"split_indices":[1,3,1,0,0,0,0],"split_type":[0,0,0,0,0,0,0],"sum_hessian":[15150.392,7432.905,7717.487,4713.105,2719.8,2928.8484,4788.6387],"tree_param":{"num_deleted":"0","num_feature":"4","num_nodes":"7","size_leaf_vector":"1"}},{"base_weights":[0.0042541814,0.3171666,-0.29951936,0.0022897148,0.0051012603,-0.00095976435,-0.004321872],"categories":[],"categories_nodes":[],"categories_segments":[],"categories_sizes":[],"default_left":[0,0,0,0,0,0,0],"id":13,"left_children":[1,3,5,-1,-1,-1,-1],"loss_changes":[1440.234,125.1333,206.61896,0.0,0.0,0.0,0.0],"parents":[2147483647,0,0,1,1,2,2],"right_children":[2,4,6,-1,-1,-1,-1],"split_conditions":[-1.6432321e-05,0.28951952,0.008397281,0.0022897148,0.0051012603,-0.00095976435,-0.004321872],"split_indices":[1,3,1,0,0,0,0],"split_type":[0,0,0,0,0,0,0],"sum_hessian":[15131.484,7455.0273,7676.457,5135.031,2319.9966,3038.8833,4637.5737],"tree_param":{"num_deleted":"0","num_feature":"4","num_nodes":"7","size_leaf_vector":"1"}},{"base_weights":[0.009648907,0.2734865,-0.3654744,0.0033179405,3.7432474e-05,-0.00092864607,-0.004380552],"categories":[],"categories_nodes":[],"categories_segments":[],"categories_sizes":[],"default_left":[0,0,0,0,0,0,0],"id":14,"left_children":[1,3,5,-1,-1,-1,-1],"loss_changes":[1500.6813,139.68988,122.92169,0.0,0.0,0.0,0.0],"parents":[2147483647,0,0,1,1,2,2],"right_children":[2,4,6,-1,-1,-1,-1],"split_conditions":[0.0032814045,-0.00029575598,-0.107414655,0.0033179405,3.7432474e-05,-0.00092864607,-0.004380552],"split_indices":[1,1,0,0,0,0,0],"split_type":[0,0,0,0,0,0,0],"sum_hessian":[15143.571,8893.694,6249.877,7307.995,1585.6993,1321.8076,4928.0693],"tree_param":{"num_deleted":"0","num_feature":"4","num_nodes":"7","size_leaf_vector":"1"}},{"base_weights":[0.0028577961,0.25013748,-0.36957553,0.0031232887,-0.000106957916,-0.00022980686,-0.0043219845],"categories":[],"categories_nodes":[],"categories_segments":[],"categories_sizes":[],"default_left":[0,0,0,0,0,0,0],"id":15,"left_children":[1,3,5,-1,-1,-1,-1],"loss_changes":[1398.3915,148.40039,130.92816,0.0,0.0,0.0,0.0],"parents":[2147483647,0,0,1,1,2,2],"right_children":[2,4,6,-1,-1,-1,-1],"split_conditions":[0.0037785617,-0.00029575598,-0.14466117,0.0031232887,-0.000106957916,-0.00022980686,-0.0043219845],"split_indices":[1,1,0,0,0,0,0],"split_type":[0,0,0,0,0,0,0],"sum_hessian":[15165.454,9117.677,6047.7764,7363.768,1753.9089,930.032,5117.7446],"tree_param":{"num_deleted":"0","num_feature":"4","num_nodes":"7","size_leaf_vector":"1"}},{"base_weights":[-0.0037521159,0.30332443,-0.30154747,0.0013658026,0.004188865,-0.0013901477,-0.004534672],"categories":[],"categories_nodes":[],"categories_segments":[],"categories_sizes":[],"default_left":[0,0,0,0,0,0,0],"id":16,"left_children":[1,3,5,-1,-1,-1,-1],"loss_changes":[1387.6659,142.80151,189.0376,0.0,0.0,0.0,0.0],"parents":[2147483647,0,0,1,1,2,2],"right_children":[2,4,6,-1,-1,-1,-1],"split_conditions":[-0.000106641965,-0.27389693,0.010772272,0.0013658026,0.004188865,-0.0013901477,-0.004534672],"split_indices":[1,3,1,0,0,0,0],"split_type":[0,0,0,0,0,0,0],"sum_hessian":[15154.725,7459.3496,7695.3745,3065.958,4393.3916,3730.2578,3965.1167],"tree_param":{"num_deleted":"0","num_feature":"4","num_nodes":"7","size_leaf_vector":"1"}},{"base_weights":[-0.00024099126,0.29917148,-0.2938682,0.0018782257,0.004365338,-0.0014512464,-0.0045532635],"categories":[],"categories_nodes":[],"categories_segments":[],"categories_sizes":[],"default_left":[0,0,0,0,0,0,0],"id":17,"left_children":[1,3,5,-1,-1,-1,-1],"loss_changes":[1329.5363,113.05536,182.14563,0.0,0.0,0.0,0.0],"parents":[2147483647,0,0,1,1,2,2],"right_children":[2,4,6,-1,-1,-1,-1],"split_conditions":[-0.000106641965,0.008834402,0.011921929,0.0018782257,0.004365338,-0.0014512464,-0.0045532635],"split_indices":[1,3,1,0,0,0,0],"split_type":[0,0,0,0,0,0,0],"sum_hessian":[15102.922,7476.0146,7626.907,4146.072,3329.9429,3982.867,3644.0403],"tree_param":{"num_deleted":"0","num_feature":"4","num_nodes":"7","size_leaf_vector":"1"}},{"base_weights":[0.0013548548,0.30155212,-0.2888263,0.0015947047,0.0040185004,-0.0009850998,-0.0041924133],"categories":[],"categories_nodes":[],"categories_segments":[],"categories_sizes":[],"default_left":[0,0,0,0,0,0,0],"id":18,"left_children":[1,3,5,-1,-1,-1,-1],"loss_changes":[1319.5872,104.92444,190.20569,0.0,0.0,0.0,0.0],"parents":[2147483647,0,0,1,1,2,2],"right_children":[2,4,6,-1,-1,-1,-1],"split_conditions":[-0.00018931416,-0.26560616,0.008397281,0.0015947047,0.0040185004,-0.0009850998,-0.0041924133],"split_indices":[1,3,1,0,0,0,0],"split_type":[0,0,0,0,0,0,0],"sum_hessian":[15128.094,7437.2197,7690.874,3092.4033,4344.8164,3137.5007,4553.3735],"tree_param":{"num_deleted":"0","num_feature":"4","num_nodes":"7","size_leaf_vector":"1"}},{"base_weights":[-0.011395537,0.22849376,-0.35746855,0.002913045,-5.9191098e-05,-0.0004311546,-0.004136377],"categories":[],"categories_nodes":[],"categories_segments":[],"categories_sizes":[],"default_left":[0,0,0,0,0,0,0],"id":19,"left_children":[1,3,5,-1,-1,-1,-1],"loss_changes":[1258.7701,132.11856,108.98505,0.0,0.0,0.0,0.0],"parents":[2147483647,0,0,1,1,2,2],"right_children":[2,4,6,-1,-1,-1,-1],"split_conditions":[0.0032814045,-0.00089304656,-0.14708833,0.002913045,-5.9191098e-05,-0.0004311546,-0.004136377],"split_indices":[1,1,0,0,0,0,0],"split_type":[0,0,0,0,0,0,0],"sum_hessian":[15141.004,8942.672,6198.332,7054.313,1888.3586,945.0121,5253.3203],"tree_param":{"num_deleted":"0","num_feature":"4","num_nodes":"7","size_leaf_vector":"1"}},{"base_weights":[-0.004814008,0.28640404,-0.28470376,0.0013458402,0.003928274,-0.0010617279,-0.004088636],"categories":[],"categories_nodes":[],"categories_segments":[],"categories_sizes":[],"default_left":[0,0,0,0,0,0,0],"id":20,"left_children":[1,3,5,-1,-1,-1,-1],"loss_changes":[1241.379,119.513306,171.23285,0.0,0.0,0.0,0.0],"parents":[2147483647,0,0,1,1,2,2],"right_children":[2,4,6,-1,-1,-1,-1],"split_conditions":[-0.00029575598,-0.26560616,0.008397281,0.0013458402,0.003928274,-0.0010617279,-0.004088636],"split_indices":[1,3,1,0,0,0,0],"split_type":[0,0,0,0,0,0,0],"sum_hessian":[15209.988,7452.279,7757.7095,3084.325,4367.954,3193.025,4564.6846],"tree_param":{"num_deleted":"0","num_feature":"4","num_nodes":"7","size_leaf_vector":"1"}},{"base_weights":[0.004900734,0.295442,-0.28504354,0.0014395858,0.0038610909,-0.0010602404,-0.0040447186],"categories":[],"categories_nodes":[],"categories_segments":[],"categories_sizes":[],"default_left":[0,0,0,0,0,0,0],"id":21,"left_children":[1,3,5,-1,-1,-1,-1],"loss_changes":[1271.1145,102.45007,160.49243,0.0,0.0,0.0,0.0],"parents":[2147483647,0,0,1,1,2,2],"right_children":[2,4,6,-1,-1,-1,-1],"split_conditions":[-1.6432321e-05,-0.34347907,0.008397281,0.0014395858,0.0038610909,-0.0010602404,-0.0040447186],"split_indices":[1,3,1,0,0,0,0],"split_type":[0,0,0,0,0,0,0],"sum_hessian":[15068.946,7528.3525,7540.594,2832.6196,4695.733,3028.386,4512.208],"tree_param":{"num_deleted":"0","num_feature":"4","num_nodes":"7","size_leaf_vector":"1"}},{"base_weights":[-0.0034475895,0.22692494,-0.35684174,0.00285203,-0.00020702333,-0.0015423151,-0.0043410915],"categories":[],"categories_nodes":[],"categories_segments":[],"categories_sizes":[],"default_left":[0,0,0,0,0,0,0],"id":22,"left_children":[1,3,5,-1,-1,-1,-1],"loss_changes":[1230.5668,132.3363,92.14081,0.0,0.0,0.0,0.0],"parents":[2147483647,0,0,1,1,2,2],"right_children":[2,4,6,-1,-1,-1,-1],"split_conditions":[0.0037785617,-0.00029575598,-0.06588752,0.00285203,-0.00020702333,-0.0015423151,-0.0043410915],"split_indices":[1,1,0,0,0,0,0],"split_type":[0,0,0,0,0,0,0],"sum_hessian":[15093.701,9137.709,5955.9917,7398.924,1738.7855,1656.1493,4299.8423],"tree_param":{"num_deleted":"0","num_feature":"4","num_nodes":"7","size_leaf_vector":"1"}},{"base_weights":[3.488898e-05,0.2860584,-0.2819587,0.0013677963,0.0038869786,-0.0009937356,-0.0040718326],"categories":[],"categories_nodes":[],"categories_segments":[],"categories_sizes":[],"default_left":[0,0,0,0,0,0,0],"id":23,"left_children":[1,3,5,-1,-1,-1,-1],"loss_changes":[1225.3519,114.53015,173.95819,0.0,0.0,0.0,0.0],"parents":[2147483647,0,0,1,1,2,2],"right_children":[2,4,6,-1,-1,-1,-1],"split_conditions":[-0.00018931416,-0.27389693,0.008397281,0.0013677963,0.0038869786,-0.0009937356,-0.0040718326],"split_indices":[1,3,1,0,0,0,0],"split_type":[0,0,0,0,0,0,0],"sum_hessian":[15172.12,7533.928,7638.192,3083.0342,4450.894,3117.9497,4520.242],"tree_param":{"num_deleted":"0","num_feature":"4","num_nodes":"7","size_leaf_vector":"1"}},{"base_weights":[-0.0016762298,0.21701385,-0.35661376,0.002843611,4.0536146e-05,-0.0007555197,-0.0043423274],"categories":[],"categories_nodes":[],"categories_segments":[],"categories_sizes":[],"default_left":[0,0,0,0,0,0,0],"id":24,"left_children":[1,3,5,-1,-1,-1,-1],"loss_changes":[1173.9071,133.87225,124.96777,0.0,0.0,0.0,0.0],"parents":[2147483647,0,0,1,1,2,2],"right_children":[2,4,6,-1,-1,-1,-1],"split_conditions":[0.0041177543,-0.0010329842,-0.10343043,0.002843611,4.0536146e-05,-0.0007555197,-0.0043423274],"split_indices":[1,1,0,0,0,0,0],"split_type":[0,0,0,0,0,0,0],"sum_hessian":[15101.747,9345.01,5756.737,7093.644,2251.366,1252.824,4503.9126],"tree_param":{"num_deleted":"0","num_feature":"4","num_nodes":"7","size_leaf_vector":"1"}},{"base_weights":[-0.0073097204,0.21683326,-0.33051112,0.0027024418,-6.798729e-05,6.2761945e-05,-0.0039413106],"categories":[],"categories_nodes":[],"categories_segments":[],"categories_sizes":[],"default_left":[0,0,0,0,0,0,0],"id":25,"left_children":[1,3,5,-1,-1,-1,-1],"loss_changes":[1094.212,106.78311,132.9668,0.0,0.0,0.0,0.0],"parents":[2147483647,0,0,1,1,2,2],"right_children":[2,4,6,-1,-1,-1,-1],"split_conditions":[0.0029518248,-0.0007546501,-0.14466117,0.0027024418,-6.798729e-05,6.2761945e-05,-0.0039413106],"split_indices":[1,1,0,0,0,0,0],"split_type":[0,0,0,0,0,0,0],"sum_hessian":[15082.925,8906.434,6176.4917,7191.2954,1715.138,980.3055,5196.186],"tree_param":{"num_deleted":"0","num_feature":"4","num_nodes":"7","size_leaf_vector":"1"}},{"base_weights":[-0.005312423,0.20654365,-0.33890012,0.0026069037,-0.0002130268,-0.0004206466,-0.0039216657],"categories":[],"categories_nodes":[],"categories_segments":[],"categories_sizes":[],"default_left":[0,0,0,0,0,0,0],"id":26,"left_children":[1,3,5,-1,-1,-1,-1],"loss_changes":[1070.6503,114.56662,92.45465,0.0,0.0,0.0,0.0],"parents":[2147483647,0,0,1,1,2,2],"right_children":[2,4,6,-1,-1,-1,-1],"split_conditions":[0.0037785617,-0.00029575598,-0.14708833,0.0026069037,-0.0002130268,-0.0004206466,-0.0039216657],"split_indices":[1,1,0,0,0,0,0],"split_type":[0,0,0,0,0,0,0],"sum_hessian":[15127.667,9252.419,5875.2485,7478.2026,1774.216,899.4722,4975.7764],"tree_param":{"num_deleted":"0","num_feature":"4","num_nodes":"7","size_leaf_vector":"1"}},{"base_weights":[-0.0008714891,0.2199953,-0.33082443,0.0011351823,0.0033801289,-0.0,-0.0037751198],"categories":[],"categories_nodes":[],"categories_segments":[],"categories_sizes":[],"default_left":[0,0,0,0,0,0,0],"id":27,"left_children":[1,3,5,-1,-1,-1,-1],"loss_changes":[1104.478,113.21362,93.77368,0.0,0.0,0.0,0.0],"parents":[2147483647,0,0,1,1,2,2],"right_children":[2,4,6,-1,-1,-1,-1],"split_conditions":[0.0032814045,-0.015242879,-0.17474033,0.0011351823,0.0033801289,-0.0,-0.0037751198],"split_indices":[1,3,0,0,0,0,0],"split_type":[0,0,0,0,0,0,0],"sum_hessian":[15134.1455,9065.862,6068.284,4780.722,4285.1396,752.4674,5315.817],"tree_param":{"num_deleted":"0","num_feature":"4","num_nodes":"7","size_leaf_vector":"1"}},{"base_weights":[0.0044397702,0.22647823,-0.34111145,0.0014104827,0.0036614395,-0.001036723,-0.0040524155],"categories":[],"categories_nodes":[],"categories_segments":[],"categories_sizes":[],"default_left":[0,0,0,0,0,0,0],"id":28,"left_children":[1,3,5,-1,-1,-1,-1],"loss_changes":[1161.9783,109.01764,89.26593,0.0,0.0,0.0,0.0],"parents":[2147483647,0,0,1,1,2,2],"right_children":[2,4,6,-1,-1,-1,-1],"split_conditions":[0.003615563,0.17353998,-0.107414655,0.0014104827,0.0036614395,-0.001036723,-0.0040524155],"split_indices":[1,3,0,0,0,0,0],"split_type":[0,0,0,0,0,0,0],"sum_hessian":[15126.009,9212.644,5913.365,5733.107,3479.5369,1266.3856,4646.98],"tree_param":{"num_deleted":"0","num_feature":"4","num_nodes":"7","size_leaf_vector":"1"}},{"base_weights":[-0.006628209,0.2599154,-0.27313507,0.001556178,0.0038590438,-0.0013386209,-0.0042729895],"categories":[],"categories_nodes":[],"categories_segments":[],"categories_sizes":[],"default_left":[0,0,0,0,0,0,0],"id":29,"left_children":[1,3,5,-1,-1,-1,-1],"loss_changes":[1073.3855,98.10559,161.13165,0.0,0.0,0.0,0.0],"parents":[2147483647,0,0,1,1,2,2],"right_children":[2,4,6,-1,-1,-1,-1],"split_conditions":[-0.00018931416,0.008834402,0.011921929,0.001556178,0.0038590438,-0.0013386209,-0.0042729895],"split_indices":[1,3,1,0,0,0,0],"split_type":[0,0,0,0,0,0,0],"sum_hessian":[15090.329,7542.892,7547.437,4143.2607,3399.6313,3978.445,3568.9917],"tree_param":{"num_deleted":"0","num_feature":"4","num_nodes":"7","size_leaf_vector":"1"}},{"base_weights":[0.006322504,0.20533319,-0.34582365,0.0027179155,-0.00021175732,-0.0003395246,-0.004011164],"categories":[],"categories_nodes":[],"categories_segments":[],"categories_sizes":[],"default_left":[0,0,0,0,0,0,0],"id":30,"left_children":[1,3,5,-1,-1,-1,-1],"loss_changes":[1059.963,145.82193,93.58624,0.0,0.0,0.0,0.0],"parents":[2147483647,0,0,1,1,2,2],"right_children":[2,4,6,-1,-1,-1,-1],"split_conditions":[0.0050066602,-0.0004032775,-0.14708833,0.0027179155,-0.00021175732,-0.0003395246,-0.004011164],"split_indices":[1,1,0,0,0,0,0],"split_type":[0,0,0,0,0,0,0],"sum_hessian":[15106.732,9656.5,5450.233,7467.833,2188.667,825.92755,4624.305],"tree_param":{"num_deleted":"0","num_feature":"4","num_nodes":"7","size_leaf_vector":"1"}},{"base_weights":[-0.0050664362,0.18860851,-0.34865203,0.0025200772,-0.00018785089,-0.0004254477,-0.0040146313],"categories":[],"categories_nodes":[],"categories_segments":[],"categories_sizes":[],"default_left":[0,0,0,0,0,0,0],"id":31,"left_children":[1,3,5,-1,-1,-1,-1],"loss_changes":[1009.8161,127.84177,87.83478,0.0,0.0,0.0,0.0],"parents":[2147483647,0,0,1,1,2,2],"right_children":[2,4,6,-1,-1,-1,-1],"split_conditions":[0.0050066602,-0.0005169288,-0.1496055,0.0025200772,-0.00018785089,-0.0004254477,-0.0040146313],"split_indices":[1,1,0,0,0,0,0],"split_type":[0,0,0,0,0,0,0],"sum_hessian":[15152.894,9691.51,5461.3843,7424.536,2266.9736,809.02826,4652.356],"tree_param":{"num_deleted":"0","num_feature":"4","num_nodes":"7","size_leaf_vector":"1"}},{"base_weights":[0.0050646192,0.262902,-0.26063368,0.0018586821,0.0043793786,-0.00081228395,-0.0038376902],"categories":[],"categories_nodes":[],"categories_segments":[],"categories_sizes":[],"default_left":[0,0,0,0,0,0,0],"id":32,"left_children":[1,3,5,-1,-1,-1,-1],"loss_changes":[1037.1024,102.18115,163.88705,0.0,0.0,0.0,0.0],"parents":[2147483647,0,0,1,1,2,2],"right_children":[2,4,6,-1,-1,-1,-1],"split_conditions":[-0.000106641965,0.3146118,0.008397281,0.0018586821,0.0043793786,-0.00081228395,-0.0038376902],"split_indices":[1,3,1,0,0,0,0],"split_type":[0,0,0,0,0,0,0],"sum_hessian":[15118.611,7674.7725,7443.8384,5347.6074,2327.1648,3039.735,4404.103],"tree_param":{"num_deleted":"0","num_feature":"4","num_nodes":"7","size_leaf_vector":"1"}},{"base_weights":[-0.0041048313,0.19457784,-0.31977904,0.002479242,-0.00017464501,-2.1483609e-05,-0.0037748355],"categories":[],"categories_nodes":[],"categories_segments":[],"categories_sizes":[],"default_left":[0,0,0,0,0,0,0],"id":33,"left_children":[1,3,5,-1,-1,-1,-1],"loss_changes":[948.1459,105.18823,106.662415,0.0,0.0,0.0,0.0],"parents":[2147483647,0,0,1,1,2,2],"right_children":[2,4,6,-1,-1,-1,-1],"split_conditions":[0.0037785617,-0.0005169288,-0.14708833,0.002479242,-0.00017464501,-2.1483609e-05,-0.0037748355],"split_indices":[1,1,0,0,0,0,0],"split_type":[0,0,0,0,0,0,0],"sum_hessian":[15095.446,9264.879,5830.568,7404.942,1859.9369,900.65784,4929.91],"tree_param":{"num_deleted":"0","num_feature":"4","num_nodes":"7","size_leaf_vector":"1"}},{"base_weights":[-0.0016712898,0.24705409,-0.2613097,0.0014110398,0.00385037,-0.0009326589,-0.0037464313],"categories":[],"categories_nodes":[],"categories_segments":[],"categories_sizes":[],"default_left":[0,0,0,0,0,0,0],"id":34,"left_children":[1,3,5,-1,-1,-1,-1],"loss_changes":[974.9403,111.622955,139.89188,0.0,0.0,0.0,0.0],"parents":[2147483647,0,0,1,1,2,2],"right_children":[2,4,6,-1,-1,-1,-1],"split_conditions":[-1.6432321e-05,0.047969572,0.008397281,0.0014110398,0.00385037,-0.0009326589,-0.0037464313],"split_indices":[1,3,1,0,0,0,0],"split_type":[0,0,0,0,0,0,0],"sum_hessian":[15076.723,7698.4683,7378.255,4370.249,3328.2192,2982.7173,4395.5376],"tree_param":{"num_deleted":"0","num_feature":"4","num_nodes":"7","size_leaf_vector":"1"}},{"base_weights":[-0.0017555312,0.24577071,-0.2570736,-0.0011226524,0.0027619784,-0.0005097058,-0.003572752],"categories":[],"categories_nodes":[],"categories_segments":[],"categories_sizes":[],"default_left":[0,0,0,0,0,0,0],"id":35,"left_children":[1,3,5,-1,-1,-1,-1],"loss_changes":[954.62354,84.00531,153.0075,0.0,0.0,0.0,0.0],"parents":[2147483647,0,0,1,1,2,2],"right_children":[2,4,6,-1,-1,-1,-1],"split_conditions":[-0.000106641965,-1.2274318,0.006257422,-0.0011226524,0.0027619784,-0.0005097058,-0.003572752],"split_indices":[1,3,1,0,0,0,0],"split_type":[0,0,0,0,0,0,0],"sum_hessian":[15085.123,7657.6387,7427.4844,595.1186,7062.52,2437.9575,4989.527],"tree_param":{"num_deleted":"0","num_feature":"4","num_nodes":"7","size_leaf_vector":"1"}},{"base_weights":[0.0087513635,0.20950563,-0.3151828,0.0025985788,-4.817664e-05,-0.0004383606,-0.0037605946],"categories":[],"categories_nodes":[],"categories_segments":[],"categories_sizes":[],"default_left":[0,0,0,0,0,0,0],"id":36,"left_children":[1,3,5,-1,-1,-1,-1],"loss_changes":[982.13214,100.91791,94.84827,0.0,0.0,0.0,0.0],"parents":[2147483647,0,0,1,1,2,2],"right_children":[2,4,6,-1,-1,-1,-1],"split_conditions":[0.0037785617,-0.00029575598,-0.12672383,0.0025985788,-4.817664e-05,-0.0004383606,-0.0037605946],"split_indices":[1,1,0,0,0,0,0],"split_type":[0,0,0,0,0,0,0],"sum_hessian":[15083.955,9316.677,5767.278,7546.317,1770.3604,1062.9589,4704.319],"tree_param":{"num_deleted":"0","num_feature":"4","num_nodes":"7","size_leaf_vector":"1"}},{"base_weights":[0.0031754447,0.24724378,-0.24649248,0.0009457178,0.003525355,-0.0011387609,-0.0040004244],"categories":[],"categories_nodes":[],"categories_segments":[],"categories_sizes":[],"default_left":[0,0,0,0,0,0,0],"id":37,"left_children":[1,3,5,-1,-1,-1,-1],"loss_changes":[921.18225,122.134094,151.16238,0.0,0.0,0.0,0.0],"parents":[2147483647,0,0,1,1,2,2],"right_children":[2,4,6,-1,-1,-1,-1],"split_conditions":[-0.00018931416,-0.27389693,0.012157662,0.0009457178,0.003525355,-0.0011387609,-0.0040004244],"split_indices":[1,3,1,0,0,0,0],"split_type":[0,0,0,0,0,0,0],"sum_hessian":[15097.187,7636.278,7460.908,3128.484,4507.794,4016.183,3444.725],"tree_param":{"num_deleted":"0","num_feature":"4","num_nodes":"7","size_leaf_vector":"1"}},{"base_weights":[0.0052991062,0.23994067,-0.24501763,0.0016989743,0.0040636114,-0.0009965227,-0.0038075377],"categories":[],"categories_nodes":[],"categories_segments":[],"categories_sizes":[],"default_left":[0,0,0,0,0,0,0],"id":38,"left_children":[1,3,5,-1,-1,-1,-1],"loss_changes":[887.5984,89.68091,143.37323,0.0,0.0,0.0,0.0],"parents":[2147483647,0,0,1,1,2,2],"right_children":[2,4,6,-1,-1,-1,-1],"split_conditions":[-1.6432321e-05,0.3398703,0.010772272,0.0016989743,0.0040636114,-0.0009965227,-0.0038075377],"split_indices":[1,3,1,0,0,0,0],"split_type":[0,0,0,0,0,0,0],"sum_hessian":[15092.067,7792.218,7299.8496,5502.526,2289.6921,3536.827,3763.0227],"tree_param":{"num_deleted":"0","num_feature":"4","num_nodes":"7","size_leaf_vector":"1"}},{"base_weights":[-0.007647266,0.23522837,-0.25388873,0.000465975,0.0030171413,-0.00085221254,-0.0038299041],"categories":[],"categories_nodes":[],"categories_segments":[],"categories_sizes":[],"default_left":[0,0,0,0,0,0,0],"id":39,"left_children":[1,3,5,-1,-1,-1,-1],"loss_changes":[904.62085,94.98718,162.79529,0.0,0.0,0.0,0.0],"parents":[2147483647,0,0,1,1,2,2],"right_children":[2,4,6,-1,-1,-1,-1],"split_conditions":[-0.00029575598,-0.59740776,0.008804954,0.000465975,0.0030171413,-0.00085221254,-0.0038299041],"split_indices":[1,3,1,0,0,0,0],"split_type":[0,0,0,0,0,0,0],"sum_hessian":[15105.608,7602.9595,7502.6494,1989.7535,5613.2056,3263.4268,4239.2227],"tree_param":{"num_deleted":"0","num_feature":"4","num_nodes":"7","size_leaf_vector":"1"}},{"base_weights":[-0.004706213,0.17101459,-0.32105353,0.0022597439,-0.00014608337,-0.0020946343,-0.00442841],"categories":[],"categories_nodes":[],"categories_segments":[],"categories_sizes":[],"default_left":[0,0,0,0,0,0,0],"id":40,"left_children":[1,3,5,-1,-1,-1,-1],"loss_changes":[842.9773,99.66672,72.02997,0.0,0.0,0.0,0.0],"parents":[2147483647,0,0,1,1,2,2],"right_children":[2,4,6,-1,-1,-1,-1],"split_conditions":[0.00483152,-0.0005169288,0.051971994,0.0022597439,-0.00014608337,-0.0020946343,-0.00442841],"split_indices":[1,1,0,0,0,0,0],"split_type":[0,0,0,0,0,0,0],"sum_hessian":[15141.938,9735.572,5406.366,7514.014,2221.5583,2839.7769,2566.589],"tree_param":{"num_deleted":"0","num_feature":"4","num_nodes":"7","size_leaf_vector":"1"}},{"base_weights":[0.013541466,0.19570993,-0.34920827,0.0027302264,0.0002819241,-5.9126865e-05,-0.0040925005],"categories":[],"categories_nodes":[],"categories_segments":[],"categories_sizes":[],"default_left":[0,0,0,0,0,0,0],"id":41,"left_children":[1,3,5,-1,-1,-1,-1],"loss_changes":[999.2138,130.0257,103.73541,0.0,0.0,0.0,0.0],"parents":[2147483647,0,0,1,1,2,2],"right_children":[2,4,6,-1,-1,-1,-1],"split_conditions":[0.0058884,-0.0018699294,-0.1496055,0.0027302264,0.0002819241,-5.9126865e-05,-0.0040925005],"split_indices":[1,1,0,0,0,0,0],"split_type":[0,0,0,0,0,0,0],"sum_hessian":[15102.898,10058.836,5044.0625,6874.053,3184.783,754.9862,4289.076],"tree_param":{"num_deleted":"0","num_feature":"4","num_nodes":"7","size_leaf_vector":"1"}},{"base_weights":[-0.009358372,0.21769485,-0.24369854,0.00070623244,0.0032058626,-0.0008814537,-0.0035673513],"categories":[],"categories_nodes":[],"categories_segments":[],"categories_sizes":[],"default_left":[0,0,0,0,0,0,0],"id":42,"left_children":[1,3,5,-1,-1,-1,-1],"loss_changes":[806.6345,115.86517,130.44785,0.0,0.0,0.0,0.0],"parents":[2147483647,0,0,1,1,2,2],"right_children":[2,4,6,-1,-1,-1,-1],"split_conditions":[-0.00029575598,-0.26560616,0.008397281,0.00070623244,0.0032058626,-0.0008814537,-0.0035673513],"split_indices":[1,3,1,0,0,0,0],"split_type":[0,0,0,0,0,0,0],"sum_hessian":[15139.652,7687.5728,7452.08,3175.351,4512.221,3147.438,4304.6426],"tree_param":{"num_deleted":"0","num_feature":"4","num_nodes":"7","size_leaf_vector":"1"}},{"base_weights":[0.0005856804,0.17426626,-0.31493962,0.0023139438,-8.425703e-05,-0.0004151105,-0.0038556743],"categories":[],"categories_nodes":[],"categories_segments":[],"categories_sizes":[],"default_left":[0,0,0,0,0,0,0],"id":43,"left_children":[1,3,5,-1,-1,-1,-1],"loss_changes":[833.61444,102.678894,103.684875,0.0,0.0,0.0,0.0],"parents":[2147483647,0,0,1,1,2,2],"right_children":[2,4,6,-1,-1,-1,-1],"split_conditions":[0.00483152,-0.0007546501,-0.10954118,0.0023139438,-8.425703e-05,-0.0004151105,-0.0038556743],"split_indices":[1,1,0,0,0,0,0],"split_type":[0,0,0,0,0,0,0],"sum_hessian":[15194.32,9804.88,5389.44,7471.375,2333.5051,1112.5087,4276.9316],"tree_param":{"num_deleted":"0","num_feature":"4","num_nodes":"7","size_leaf_vector":"1"}},{"base_weights":[0.014632509,0.20228116,-0.29285422,0.0030459126,0.0009525424,-9.4470284e-05,-0.0034792768],"categories":[],"categories_nodes":[],"categories_segments":[],"categories_sizes":[],"default_left":[0,0,0,0,0,0,0],"id":44,"left_children":[1,3,5,-1,-1,-1,-1],"loss_changes":[871.569,102.055145,88.94266,0.0,0.0,0.0,0.0],"parents":[2147483647,0,0,1,1,2,2],"right_children":[2,4,6,-1,-1,-1,-1],"split_conditions":[0.0037785617,-0.007962427,-0.14222553,0.0030459126,0.0009525424,-9.4470284e-05,-0.0034792768],"split_indices":[1,1,0,0,0,0,0],"split_type":[0,0,0,0,0,0,0],"sum_hessian":[15086.623,9373.171,5713.4526,4777.9697,4595.201,934.484,4778.9683],"tree_param":{"num_deleted":"0","num_feature":"4","num_nodes":"7","size_leaf_vector":"1"}},{"base_weights":[0.0068424963,0.17029174,-0.31177783,0.0023594378,2.6077303e-05,-0.0,-0.0037243783],"categories":[],"categories_nodes":[],"categories_segments":[],"categories_sizes":[],"default_left":[0,0,0,0,0,0,0],"id":45,"left_children":[1,3,5,-1,-1,-1,-1],"loss_changes":[783.16693,109.216156,96.50314,0.0,0.0,0.0,0.0],"parents":[2147483647,0,0,1,1,2,2],"right_children":[2,4,6,-1,-1,-1,-1],"split_conditions":[0.005541498,-0.0012746602,-0.13994259,0.0023594378,2.6077303e-05,-0.0,-0.0037243783],"split_indices":[1,1,0,0,0,0,0],"split_type":[0,0,0,0,0,0,0],"sum_hessian":[15020.793,9933.034,5087.7593,7131.0386,2801.995,829.62225,4258.137],"tree_param":{"num_deleted":"0","num_feature":"4","num_nodes":"7","size_leaf_vector":"1"}},{"base_weights":[0.0053745853,0.2288975,-0.2310008,0.0015379592,0.0039146603,-0.0006973323,-0.0034658064],"categories":[],"categories_nodes":[],"categories_segments":[],"categories_sizes":[],"default_left":[0,0,0,0,0,0,0],"id":46,"left_children":[1,3,5,-1,-1,-1,-1],"loss_changes":[800.2702,93.92502,136.51907,0.0,0.0,0.0,0.0],"parents":[2147483647,0,0,1,1,2,2],"right_children":[2,4,6,-1,-1,-1,-1],"split_conditions":[-0.00018931416,0.28951952,0.008397281,0.0015379592,0.0039146603,-0.0006973323,-0.0034658064],"split_indices":[1,3,1,0,0,0,0],"split_type":[0,0,0,0,0,0,0],"sum_hessian":[15126.536,7776.9707,7349.5654,5337.038,2439.9326,3078.6448,4270.9204],"tree_param":{"num_deleted":"0","num_feature":"4","num_nodes":"7","size_leaf_vector":"1"}},{"base_weights":[-0.0020783234,0.16067946,-0.30929887,0.002628395,0.00059092336,-0.00028797323,-0.003604007],"categories":[],"categories_nodes":[],"categories_segments":[],"categories_sizes":[],"default_left":[0,0,0,0,0,0,0],"id":47,"left_children":[1,3,5,-1,-1,-1,-1],"loss_changes":[755.2358,101.948105,74.499084,0.0,0.0,0.0,0.0],"parents":[2147483647,0,0,1,1,2,2],"right_children":[2,4,6,-1,-1,-1,-1],"split_conditions":[0.0050066602,-0.0077367085,-0.14708833,0.002628395,0.00059092336,-0.00028797323,-0.003604007],"split_indices":[1,1,0,0,0,0,0],"split_type":[0,0,0,0,0,0,0],"sum_hessian":[15081.039,9859.328,5221.711,4902.9785,4956.349,810.11865,4411.5923],"tree_param":{"num_deleted":"0","num_feature":"4","num_nodes":"7","size_leaf_vector":"1"}},{"base_weights":[-0.0012488073,0.16376962,-0.32821622,0.0022308365,-0.00021208532,-0.0007321699,-0.0039559375],"categories":[],"categories_nodes":[],"categories_segments":[],"categories_sizes":[],"default_left":[0,0,0,0,0,0,0],"id":48,"left_children":[1,3,5,-1,-1,-1,-1],"loss_changes":[816.46497,110.54462,86.46222,0.0,0.0,0.0,0.0],"parents":[2147483647,0,0,1,1,2,2],"right_children":[2,4,6,-1,-1,-1,-1],"split_conditions":[0.005541498,-0.0005169288,-0.107414655,0.0022308365,-0.00021208532,-0.0007321699,-0.0039559375],"split_indices":[1,1,0,0,0,0,0],"split_type":[0,0,0,0,0,0,0],"sum_hessian":[15109.141,10042.624,5066.5166,7606.812,2435.8115,1066.3774,4000.1394],"tree_param":{"num_deleted":"0","num_feature":"4","num_nodes":"7","size_leaf_vector":"1"}},{"base_weights":[-0.0008527183,0.17444985,-0.28210977,0.00028571958,0.002383779,-0.0010993595,-0.0036911836],"categories":[],"categories_nodes":[],"categories_segments":[],"categories_sizes":[],"default_left":[0,0,0,0,0,0,0],"id":49,"left_children":[1,3,5,-1,-1,-1,-1],"loss_changes":[742.20294,86.11273,85.721924,0.0,0.0,0.0,0.0],"parents":[2147483647,0,0,1,1,2,2],"right_children":[2,4,6,-1,-1,-1,-1],"split_conditions":[0.0032814045,-0.46827534,-0.041740082,0.00028571958,0.002383779,-0.0010993595,-0.0036911836],"split_indices":[1,3,0,0,0,0,0],"split_type":[0,0,0,0,0,0,0],"sum_hessian":[15031.111,9259.852,5771.2603,2830.6602,6429.191,1948.8928,3822.3672],"tree_param":{"num_deleted":"0","num_feature":"4","num_nodes":"7","size_leaf_vector":"1"}},{"base_weights":[-0.00018024845,0.2024505,-0.22185233,0.0011842088,0.003473955,-0.00083279115,-0.0035430896],"categories":[],"categories_nodes":[],"categories_segments":[],"categories_sizes":[],"default_left":[0,0,0,0,0,0,0],"id":50,"left_children":[1,3,5,-1,-1,-1,-1],"loss_changes":[675.2706,94.75183,131.08508,0.0,0.0,0.0,0.0],"parents":[2147483647,0,0,1,1,2,2],"right_children":[2,4,6,-1,-1,-1,-1],"split_conditions":[-1.6432321e-05,0.18144417,0.010772272,0.0011842088,0.003473955,-0.00083279115,-0.0035430896],"split_indices":[1,3,1,0,0,0,0],"split_type":[0,0,0,0,0,0,0],"sum_hessian":[15013.119,7841.526,7171.5933,4979.6943,2861.831,3516.5222,3655.071],"tree_param":{"num_deleted":"0","num_feature":"4","num_nodes":"7","size_leaf_vector":"1"}},{"base_weights":[-0.0023661926,0.17052115,-0.280443,0.0026025816,0.0007561321,-0.000585227,-0.0034128472],"categories":[],"categories_nodes":[],"categories_segments":[],"categories_sizes":[],"default_left":[0,0,0,0,0,0,0],"id":51,"left_children":[1,3,5,-1,-1,-1,-1],"loss_changes":[727.2659,78.88141,77.72238,0.0,0.0,0.0,0.0],"parents":[2147483647,0,0,1,1,2,2],"right_children":[2,4,6,-1,-1,-1,-1],"split_conditions":[0.0032814045,-0.008204048,-0.107414655,0.0026025816,0.0007561321,-0.000585227,-0.0034128472],"split_indices":[1,1,0,0,0,0,0],"split_type":[0,0,0,0,0,0,0],"sum_hessian":[15105.201,9314.447,5790.7544,4773.2764,4541.1704,1253.7509,4537.0034],"tree_param":{"num_deleted":"0","num_feature":"4","num_nodes":"7","size_leaf_vector":"1"}},{"base_weights":[0.006298207,0.16476029,-0.30217293,0.0007278061,0.0026327001,-0.0012410318,-0.0041256077],"categories":[],"categories_nodes":[],"categories_segments":[],"categories_sizes":[],"default_left":[0,0,0,0,0,0,0],"id":52,"left_children":[1,3,5,-1,-1,-1,-1],"loss_changes":[738.9641,89.999084,99.77695,0.0,0.0,0.0,0.0],"parents":[2147483647,0,0,1,1,2,2],"right_children":[2,4,6,-1,-1,-1,-1],"split_conditions":[0.0053644325,-0.015242879,-0.013739948,0.0007278061,0.0026327001,-0.0012410318,-0.0041256077],"split_indices":[1,3,0,0,0,0,0],"split_type":[0,0,0,0,0,0,0],"sum_hessian":[15100.247,9980.929,5119.3174,5175.7812,4805.1475,1970.672,3148.6455],"tree_param":{"num_deleted":"0","num_feature":"4","num_nodes":"7","size_leaf_vector":"1"}},{"base_weights":[0.005453729,0.20919493,-0.21932685,0.00057297584,0.0027160607,-0.001152637,-0.0039140685],"categories":[],"categories_nodes":[],"categories_segments":[],"categories_sizes":[],"default_left":[0,0,0,0,0,0,0],"id":53,"left_children":[1,3,5,-1,-1,-1,-1],"loss_changes":[692.10956,74.68854,127.67239,0.0,0.0,0.0,0.0],"parents":[2147483647,0,0,1,1,2,2],"right_children":[2,4,6,-1,-1,-1,-1],"split_conditions":[-1.6432321e-05,-0.51581335,0.015412015,0.00057297584,0.0027160607,-0.001152637,-0.0039140685],"split_indices":[1,3,1,0,0,0,0],"split_type":[0,0,0,0,0,0,0],"sum_hessian":[15092.733,7919.5723,7173.161,2316.5986,5602.9736,4484.0186,2689.1428],"tree_param":{"num_deleted":"0","num_feature":"4","num_nodes":"7","size_leaf_vector":"1"}},{"base_weights":[0.008252997,0.16128124,-0.29290992,0.002153083,-0.00025973681,0.0007533331,-0.0034302073],"categories":[],"categories_nodes":[],"categories_segments":[],"categories_sizes":[],"default_left":[0,0,0,0,0,0,0],"id":54,"left_children":[1,3,5,-1,-1,-1,-1],"loss_changes":[696.10095,101.605804,94.41208,0.0,0.0,0.0,0.0],"parents":[2147483647,0,0,1,1,2,2],"right_children":[2,4,6,-1,-1,-1,-1],"split_conditions":[0.0053644325,-0.00029575598,-0.17725995,0.002153083,-0.00025973681,0.0007533331,-0.0034302073],"split_indices":[1,1,0,0,0,0,0],"split_type":[0,0,0,0,0,0,0],"sum_hessian":[15086.854,10009.001,5077.8525,7770.801,2238.2,605.2364,4472.616],"tree_param":{"num_deleted":"0","num_feature":"4","num_nodes":"7","size_leaf_vector":"1"}},{"base_weights":[0.0072909934,0.21320833,-0.2177353,0.00051019527,0.0027956103,-0.0012008547,-0.0040337685],"categories":[],"categories_nodes":[],"categories_segments":[],"categories_sizes":[],"default_left":[0,0,0,0,0,0,0],"id":55,"left_children":[1,3,5,-1,-1,-1,-1],"loss_changes":[700.8314,84.54266,129.96442,0.0,0.0,0.0,0.0],"parents":[2147483647,0,0,1,1,2,2],"right_children":[2,4,6,-1,-1,-1,-1],"split_conditions":[-0.000106641965,-0.52598435,0.01668249,0.00051019527,0.0027956103,-0.0012008547,-0.0040337685],"split_indices":[1,3,1,0,0,0,0],"split_type":[0,0,0,0,0,0,0],"sum_hessian":[15104.8,7889.884,7214.9155,2300.1902,5589.694,4742.274,2472.6416],"tree_param":{"num_deleted":"0","num_feature":"4","num_nodes":"7","size_leaf_vector":"1"}},{"base_weights":[-0.006431455,0.14247032,-0.30151924,0.0019474914,-8.1970786e-05,-0.0013625443,-0.004024379],"categories":[],"categories_nodes":[],"categories_segments":[],"categories_sizes":[],"default_left":[0,0,0,0,0,0,0],"id":56,"left_children":[1,3,5,-1,-1,-1,-1],"loss_changes":[665.7538,79.488785,83.679474,0.0,0.0,0.0,0.0],"parents":[2147483647,0,0,1,1,2,2],"right_children":[2,4,6,-1,-1,-1,-1],"split_conditions":[0.0053644325,-0.00089304656,-0.015541788,0.0019474914,-8.1970786e-05,-0.0013625443,-0.004024379],"split_indices":[1,1,0,0,0,0,0],"split_type":[0,0,0,0,0,0,0],"sum_hessian":[15128.345,10055.903,5072.442,7468.2637,2587.6394,1935.7916,3136.6501],"tree_param":{"num_deleted":"0","num_feature":"4","num_nodes":"7","size_leaf_vector":"1"}},{"base_weights":[0.0036238024,0.20779671,-0.21150506,0.00015531437,0.002863648,0.00040339044,-0.002640117],"categories":[],"categories_nodes":[],"categories_segments":[],"categories_sizes":[],"default_left":[0,0,0,0,0,0,0],"id":57,"left_children":[1,3,5,-1,-1,-1,-1],"loss_changes":[662.9079,116.65927,97.479675,0.0,0.0,0.0,0.0],"parents":[2147483647,0,0,1,1,2,2],"right_children":[2,4,6,-1,-1,-1,-1],"split_conditions":[-0.0004032775,-0.52598435,-0.14466117,0.00015531437,0.002863648,0.00040339044,-0.002640117],"split_indices":[1,3,0,0,0,0,0],"split_type":[0,0,0,0,0,0,0],"sum_hessian":[15072.413,7735.6797,7336.733,2251.2693,5484.4106,1262.8491,6073.884],"tree_param":{"num_deleted":"0","num_feature":"4","num_nodes":"7","size_leaf_vector":"1"}},{"base_weights":[0.0145333465,0.1509842,-0.28674752,0.0023910908,0.00036010498,-5.9043126e-05,-0.0034021058],"categories":[],"categories_nodes":[],"categories_segments":[],"categories_sizes":[],"default_left":[0,0,0,0,0,0,0],"id":58,"left_children":[1,3,5,-1,-1,-1,-1],"loss_changes":[620.5531,104.94476,70.26828,0.0,0.0,0.0,0.0],"parents":[2147483647,0,0,1,1,2,2],"right_children":[2,4,6,-1,-1,-1,-1],"split_conditions":[0.0064460593,-0.004884723,-0.14222553,0.0023910908,0.00036010498,-5.9043126e-05,-0.0034021058],"split_indices":[1,1,0,0,0,0,0],"split_type":[0,0,0,0,0,0,0],"sum_hessian":[15077.702,10383.36,4694.342,5866.9634,4516.397,755.49756,3938.8442],"tree_param":{"num_deleted":"0","num_feature":"4","num_nodes":"7","size_leaf_vector":"1"}},{"base_weights":[-0.01142372,0.13569637,-0.27842608,0.002089982,0.0002437966,0.00077180704,-0.003246584],"categories":[],"categories_nodes":[],"categories_segments":[],"categories_sizes":[],"default_left":[0,0,0,0,0,0,0],"id":59,"left_children":[1,3,5,-1,-1,-1,-1],"loss_changes":[592.06573,78.975845,88.54651,0.0,0.0,0.0,0.0],"parents":[2147483647,0,0,1,1,2,2],"right_children":[2,4,6,-1,-1,-1,-1],"split_conditions":[0.0042897207,-0.004884723,-0.18264873,0.002089982,0.0002437966,0.00077180704,-0.003246584],"split_indices":[1,1,0,0,0,0,0],"split_type":[0,0,0,0,0,0,0],"sum_hessian":[15049.164,9703.592,5345.572,5840.1235,3863.4685,611.7589,4733.8125],"tree_param":{"num_deleted":"0","num_feature":"4","num_nodes":"7","size_leaf_vector":"1"}},{"base_weights":[-0.007473506,0.14971334,-0.27926582,0.001925292,-0.00032116746,-0.0013556783,-0.0037003024],"categories":[],"categories_nodes":[],"categories_segments":[],"categories_sizes":[],"default_left":[0,0,0,0,0,0,0],"id":60,"left_children":[1,3,5,-1,-1,-1,-1],"loss_changes":[645.2376,74.68837,71.18671,0.0,0.0,0.0,0.0],"parents":[2147483647,0,0,1,1,2,2],"right_children":[2,4,6,-1,-1,-1,-1],"split_conditions":[0.0037785617,-0.0004032775,-0.013739948,0.001925292,-0.00032116746,-0.0013556783,-0.0037003024],"split_indices":[1,1,0,0,0,0,0],"split_type":[0,0,0,0,0,0,0],"sum_hessian":[15080.287,9555.072,5525.2144,7737.921,1817.1514,2152.8237,3372.3909],"tree_param":{"num_deleted":"0","num_feature":"4","num_nodes":"7","size_leaf_vector":"1"}},{"base_weights":[6.563973e-05,0.14942738,-0.28495523,0.0019683116,-0.00035301092,-0.0016167497,-0.004133852],"categories":[],"categories_nodes":[],"categories_segments":[],"categories_sizes":[],"default_left":[0,0,0,0,0,0,0],"id":61,"left_children":[1,3,5,-1,-1,-1,-1],"loss_changes":[644.17957,87.21391,81.11667,0.0,0.0,0.0,0.0],"parents":[2147483647,0,0,1,1,2,2],"right_children":[2,4,6,-1,-1,-1,-1],"split_conditions":[0.00483152,-0.00018931416,0.04427504,0.0019683116,-0.00035301092,-0.0016167497,-0.004133852],"split_indices":[1,1,0,0,0,0,0],"split_type":[0,0,0,0,0,0,0],"sum_hessian":[15114.991,9923.15,5191.8413,7900.528,2022.6226,2664.5288,2527.3125],"tree_param":{"num_deleted":"0","num_feature":"4","num_nodes":"7","size_leaf_vector":"1"}},{"base_weights":[-0.008767589,0.14254591,-0.2582503,2.7118108e-06,0.0020036956,-0.00029282854,-0.0032183935],"categories":[],"categories_nodes":[],"categories_segments":[],"categories_sizes":[],"default_left":[0,0,0,0,0,0,0],"id":62,"left_children":[1,3,5,-1,-1,-1,-1],"loss_changes":[569.5549,77.02797,82.50537,0.0,0.0,0.0,0.0],"parents":[2147483647,0,0,1,1,2,2],"right_children":[2,4,6,-1,-1,-1,-1],"split_conditions":[0.0032814045,-0.50620437,-0.107414655,2.7118108e-06,0.0020036956,-0.00029282854,-0.0032183935],"split_indices":[1,3,0,0,0,0,0],"split_type":[0,0,0,0,0,0,0],"sum_hessian":[15064.688,9377.456,5687.233,2717.7615,6659.6943,1242.7499,4444.483],"tree_param":{"num_deleted":"0","num_feature":"4","num_nodes":"7","size_leaf_vector":"1"}},{"base_weights":[-0.004555257,0.18029606,-0.21339525,0.001070858,0.003261207,-0.0010583996,-0.003496927],"categories":[],"categories_nodes":[],"categories_segments":[],"categories_sizes":[],"default_left":[0,0,0,0,0,0,0],"id":63,"left_children":[1,3,5,-1,-1,-1,-1],"loss_changes":[582.93835,84.70297,103.141785,0.0,0.0,0.0,0.0],"parents":[2147483647,0,0,1,1,2,2],"right_children":[2,4,6,-1,-1,-1,-1],"split_conditions":[-1.6432321e-05,0.255216,0.012898119,0.001070858,0.003261207,-0.0010583996,-0.003496927],"split_indices":[1,3,1,0,0,0,0],"split_type":[0,0,0,0,0,0,0],"sum_hessian":[15079.504,7997.3545,7082.15,5340.429,2656.9253,3972.4807,3109.6692],"tree_param":{"num_deleted":"0","num_feature":"4","num_nodes":"7","size_leaf_vector":"1"}},{"base_weights":[-0.013907465,0.17715278,-0.21737835,0.00015267642,0.0025297843,-0.0013442135,-0.0040413416],"categories":[],"categories_nodes":[],"categories_segments":[],"categories_sizes":[],"default_left":[0,0,0,0,0,0,0],"id":64,"left_children":[1,3,5,-1,-1,-1,-1],"loss_changes":[588.23016,95.45012,112.46982,0.0,0.0,0.0,0.0],"parents":[2147483647,0,0,1,1,2,2],"right_children":[2,4,6,-1,-1,-1,-1],"split_conditions":[-0.0004032775,-0.45933756,0.018051038,0.00015267642,0.0025297843,-0.0013442135,-0.0040413416],"split_indices":[1,3,1,0,0,0,0],"split_type":[0,0,0,0,0,0,0],"sum_hessian":[15110.307,7790.9453,7319.361,2493.217,5297.7285,5083.7217,2235.639],"tree_param":{"num_deleted":"0","num_feature":"4","num_nodes":"7","size_leaf_vector":"1"}},{"base_weights":[-0.0011139999,0.13861386,-0.2995859,0.0044635404,0.0011193855,-0.000276199,-0.0036674745],"categories":[],"categories_nodes":[],"categories_segments":[],"categories_sizes":[],"default_left":[0,0,0,0,0,0,0],"id":65,"left_children":[1,3,5,-1,-1,-1,-1],"loss_changes":[629.251,83.26726,87.40207,0.0,0.0,0.0,0.0],"parents":[2147483647,0,0,1,1,2,2],"right_children":[2,4,6,-1,-1,-1,-1],"split_conditions":[0.0058884,-0.26368263,-0.11574361,0.0044635404,0.0011193855,-0.000276199,-0.0036674745],"split_indices":[1,0,0,0,0,0,0],"split_type":[0,0,0,0,0,0,0],"sum_hessian":[15064.382,10262.2,4802.1826,803.0445,9459.155,956.77814,3845.4043],"tree_param":{"num_deleted":"0","num_feature":"4","num_nodes":"7","size_leaf_vector":"1"}},{"base_weights":[0.00537967,0.1476427,-0.27508938,0.0022199806,0.00037955705,-0.00039310424,-0.0033936617],"categories":[],"categories_nodes":[],"categories_segments":[],"categories_sizes":[],"default_left":[0,0,0,0,0,0,0],"id":66,"left_children":[1,3,5,-1,-1,-1,-1],"loss_changes":[600.5716,81.13733,76.23627,0.0,0.0,0.0,0.0],"parents":[2147483647,0,0,1,1,2,2],"right_children":[2,4,6,-1,-1,-1,-1],"split_conditions":[0.0050066602,-0.0046990085,-0.10954118,0.0022199806,0.00037955705,-0.00039310424,-0.0033936617],"split_indices":[1,1,0,0,0,0,0],"split_type":[0,0,0,0,0,0,0],"sum_hessian":[15034.792,9980.605,5054.1865,5936.783,4043.822,1089.4735,3964.7131],"tree_param":{"num_deleted":"0","num_feature":"4","num_nodes":"7","size_leaf_vector":"1"}},{"base_weights":[0.0031715343,0.18563013,-0.20495024,0.0010018657,0.0030933234,-0.0010832876,-0.0036202304],"categories":[],"categories_nodes":[],"categories_segments":[],"categories_sizes":[],"default_left":[0,0,0,0,0,0,0],"id":67,"left_children":[1,3,5,-1,-1,-1,-1],"loss_changes":[570.3578,83.90152,105.58969,0.0,0.0,0.0,0.0],"parents":[2147483647,0,0,1,1,2,2],"right_children":[2,4,6,-1,-1,-1,-1],"split_conditions":[-1.6432321e-05,0.103643216,0.015104586,0.0010018657,0.0030933234,-0.0010832876,-0.0036202304],"split_indices":[1,3,1,0,0,0,0],"split_type":[0,0,0,0,0,0,0],"sum_hessian":[15000.338,7996.106,7004.232,4744.896,3251.21,4351.018,2653.214],"tree_param":{"num_deleted":"0","num_feature":"4","num_nodes":"7","size_leaf_vector":"1"}},{"base_weights":[0.0039266325,0.12956774,-0.2756434,0.002195843,0.0004936847,0.00041289162,-0.0034076178],"categories":[],"categories_nodes":[],"categories_segments":[],"categories_sizes":[],"default_left":[0,0,0,0,0,0,0],"id":68,"left_children":[1,3,5,-1,-1,-1,-1],"loss_changes":[528.81525,74.646255,96.75586,0.0,0.0,0.0,0.0],"parents":[2147483647,0,0,1,1,2,2],"right_children":[2,4,6,-1,-1,-1,-1],"split_conditions":[0.006257422,-0.008204048,-0.1377704,0.002195843,0.0004936847,0.00041289162,-0.0034076178],"split_indices":[1,1,0,0,0,0,0],"split_type":[0,0,0,0,0,0,0],"sum_hessian":[15039.021,10382.143,4656.8794,4877.6094,5504.533,791.7444,3865.1348],"tree_param":{"num_deleted":"0","num_feature":"4","num_nodes":"7","size_leaf_vector":"1"}},{"base_weights":[0.006492078,0.13421062,-0.25885615,0.0017527886,-0.00012145897,-0.0,-0.0031093017],"categories":[],"categories_nodes":[],"categories_segments":[],"categories_sizes":[],"default_left":[0,0,0,0,0,0,0],"id":69,"left_children":[1,3,5,-1,-1,-1,-1],"loss_changes":[511.10907,61.407013,66.17865,0.0,0.0,0.0,0.0],"parents":[2147483647,0,0,1,1,2,2],"right_children":[2,4,6,-1,-1,-1,-1],"split_conditions":[0.005541498,-0.00018931416,-0.13994259,0.0017527886,-0.00012145897,-0.0,-0.0031093017],"split_indices":[1,1,0,0,0,0,0],"split_type":[0,0,0,0,0,0,0],"sum_hessian":[15064.891,10175.761,4889.13,7949.855,2225.9058,819.0498,4070.0798],"tree_param":{"num_deleted":"0","num_feature":"4","num_nodes":"7","size_leaf_vector":"1"}},{"base_weights":[-0.0061873375,0.12746792,-0.2540921,-0.00018521251,0.0018363007,-0.00031653643,-0.003147141],"categories":[],"categories_nodes":[],"categories_segments":[],"categories_sizes":[],"default_left":[0,0,0,0,0,0,0],"id":70,"left_children":[1,3,5,-1,-1,-1,-1],"loss_changes":[499.89267,80.52948,70.834045,0.0,0.0,0.0,0.0],"parents":[2147483647,0,0,1,1,2,2],"right_children":[2,4,6,-1,-1,-1,-1],"split_conditions":[0.0042897207,-0.52598435,-0.10954118,-0.00018521251,0.0018363007,-0.00031653643,-0.003147141],"split_indices":[1,3,0,0,0,0,0],"split_type":[0,0,0,0,0,0,0],"sum_hessian":[15063.505,9787.501,5276.004,2716.1018,7071.399,1136.7349,4139.269],"tree_param":{"num_deleted":"0","num_feature":"4","num_nodes":"7","size_leaf_vector":"1"}},{"base_weights":[0.0015583197,0.1243884,-0.26881367,0.0019757927,0.00026023606,-6.0228947e-05,-0.00321091],"categories":[],"categories_nodes":[],"categories_segments":[],"categories_sizes":[],"default_left":[0,0,0,0,0,0,0],"id":71,"left_children":[1,3,5,-1,-1,-1,-1],"loss_changes":[500.1908,74.32518,64.2746,0.0,0.0,0.0,0.0],"parents":[2147483647,0,0,1,1,2,2],"right_children":[2,4,6,-1,-1,-1,-1],"split_conditions":[0.006067227,-0.004884723,-0.13994259,0.0019757927,0.00026023606,-6.0228947e-05,-0.00321091],"split_indices":[1,1,0,0,0,0,0],"split_type":[0,0,0,0,0,0,0],"sum_hessian":[15045.815,10351.998,4693.818,5923.908,4428.09,783.8408,3909.977],"tree_param":{"num_deleted":"0","num_feature":"4","num_nodes":"7","size_leaf_vector":"1"}},{"base_weights":[-0.0036894446,0.16601127,-0.19203098,-3.141833e-05,0.002261554,-0.0008006696,-0.0032910397],"categories":[],"categories_nodes":[],"categories_segments":[],"categories_sizes":[],"default_left":[0,0,0,0,0,0,0],"id":72,"left_children":[1,3,5,-1,-1,-1,-1],"loss_changes":[480.14594,80.59346,108.63849,0.0,0.0,0.0,0.0],"parents":[2147483647,0,0,1,1,2,2],"right_children":[2,4,6,-1,-1,-1,-1],"split_conditions":[-0.00029575598,-0.59740776,0.012157662,-3.141833e-05,0.002261554,-0.0008006696,-0.0032910397],"split_indices":[1,3,1,0,0,0,0],"split_type":[0,0,0,0,0,0,0],"sum_hessian":[15001.755,7889.228,7112.5273,2067.4512,5821.777,3927.5562,3184.9712],"tree_param":{"num_deleted":"0","num_feature":"4","num_nodes":"7","size_leaf_vector":"1"}},{"base_weights":[-0.0026809266,0.13005935,-0.23942012,-0.0017627447,0.0015214168,-9.8240576e-05,-0.002931188],"categories":[],"categories_nodes":[],"categories_segments":[],"categories_sizes":[],"default_left":[0,0,0,0,0,0,0],"id":73,"left_children":[1,3,5,-1,-1,-1,-1],"loss_changes":[473.47702,65.51645,66.42273,0.0,0.0,0.0,0.0],"parents":[2147483647,0,0,1,1,2,2],"right_children":[2,4,6,-1,-1,-1,-1],"split_conditions":[0.0037785617,-1.2585361,-0.12672383,-0.0017627447,0.0015214168,-9.8240576e-05,-0.002931188],"split_indices":[1,3,0,0,0,0,0],"split_type":[0,0,0,0,0,0,0],"sum_hessian":[15043.584,9639.162,5404.4214,640.38654,8998.776,1030.1836,4374.238],"tree_param":{"num_deleted":"0","num_feature":"4","num_nodes":"7","size_leaf_vector":"1"}},{"base_weights":[-0.003903998,0.16535194,-0.19433698,0.0001834303,0.002270602,-0.0011544607,-0.0037289415],"categories":[],"categories_nodes":[],"categories_segments":[],"categories_sizes":[],"default_left":[0,0,0,0,0,0,0],"id":74,"left_children":[1,3,5,-1,-1,-1,-1],"loss_changes":[485.18134,71.98149,98.892,0.0,0.0,0.0,0.0],"parents":[2147483647,0,0,1,1,2,2],"right_children":[2,4,6,-1,-1,-1,-1],"split_conditions":[-0.00018931416,-0.50620437,0.018051038,0.0001834303,0.002270602,-0.0011544607,-0.0037289415],"split_indices":[1,3,1,0,0,0,0],"split_type":[0,0,0,0,0,0,0],"sum_hessian":[15031.955,7956.4053,7075.55,2360.9768,5595.428,4922.6636,2152.8865],"tree_param":{"num_deleted":"0","num_feature":"4","num_nodes":"7","size_leaf_vector":"1"}},{"base_weights":[0.0009654055,0.118585154,-0.24754816,0.0020535362,0.00039060734,0.00046370432,-0.0030874093],"categories":[],"categories_nodes":[],"categories_segments":[],"categories_sizes":[],"default_left":[0,0,0,0,0,0,0],"id":75,"left_children":[1,3,5,-1,-1,-1,-1],"loss_changes":[442.3781,70.59657,87.826416,0.0,0.0,0.0,0.0],"parents":[2147483647,0,0,1,1,2,2],"right_children":[2,4,6,-1,-1,-1,-1],"split_conditions":[0.005541498,-0.008204048,-0.1377704,0.0020535362,0.00039060734,0.00046370432,-0.0030874093],"split_indices":[1,1,0,0,0,0,0],"split_type":[0,0,0,0,0,0,0],"sum_hessian":[15118.701,10268.122,4850.579,4896.8315,5371.291,833.45306,4017.126],"tree_param":{"num_deleted":"0","num_feature":"4","num_nodes":"7","size_leaf_vector":"1"}},{"base_weights":[-0.0068070865,0.11474271,-0.24811384,-0.0018182637,0.0013528712,-0.00044755032,-0.0031049566],"categories":[],"categories_nodes":[],"categories_segments":[],"categories_sizes":[],"default_left":[0,0,0,0,0,0,0],"id":76,"left_children":[1,3,5,-1,-1,-1,-1],"loss_changes":[442.5292,61.299072,63.635193,0.0,0.0,0.0,0.0],"parents":[2147483647,0,0,1,1,2,2],"right_children":[2,4,6,-1,-1,-1,-1],"split_conditions":[0.00483152,-1.2585361,-0.09719497,-0.0018182637,0.0013528712,-0.00044755032,-0.0031049566],"split_indices":[1,3,0,0,0,0,0],"split_type":[0,0,0,0,0,0,0],"sum_hessian":[15063.28,10018.11,5045.1704,640.7906,9377.319,1192.1335,3853.0366],"tree_param":{"num_deleted":"0","num_feature":"4","num_nodes":"7","size_leaf_vector":"1"}},{"base_weights":[-0.0032235216,0.124387726,-0.2238564,0.00064893765,0.0022579737,-0.0012161896,-0.0035116335],"categories":[],"categories_nodes":[],"categories_segments":[],"categories_sizes":[],"default_left":[0,0,0,0,0,0,0],"id":77,"left_children":[1,3,5,-1,-1,-1,-1],"loss_changes":[423.7837,57.066788,70.90808,0.0,0.0,0.0,0.0],"parents":[2147483647,0,0,1,1,2,2],"right_children":[2,4,6,-1,-1,-1,-1],"split_conditions":[0.0032814045,0.19771619,0.016052986,0.00064893765,0.0022579737,-0.0012161896,-0.0035116335],"split_indices":[1,3,1,0,0,0,0],"split_type":[0,0,0,0,0,0,0],"sum_hessian":[15028.259,9521.167,5507.092,6017.2744,3503.8923,3069.473,2437.6187],"tree_param":{"num_deleted":"0","num_feature":"4","num_nodes":"7","size_leaf_vector":"1"}},{"base_weights":[-0.0024429478,0.15290096,-0.18071191,0.00027510282,0.002246909,0.0001820836,-0.0024101723],"categories":[],"categories_nodes":[],"categories_segments":[],"categories_sizes":[],"default_left":[0,0,0,0,0,0,0],"id":78,"left_children":[1,3,5,-1,-1,-1,-1],"loss_changes":[416.98224,72.083435,84.40355,0.0,0.0,0.0,0.0],"parents":[2147483647,0,0,1,1,2,2],"right_children":[2,4,6,-1,-1,-1,-1],"split_conditions":[-0.00018931416,-0.35209042,-0.107414655,0.00027510282,0.002246909,0.0001820836,-0.0024101723],"split_indices":[1,3,0,0,0,0,0],"split_type":[0,0,0,0,0,0,0],"sum_hessian":[15036.334,8032.5596,7003.7744,2934.619,5097.9404,1627.0991,5376.6753],"tree_param":{"num_deleted":"0","num_feature":"4","num_nodes":"7","size_leaf_vector":"1"}},{"base_weights":[0.0027451739,0.13333814,-0.2340616,-0.0017224337,0.0015513808,-0.00086669635,-0.0032794247],"categories":[],"categories_nodes":[],"categories_segments":[],"categories_sizes":[],"default_left":[0,0,0,0,0,0,0],"id":79,"left_children":[1,3,5,-1,-1,-1,-1],"loss_changes":[465.0111,64.84485,73.23749,0.0,0.0,0.0,0.0],"parents":[2147483647,0,0,1,1,2,2],"right_children":[2,4,6,-1,-1,-1,-1],"split_conditions":[0.0037785617,-1.2585361,-0.015541788,-0.0017224337,0.0015513808,-0.00086669635,-0.0032794247],"split_indices":[1,3,0,0,0,0,0],"split_type":[0,0,0,0,0,0,0],"sum_hessian":[15019.757,9686.492,5333.2646,637.3621,9049.13,2086.8372,3246.4272],"tree_param":{"num_deleted":"0","num_feature":"4","num_nodes":"7","size_leaf_vector":"1"}},{"base_weights":[-0.0027268506,0.09836337,-0.28271005,0.0016184956,-0.00038801655,2.1127002e-05,-0.0033984792],"categories":[],"categories_nodes":[],"categories_segments":[],"categories_sizes":[],"default_left":[0,0,0,0,0,0,0],"id":80,"left_children":[1,3,5,-1,-1,-1,-1],"loss_changes":[425.8717,96.39145,65.31772,0.0,0.0,0.0,0.0],"parents":[2147483647,0,0,1,1,2,2],"right_children":[2,4,6,-1,-1,-1,-1],"split_conditions":[0.008397281,-0.0010329842,-0.1377704,0.0016184956,-0.00038801655,2.1127002e-05,-0.0033984792],"split_indices":[1,1,0,0,0,0,0],"split_type":[0,0,0,0,0,0,0],"sum_hessian":[15020.237,11037.848,3982.39,7549.218,3488.6296,664.0984,3318.2915],"tree_param":{"num_deleted":"0","num_feature":"4","num_nodes":"7","size_leaf_vector":"1"}},{"base_weights":[0.0009786648,0.15459587,-0.17792864,-0.0017421024,0.0017974065,-0.0009371557,-0.0034174742],"categories":[],"categories_nodes":[],"categories_segments":[],"categories_sizes":[],"default_left":[0,0,0,0,0,0,0],"id":81,"left_children":[1,3,5,-1,-1,-1,-1],"loss_changes":[415.48785,67.59549,95.55812,0.0,0.0,0.0,0.0],"parents":[2147483647,0,0,1,1,2,2],"right_children":[2,4,6,-1,-1,-1,-1],"split_conditions":[-0.000106641965,-1.2585361,0.01668249,-0.0017421024,0.0017974065,-0.0009371557,-0.0034174742],"split_indices":[1,3,1,0,0,0,0],"split_type":[0,0,0,0,0,0,0],"sum_hessian":[15098.703,8127.255,6971.448,570.3258,7556.929,4618.881,2352.5676],"tree_param":{"num_deleted":"0","num_feature":"4","num_nodes":"7","size_leaf_vector":"1"}},{"base_weights":[-0.00250975,0.13983119,-0.17119783,0.00052445114,0.0024367776,-0.00038555975,-0.0026067218],"categories":[],"categories_nodes":[],"categories_segments":[],"categories_sizes":[],"default_left":[0,0,0,0,0,0,0],"id":82,"left_children":[1,3,5,-1,-1,-1,-1],"loss_changes":[360.6372,73.46344,81.20697,0.0,0.0,0.0,0.0],"parents":[2147483647,0,0,1,1,2,2],"right_children":[2,4,6,-1,-1,-1,-1],"split_conditions":[-1.6432321e-05,0.00047179998,-0.015541788,0.00052445114,0.0024367776,-0.00038555975,-0.0026067218],"split_indices":[1,3,0,0,0,0,0],"split_type":[0,0,0,0,0,0,0],"sum_hessian":[14998.253,8132.0874,6866.1655,4429.4336,3702.6536,2776.1416,4090.0242],"tree_param":{"num_deleted":"0","num_feature":"4","num_nodes":"7","size_leaf_vector":"1"}},{"base_weights":[-0.0052694352,0.10484822,-0.25999832,0.0004095213,0.0019303918,-0.0009485245,-0.0034476467],"categories":[],"categories_nodes":[],"categories_segments":[],"categories_sizes":[],"default_left":[0,0,0,0,0,0,0],"id":83,"left_children":[1,3,5,-1,-1,-1,-1],"loss_changes":[422.82632,58.956924,62.936523,0.0,0.0,0.0,0.0],"parents":[2147483647,0,0,1,1,2,2],"right_children":[2,4,6,-1,-1,-1,-1],"split_conditions":[0.006257422,0.11157615,-0.0380007,0.0004095213,0.0019303918,-0.0009485245,-0.0034476467],"split_indices":[1,3,0,0,0,0,0],"split_type":[0,0,0,0,0,0,0],"sum_hessian":[15048.691,10508.076,4540.615,6108.402,4399.675,1551.2949,2989.3206],"tree_param":{"num_deleted":"0","num_feature":"4","num_nodes":"7","size_leaf_vector":"1"}},{"base_weights":[0.004457138,0.120466195,-0.2320904,-0.0020264597,0.0014328276,-4.2643125e-05,-0.002788645],"categories":[],"categories_nodes":[],"categories_segments":[],"categories_sizes":[],"default_left":[0,0,0,0,0,0,0],"id":84,"left_children":[1,3,5,-1,-1,-1,-1],"loss_changes":[413.1568,74.74298,52.482758,0.0,0.0,0.0,0.0],"parents":[2147483647,0,0,1,1,2,2],"right_children":[2,4,6,-1,-1,-1,-1],"split_conditions":[0.00483152,-1.2585361,-0.13994259,-0.0020264597,0.0014328276,-4.2643125e-05,-0.002788645],"split_indices":[1,3,0,0,0,0,0],"split_type":[0,0,0,0,0,0,0],"sum_hessian":[15039.706,10097.007,4942.6997,657.88324,9439.123,847.41644,4095.2832],"tree_param":{"num_deleted":"0","num_feature":"4","num_nodes":"7","size_leaf_vector":"1"}},{"base_weights":[-0.012268694,0.0977559,-0.25093877,0.0016957266,4.0130206e-05,-0.0005376031,-0.0031174112],"categories":[],"categories_nodes":[],"categories_segments":[],"categories_sizes":[],"default_left":[0,0,0,0,0,0,0],"id":85,"left_children":[1,3,5,-1,-1,-1,-1],"loss_changes":[394.53195,69.011505,56.312836,0.0,0.0,0.0,0.0],"parents":[2147483647,0,0,1,1,2,2],"right_children":[2,4,6,-1,-1,-1,-1],"split_conditions":[0.005541498,-0.005451548,-0.09719497,0.0016957266,4.0130206e-05,-0.0005376031,-0.0031174112],"split_indices":[1,1,0,0,0,0,0],"split_type":[0,0,0,0,0,0,0],"sum_hessian":[14999.131,10267.587,4731.544,5803.074,4464.5127,1123.4735,3608.0706],"tree_param":{"num_deleted":"0","num_feature":"4","num_nodes":"7","size_leaf_vector":"1"}},{"base_weights":[-0.006918638,0.09113496,-0.28082448,0.001420091,-0.00040396702,0.00022260015,-0.0034003132],"categories":[],"categories_nodes":[],"categories_segments":[],"categories_sizes":[],"default_left":[0,0,0,0,0,0,0],"id":86,"left_children":[1,3,5,-1,-1,-1,-1],"loss_changes":[403.59714,74.15829,71.49362,0.0,0.0,0.0,0.0],"parents":[2147483647,0,0,1,1,2,2],"right_children":[2,4,6,-1,-1,-1,-1],"split_conditions":[0.008397281,-0.00029575598,-0.13994259,0.001420091,-0.00040396702,0.00022260015,-0.0034003132],"split_indices":[1,1,0,0,0,0,0],"split_type":[0,0,0,0,0,0,0],"sum_hessian":[15000.787,11048.601,3952.1873,7971.9824,3076.6177,644.13904,3308.0483],"tree_param":{"num_deleted":"0","num_feature":"4","num_nodes":"7","size_leaf_vector":"1"}},{"base_weights":[-0.00602531,0.093080975,-0.23650645,0.00029805314,0.0019462886,-0.000990464,-0.003182874],"categories":[],"categories_nodes":[],"categories_segments":[],"categories_sizes":[],"default_left":[0,0,0,0,0,0,0],"id":87,"left_children":[1,3,5,-1,-1,-1,-1],"loss_changes":[345.33566,67.60508,50.384583,0.0,0.0,0.0,0.0],"parents":[2147483647,0,0,1,1,2,2],"right_children":[2,4,6,-1,-1,-1,-1],"split_conditions":[0.006257422,0.18144417,-0.021081505,0.00029805314,0.0019462886,-0.000990464,-0.003182874],"split_indices":[1,3,0,0,0,0,0],"split_type":[0,0,0,0,0,0,0],"sum_hessian":[15092.449,10555.314,4537.1353,6517.172,4038.1426,1705.2446,2831.8904],"tree_param":{"num_deleted":"0","num_feature":"4","num_nodes":"7","size_leaf_vector":"1"}},{"base_weights":[-0.00050822756,0.10718031,-0.23583329,0.001768985,0.00020714816,-0.00013821882,-0.0032269116],"categories":[],"categories_nodes":[],"categories_segments":[],"categories_sizes":[],"default_left":[0,0,0,0,0,0,0],"id":88,"left_children":[1,3,5,-1,-1,-1,-1],"loss_changes":[381.32822,61.95839,90.74121,0.0,0.0,0.0,0.0],"parents":[2147483647,0,0,1,1,2,2],"right_children":[2,4,6,-1,-1,-1,-1],"split_conditions":[0.005541498,-0.0058384165,-0.069767416,0.001768985,0.00020714816,-0.00013821882,-0.0032269116],"split_indices":[1,1,0,0,0,0,0],"split_type":[0,0,0,0,0,0,0],"sum_hessian":[15022.342,10306.924,4715.4185,5693.866,4613.0576,1332.5317,3382.8867],"tree_param":{"num_deleted":"0","num_feature":"4","num_nodes":"7","size_leaf_vector":"1"}},{"base_weights":[0.004434207,0.15010807,-0.16458644,0.0004216515,0.0022260835,-0.0007134389,-0.0033399612],"categories":[],"categories_nodes":[],"categories_segments":[],"categories_sizes":[],"default_left":[0,0,0,0,0,0,0],"id":89,"left_children":[1,3,5,-1,-1,-1,-1],"loss_changes":[371.5043,63.087555,109.64084,0.0,0.0,0.0,0.0],"parents":[2147483647,0,0,1,1,2,2],"right_children":[2,4,6,-1,-1,-1,-1],"split_conditions":[-0.00018931416,-0.27389693,0.015729414,0.0004216515,0.0022260835,-0.0007134389,-0.0033399612],"split_indices":[1,3,1,0,0,0,0],"split_type":[0,0,0,0,0,0,0],"sum_hessian":[15068.928,8097.2144,6971.713,3265.2769,4831.9375,4509.7017,2462.0112],"tree_param":{"num_deleted":"0","num_feature":"4","num_nodes":"7","size_leaf_vector":"1"}},{"base_weights":[0.0056938515,0.14696261,-0.15893051,0.0008771254,0.0028863796,-0.00082070753,-0.0029950861],"categories":[],"categories_nodes":[],"categories_segments":[],"categories_sizes":[],"default_left":[0,0,0,0,0,0,0],"id":90,"left_children":[1,3,5,-1,-1,-1,-1],"loss_changes":[349.43817,67.27783,74.31781,0.0,0.0,0.0,0.0],"parents":[2147483647,0,0,1,1,2,2],"right_children":[2,4,6,-1,-1,-1,-1],"split_conditions":[-0.00018931416,0.3398703,0.015729414,0.0008771254,0.0028863796,-0.00082070753,-0.0029950861],"split_indices":[1,3,1,0,0,0,0],"split_type":[0,0,0,0,0,0,0],"sum_hessian":[15006.011,8079.7227,6926.2886,5713.5195,2366.203,4492.8286,2433.46],"tree_param":{"num_deleted":"0","num_feature":"4","num_nodes":"7","size_leaf_vector":"1"}},{"base_weights":[-0.00336917,0.14082372,-0.17466833,0.00025771212,0.0021817556,-0.00076314085,-0.0029183195],"categories":[],"categories_nodes":[],"categories_segments":[],"categories_sizes":[],"default_left":[0,0,0,0,0,0,0],"id":91,"left_children":[1,3,5,-1,-1,-1,-1],"loss_changes":[371.82364,72.40587,78.72034,0.0,0.0,0.0,0.0],"parents":[2147483647,0,0,1,1,2,2],"right_children":[2,4,6,-1,-1,-1,-1],"split_conditions":[-0.000106641965,-0.27389693,0.05010148,0.00025771212,0.0021817556,-0.00076314085,-0.0029183195],"split_indices":[1,3,0,0,0,0,0],"split_type":[0,0,0,0,0,0,0],"sum_hessian":[15032.1875,8159.654,6872.5337,3290.963,4868.691,3749.7854,3122.7483],"tree_param":{"num_deleted":"0","num_feature":"4","num_nodes":"7","size_leaf_vector":"1"}},{"base_weights":[0.0019147786,0.1449147,-0.16466442,0.00076870015,0.0027582946,9.385979e-05,-0.002172604],"categories":[],"categories_nodes":[],"categories_segments":[],"categories_sizes":[],"default_left":[0,0,0,0,0,0,0],"id":92,"left_children":[1,3,5,-1,-1,-1,-1],"loss_changes":[356.35532,71.173904,63.461105,0.0,0.0,0.0,0.0],"parents":[2147483647,0,0,1,1,2,2],"right_children":[2,4,6,-1,-1,-1,-1],"split_conditions":[-0.00018931416,0.23898143,-0.10954118,0.00076870015,0.0027582946,9.385979e-05,-0.002172604],"split_indices":[1,3,0,0,0,0,0],"split_type":[0,0,0,0,0,0,0],"sum_hessian":[14940.643,8043.2324,6897.4097,5307.8945,2735.338,1598.1201,5299.2896],"tree_param":{"num_deleted":"0","num_feature":"4","num_nodes":"7","size_leaf_vector":"1"}},{"base_weights":[0.0035666623,0.1378378,-0.15601659,0.00079662545,0.002771845,0.0003194392,-0.0021806934],"categories":[],"categories_nodes":[],"categories_segments":[],"categories_sizes":[],"default_left":[0,0,0,0,0,0,0],"id":93,"left_children":[1,3,5,-1,-1,-1,-1],"loss_changes":[321.91714,65.59253,80.28862,0.0,0.0,0.0,0.0],"parents":[2147483647,0,0,1,1,2,2],"right_children":[2,4,6,-1,-1,-1,-1],"split_conditions":[-0.000106641965,0.3398703,-0.099270046,0.00079662545,0.002771845,0.0003194392,-0.0021806934],"split_indices":[1,3,0,0,0,0,0],"split_type":[0,0,0,0,0,0,0],"sum_hessian":[15004.416,8152.5786,6851.838,5767.587,2384.9915,1697.816,5154.0215],"tree_param":{"num_deleted":"0","num_feature":"4","num_nodes":"7","size_leaf_vector":"1"}},{"base_weights":[0.00091991137,0.0961017,-0.26945487,0.0017463672,-1.4336154e-06,0.00016603552,-0.003223016],"categories":[],"categories_nodes":[],"categories_segments":[],"categories_sizes":[],"default_left":[0,0,0,0,0,0,0],"id":94,"left_children":[1,3,5,-1,-1,-1,-1],"loss_changes":[387.53134,84.41861,59.617798,0.0,0.0,0.0,0.0],"parents":[2147483647,0,0,1,1,2,2],"right_children":[2,4,6,-1,-1,-1,-1],"split_conditions":[0.008397281,-0.0046990085,-0.14708833,0.0017463672,-1.4336154e-06,0.00016603552,-0.003223016],"split_indices":[1,1,0,0,0,0,0],"split_type":[0,0,0,0,0,0,0],"sum_hessian":[15045.35,11135.42,3909.9302,6133.109,5002.311,607.8087,3302.1213],"tree_param":{"num_deleted":"0","num_feature":"4","num_nodes":"7","size_leaf_vector":"1"}},{"base_weights":[-0.0027253358,0.09158529,-0.27129665,0.0013680267,-0.00023952157,0.00092849537,-0.003211025],"categories":[],"categories_nodes":[],"categories_segments":[],"categories_sizes":[],"default_left":[0,0,0,0,0,0,0],"id":95,"left_children":[1,3,5,-1,-1,-1,-1],"loss_changes":[381.0621,58.27475,71.4556,0.0,0.0,0.0,0.0],"parents":[2147483647,0,0,1,1,2,2],"right_children":[2,4,6,-1,-1,-1,-1],"split_conditions":[0.008397281,-0.0004032775,-0.17725995,0.0013680267,-0.00023952157,0.00092849537,-0.003211025],"split_indices":[1,1,0,0,0,0,0],"split_type":[0,0,0,0,0,0,0],"sum_hessian":[15017.516,11116.684,3900.832,7994.663,3122.0212,465.8844,3434.9478],"tree_param":{"num_deleted":"0","num_feature":"4","num_nodes":"7","size_leaf_vector":"1"}},{"base_weights":[-0.013324198,0.06743338,-0.24492681,0.0016098525,-9.841086e-05,-0.0011685364,-0.0038186822],"categories":[],"categories_nodes":[],"categories_segments":[],"categories_sizes":[],"default_left":[0,0,0,0,0,0,0],"id":96,"left_children":[1,3,5,-1,-1,-1,-1],"loss_changes":[281.91702,80.894806,67.41232,0.0,0.0,0.0,0.0],"parents":[2147483647,0,0,1,1,2,2],"right_children":[2,4,6,-1,-1,-1,-1],"split_conditions":[0.008397281,-0.007962427,0.051971994,0.0016098525,-9.841086e-05,-0.0011685364,-0.0038186822],"split_indices":[1,1,0,0,0,0,0],"split_type":[0,0,0,0,0,0,0],"sum_hessian":[15044.503,11156.952,3887.55,5047.8774,6109.075,2022.1699,1865.3801],"tree_param":{"num_deleted":"0","num_feature":"4","num_nodes":"7","size_leaf_vector":"1"}},{"base_weights":[0.002136493,0.09856574,-0.21132848,-0.0018433713,0.0011809078,-1.55605e-05,-0.0027085205],"categories":[],"categories_nodes":[],"categories_segments":[],"categories_sizes":[],"default_left":[0,0,0,0,0,0,0],"id":97,"left_children":[1,3,5,-1,-1,-1,-1],"loss_changes":[310.33704,57.55345,58.282272,0.0,0.0,0.0,0.0],"parents":[2147483647,0,0,1,1,2,2],"right_children":[2,4,6,-1,-1,-1,-1],"split_conditions":[0.005541498,-1.2585361,-0.107414655,-0.0018433713,0.0011809078,-1.55605e-05,-0.0027085205],"split_indices":[1,3,0,0,0,0,0],"split_type":[0,0,0,0,0,0,0],"sum_hessian":[15061.778,10381.965,4679.8125,661.51373,9720.451,1040.3795,3639.433],"tree_param":{"num_deleted":"0","num_feature":"4","num_nodes":"7","size_leaf_vector":"1"}},{"base_weights":[-0.0047510276,0.09192371,-0.21869287,0.0034550854,0.0006957193,-0.0008454286,-0.0030534356],"categories":[],"categories_nodes":[],"categories_segments":[],"categories_sizes":[],"default_left":[0,0,0,0,0,0,0],"id":98,"left_children":[1,3,5,-1,-1,-1,-1],"loss_changes":[310.40952,57.895554,53.663635,0.0,0.0,0.0,0.0],"parents":[2147483647,0,0,1,1,2,2],"right_children":[2,4,6,-1,-1,-1,-1],"split_conditions":[0.005541498,-0.26368263,-0.013739948,0.0034550854,0.0006957193,-0.0008454286,-0.0030534356],"split_indices":[1,0,0,0,0,0,0],"split_type":[0,0,0,0,0,0,0],"sum_hessian":[14982.269,10319.972,4662.297,820.6164,9499.355,1841.9471,2820.3499],"tree_param":{"num_deleted":"0","num_feature":"4","num_nodes":"7","size_leaf_vector":"1"}},{"base_weights":[-0.0020986733,0.09177579,-0.2256324,0.0032958155,0.0007108014,0.0011304532,-0.0027378057],"categories":[],"categories_nodes":[],"categories_segments":[],"categories_sizes":[],"default_left":[0,0,0,0,0,0,0],"id":99,"left_children":[1,3,5,-1,-1,-1,-1],"loss_changes":[316.6865,51.635933,73.27425,0.0,0.0,0.0,0.0],"parents":[2147483647,0,0,1,1,2,2],"right_children":[2,4,6,-1,-1,-1,-1],"split_conditions":[0.006257422,-0.26368263,-0.17725995,0.0032958155,0.0007108014,0.0011304532,-0.0027378057],"split_indices":[1,0,0,0,0,0,0],"split_type":[0,0,0,0,0,0,0],"sum_hessian":[15065.481,10610.819,4454.6626,833.6858,9777.133,550.2087,3904.454],"tree_param":{"num_deleted":"0","num_feature":"4","num_nodes":"7","size_leaf_vector":"1"}},{"base_weights":[-0.0060730805,0.07639366,-0.22720055,0.0016344723,2.796631e-05,-0.0011330162,-0.0035069066],"categories":[],"categories_nodes":[],"categories_segments":[],"categories_sizes":[],"default_left":[0,0,0,0,0,0,0],"id":100,"left_children":[1,3,5,-1,-1,-1,-1],"loss_changes":[273.94092,69.8752,56.54724,0.0,0.0,0.0,0.0],"parents":[2147483647,0,0,1,1,2,2],"right_children":[2,4,6,-1,-1,-1,-1],"split_conditions":[0.0076117637,-0.008204048,0.051971994,0.0016344723,2.796631e-05,-0.0011330162,-0.0035069066],"split_indices":[1,1,0,0,0,0,0],"split_type":[0,0,0,0,0,0,0],"sum_hessian":[14994.477,10922.929,4071.5474,4992.179,5930.7495,2132.212,1939.3354],"tree_param":{"num_deleted":"0","num_feature":"4","num_nodes":"7","size_leaf_vector":"1"}},{"base_weights":[0.01632651,0.10358668,-0.23535645,0.0018840329,0.00033788025,-0.0012723809,-0.0035655822],"categories":[],"categories_nodes":[],"categories_segments":[],"categories_sizes":[],"default_left":[0,0,0,0,0,0,0],"id":101,"left_children":[1,3,5,-1,-1,-1,-1],"loss_changes":[329.97412,65.7991,49.735,0.0,0.0,0.0,0.0],"parents":[2147483647,0,0,1,1,2,2],"right_children":[2,4,6,-1,-1,-1,-1],"split_conditions":[0.008397281,-0.008204048,0.057899226,0.0018840329,0.00033788025,-0.0012723809,-0.0035655822],"split_indices":[1,1,0,0,0,0,0],"split_type":[0,0,0,0,0,0,0],"sum_hessian":[15009.744,11152.838,3856.9065,5020.6367,6132.201,2053.6719,1803.2346],"tree_param":{"num_deleted":"0","num_feature":"4","num_nodes":"7","size_leaf_vector":"1"}},{"base_weights":[0.0049554342,0.12738132,-0.14514694,-2.5654354e-05,0.0017943098,-0.000650968,-0.0024817525],"categories":[],"categories_nodes":[],"categories_segments":[],"categories_sizes":[],"default_left":[0,0,0,0,0,0,0],"id":102,"left_children":[1,3,5,-1,-1,-1,-1],"loss_changes":[276.1428,56.18837,55.17389,0.0,0.0,0.0,0.0],"parents":[2147483647,0,0,1,1,2,2],"right_children":[2,4,6,-1,-1,-1,-1],"split_conditions":[-1.6432321e-05,-0.52598435,0.012650521,-2.5654354e-05,0.0017943098,-0.000650968,-0.0024817525],"split_indices":[1,3,1,0,0,0,0],"split_type":[0,0,0,0,0,0,0],"sum_hessian":[15007.927,8270.528,6737.3984,2362.5364,5907.9917,3806.1501,2931.2483],"tree_param":{"num_deleted":"0","num_feature":"4","num_nodes":"7","size_leaf_vector":"1"}},{"base_weights":[-0.0017161857,0.121526584,-0.14890267,-0.00012652864,0.0019642701,-0.0007431552,-0.0028732647],"categories":[],"categories_nodes":[],"categories_segments":[],"categories_sizes":[],"default_left":[0,0,0,0,0,0,0],"id":103,"left_children":[1,3,5,-1,-1,-1,-1],"loss_changes":[272.45093,82.32076,70.12642,0.0,0.0,0.0,0.0],"parents":[2147483647,0,0,1,1,2,2],"right_children":[2,4,6,-1,-1,-1,-1],"split_conditions":[-0.00018931416,-0.36891714,0.015729414,-0.00012652864,0.0019642701,-0.0007431552,-0.0028732647],"split_indices":[1,3,1,0,0,0,0],"split_type":[0,0,0,0,0,0,0],"sum_hessian":[14998.134,8160.2827,6837.851,2921.5208,5238.762,4458.216,2379.6353],"tree_param":{"num_deleted":"0","num_feature":"4","num_nodes":"7","size_leaf_vector":"1"}},{"base_weights":[-0.004824968,0.1216178,-0.15833145,0.0006600111,0.0025770606,-0.00082977035,-0.0031903898],"categories":[],"categories_nodes":[],"categories_segments":[],"categories_sizes":[],"default_left":[0,0,0,0,0,0,0],"id":104,"left_children":[1,3,5,-1,-1,-1,-1],"loss_changes":[292.3089,61.975044,81.736755,0.0,0.0,0.0,0.0],"parents":[2147483647,0,0,1,1,2,2],"right_children":[2,4,6,-1,-1,-1,-1],"split_conditions":[-0.000106641965,0.35806918,0.017352328,0.0006600111,0.0025770606,-0.00082977035,-0.0031903898],"split_indices":[1,3,1,0,0,0,0],"split_type":[0,0,0,0,0,0,0],"sum_hessian":[15038.06,8243.489,6794.571,5867.678,2375.8105,4640.2036,2154.3672],"tree_param":{"num_deleted":"0","num_feature":"4","num_nodes":"7","size_leaf_vector":"1"}},{"base_weights":[0.005289237,0.12550688,-0.13510987,-0.00018233887,0.001837116,-0.00062358344,-0.0029536074],"categories":[],"categories_nodes":[],"categories_segments":[],"categories_sizes":[],"default_left":[0,0,0,0,0,0,0],"id":105,"left_children":[1,3,5,-1,-1,-1,-1],"loss_changes":[254.32863,68.14629,80.45323,0.0,0.0,0.0,0.0],"parents":[2147483647,0,0,1,1,2,2],"right_children":[2,4,6,-1,-1,-1,-1],"split_conditions":[-0.00029575598,-0.52598435,0.017352328,-0.00018233887,0.001837116,-0.00062358344,-0.0029536074],"split_indices":[1,3,1,0,0,0,0],"split_type":[0,0,0,0,0,0,0],"sum_hessian":[15048.768,8111.4604,6937.307,2334.9124,5776.548,4785.082,2152.225],"tree_param":{"num_deleted":"0","num_feature":"4","num_nodes":"7","size_leaf_vector":"1"}},{"base_weights":[-0.008891391,0.10078861,-0.13949719,-0.0016531976,0.0012086321,-0.0003788565,-0.002029941],"categories":[],"categories_nodes":[],"categories_segments":[],"categories_sizes":[],"default_left":[0,0,0,0,0,0,0],"id":106,"left_children":[1,3,5,-1,-1,-1,-1],"loss_changes":[214.82011,43.671455,43.864426,0.0,0.0,0.0,0.0],"parents":[2147483647,0,0,1,1,2,2],"right_children":[2,4,6,-1,-1,-1,-1],"split_conditions":[-0.00018931416,-1.2585361,-0.028579349,-0.0016531976,0.0012086321,-0.0003788565,-0.002029941],"split_indices":[1,3,0,0,0,0,0],"split_type":[0,0,0,0,0,0,0],"sum_hessian":[14973.813,8135.9995,6837.8145,562.1388,7573.8604,2641.8625,4195.9517],"tree_param":{"num_deleted":"0","num_feature":"4","num_nodes":"7","size_leaf_vector":"1"}},{"base_weights":[0.003406103,0.08004017,-0.21885003,0.00033075968,0.0016492574,-0.0006659764,-0.0032374873],"categories":[],"categories_nodes":[],"categories_segments":[],"categories_sizes":[],"default_left":[0,0,0,0,0,0,0],"id":107,"left_children":[1,3,5,-1,-1,-1,-1],"loss_changes":[254.83527,44.13704,60.64186,0.0,0.0,0.0,0.0],"parents":[2147483647,0,0,1,1,2,2],"right_children":[2,4,6,-1,-1,-1,-1],"split_conditions":[0.008397281,0.255216,0.0009240399,0.00033075968,0.0016492574,-0.0006659764,-0.0032374873],"split_indices":[1,3,0,0,0,0,0],"split_type":[0,0,0,0,0,0,0],"sum_hessian":[14949.668,11124.746,3824.922,7178.7,3946.0457,1570.8442,2254.078],"tree_param":{"num_deleted":"0","num_feature":"4","num_nodes":"7","size_leaf_vector":"1"}},{"base_weights":[0.0066995267,0.08607659,-0.22337489,0.0017743888,0.00028106512,0.00081416016,-0.0026609935],"categories":[],"categories_nodes":[],"categories_segments":[],"categories_sizes":[],"default_left":[0,0,0,0,0,0,0],"id":108,"left_children":[1,3,5,-1,-1,-1,-1],"loss_changes":[273.07764,58.668297,50.33177,0.0,0.0,0.0,0.0],"parents":[2147483647,0,0,1,1,2,2],"right_children":[2,4,6,-1,-1,-1,-1],"split_conditions":[0.008397281,-0.010594935,-0.17725995,0.0017743888,0.00028106512,0.00081416016,-0.0026609935],"split_indices":[1,1,0,0,0,0,0],"split_type":[0,0,0,0,0,0,0],"sum_hessian":[14939.798,11115.491,3824.3066,4300.2812,6815.21,466.17947,3358.1272],"tree_param":{"num_deleted":"0","num_feature":"4","num_nodes":"7","size_leaf_vector":"1"}},{"base_weights":[0.0046738237,0.09869552,-0.1745692,0.0011160685,-0.0037068096,0.0005743085,-0.0022351197],"categories":[],"categories_nodes":[],"categories_segments":[],"categories_sizes":[],"default_left":[0,0,0,0,0,0,0],"id":109,"left_children":[1,3,5,-1,-1,-1,-1],"loss_changes":[253.5468,59.997955,59.048737,0.0,0.0,0.0,0.0],"parents":[2147483647,0,0,1,1,2,2],"right_children":[2,4,6,-1,-1,-1,-1],"split_conditions":[0.0037785617,1.5332178,-0.14466117,0.0011160685,-0.0037068096,0.0005743085,-0.0022351197],"split_indices":[1,3,0,0,0,0,0],"split_type":[0,0,0,0,0,0,0],"sum_hessian":[15029.125,9864.688,5164.4365,9610.093,254.59605,895.82983,4268.607],"tree_param":{"num_deleted":"0","num_feature":"4","num_nodes":"7","size_leaf_vector":"1"}},{"base_weights":[-0.00084715366,0.07671306,-0.22888221,0.0002512534,0.0015663863,-0.0012466165,-0.003609435],"categories":[],"categories_nodes":[],"categories_segments":[],"categories_sizes":[],"default_left":[0,0,0,0,0,0,0],"id":110,"left_children":[1,3,5,-1,-1,-1,-1],"loss_changes":[266.6638,46.12777,51.747025,0.0,0.0,0.0,0.0],"parents":[2147483647,0,0,1,1,2,2],"right_children":[2,4,6,-1,-1,-1,-1],"split_conditions":[0.008397281,0.18144417,0.0713976,0.0002512534,0.0015663863,-0.0012466165,-0.003609435],"split_indices":[1,3,0,0,0,0,0],"split_type":[0,0,0,0,0,0,0],"sum_hessian":[15048.764,11231.061,3817.7034,6841.1294,4389.9307,2148.8662,1668.8373],"tree_param":{"num_deleted":"0","num_feature":"4","num_nodes":"7","size_leaf_vector":"1"}},{"base_weights":[-0.0026716844,0.12256281,-0.15042326,0.0006142817,0.0024079217,-0.0008401454,-0.0029207643],"categories":[],"categories_nodes":[],"categories_segments":[],"categories_sizes":[],"default_left":[0,0,0,0,0,0,0],"id":111,"left_children":[1,3,5,-1,-1,-1,-1],"loss_changes":[278.94443,58.493057,64.46309,0.0,0.0,0.0,0.0],"parents":[2147483647,0,0,1,1,2,2],"right_children":[2,4,6,-1,-1,-1,-1],"split_conditions":[-0.00029575598,0.24719673,0.01701392,0.0006142817,0.0024079217,-0.0008401454,-0.0029207643],"split_indices":[1,3,1,0,0,0,0],"split_type":[0,0,0,0,0,0,0],"sum_hessian":[15053.678,8144.945,6908.7334,5384.4033,2760.5413,4719.2725,2189.461],"tree_param":{"num_deleted":"0","num_feature":"4","num_nodes":"7","size_leaf_vector":"1"}},{"base_weights":[-0.0011042688,0.12553878,-0.13590668,-0.00024725782,0.0018581207,-0.00076566194,-0.0028589566],"categories":[],"categories_nodes":[],"categories_segments":[],"categories_sizes":[],"default_left":[0,0,0,0,0,0,0],"id":112,"left_children":[1,3,5,-1,-1,-1,-1],"loss_changes":[255.26334,69.9944,63.91414,0.0,0.0,0.0,0.0],"parents":[2147483647,0,0,1,1,2,2],"right_children":[2,4,6,-1,-1,-1,-1],"split_conditions":[-0.0010329842,-0.52598435,0.018051038,-0.00024725782,0.0018581207,-0.00076566194,-0.0028589566],"split_indices":[1,3,1,0,0,0,0],"split_type":[0,0,0,0,0,0,0],"sum_hessian":[14931.746,7695.4023,7236.344,2199.997,5495.4053,5200.5938,2035.7504],"tree_param":{"num_deleted":"0","num_feature":"4","num_nodes":"7","size_leaf_vector":"1"}},{"base_weights":[0.00592846,0.08801228,-0.18781793,0.00020054342,0.0016008357,0.0009232505,-0.0022859455],"categories":[],"categories_nodes":[],"categories_segments":[],"categories_sizes":[],"default_left":[0,0,0,0,0,0,0],"id":113,"left_children":[1,3,5,-1,-1,-1,-1],"loss_changes":[238.78856,51.4802,51.3705,0.0,0.0,0.0,0.0],"parents":[2147483647,0,0,1,1,2,2],"right_children":[2,4,6,-1,-1,-1,-1],"split_conditions":[0.0058884,-0.015242879,-0.17725995,0.00020054342,0.0016008357,0.0009232505,-0.0022859455],"split_indices":[1,3,0,0,0,0,0],"split_type":[0,0,0,0,0,0,0],"sum_hessian":[15000.776,10544.181,4456.595,5440.678,5103.5024,561.54083,3895.0547],"tree_param":{"num_deleted":"0","num_feature":"4","num_nodes":"7","size_leaf_vector":"1"}},{"base_weights":[0.0012269589,0.073418826,-0.21725257,0.0015916101,3.493942e-05,-0.00034626818,-0.0030812232],"categories":[],"categories_nodes":[],"categories_segments":[],"categories_sizes":[],"default_left":[0,0,0,0,0,0,0],"id":114,"left_children":[1,3,5,-1,-1,-1,-1],"loss_changes":[236.31174,67.41096,61.283646,0.0,0.0,0.0,0.0],"parents":[2147483647,0,0,1,1,2,2],"right_children":[2,4,6,-1,-1,-1,-1],"split_conditions":[0.008804954,-0.008204048,-0.0380007,0.0015916101,3.493942e-05,-0.00034626818,-0.0030812232],"split_indices":[1,1,0,0,0,0,0],"split_type":[0,0,0,0,0,0,0],"sum_hessian":[14971.573,11261.627,3709.9465,5046.511,6215.116,1240.8867,2469.0598],"tree_param":{"num_deleted":"0","num_feature":"4","num_nodes":"7","size_leaf_vector":"1"}},{"base_weights":[-0.004049933,0.113151394,-0.14860618,0.0006945366,0.0025960093,0.00023501163,-0.0020139443],"categories":[],"categories_nodes":[],"categories_segments":[],"categories_sizes":[],"default_left":[0,0,0,0,0,0,0],"id":115,"left_children":[1,3,5,-1,-1,-1,-1],"loss_changes":[254.56943,52.563354,61.373657,0.0,0.0,0.0,0.0],"parents":[2147483647,0,0,1,1,2,2],"right_children":[2,4,6,-1,-1,-1,-1],"split_conditions":[-0.000106641965,0.5034891,-0.10954118,0.0006945366,0.0025960093,0.00023501163,-0.0020139443],"split_indices":[1,3,0,0,0,0,0],"split_type":[0,0,0,0,0,0,0],"sum_hessian":[15003.757,8283.24,