{"learner":{"attributes":{},"feature_names":["VNS_13","sEMA_23","nATR_31","VNS_79"],"feature_types":["float","float","float","float"],"gradient_booster":{"model":{"gbtree_model_param":{"num_parallel_tree":"1","num_trees":"2000"},"iteration_indptr":[0,1,2,3,4,5,6,7,8,9,10,11,12,13,14,15,16,17,18,19,20,21,22,23,24,25,26,27,28,29,30,31,32,33,34,35,36,37,38,39,40,41,42,43,44,45,46,47,48,49,50,51,52,53,54,55,56,57,58,59,60,61,62,63,64,65,66,67,68,69,70,71,72,73,74,75,76,77,78,79,80,81,82,83,84,85,86,87,88,89,90,91,92,93,94,95,96,97,98,99,100,101,102,103,104,105,106,107,108,109,110,111,112,113,114,115,116,117,118,119,120,121,122,123,124,125,126,127,128,129,130,131,132,133,134,135,136,137,138,139,140,141,142,143,144,145,146,147,148,149,150,151,152,153,154,155,156,157,158,159,160,161,162,163,164,165,166,167,168,169,170,171,172,173,174,175,176,177,178,179,180,181,182,183,184,185,186,187,188,189,190,191,192,193,194,195,196,197,198,199,200,201,202,203,204,205,206,207,208,209,210,211,212,213,214,215,216,217,218,219,220,221,222,223,224,225,226,227,228,229,230,231,232,233,234,235,236,237,238,239,240,241,242,243,244,245,246,247,248,249,250,251,252,253,254,255,256,257,258,259,260,261,262,263,264,265,266,267,268,269,270,271,272,273,274,275,276,277,278,279,280,281,282,283,284,285,286,287,288,289,290,291,292,293,294,295,296,297,298,299,300,301,302,303,304,305,306,307,308,309,310,311,312,313,314,315,316,317,318,319,320,321,322,323,324,325,326,327,328,329,330,331,332,333,334,335,336,337,338,339,340,341,342,343,344,345,346,347,348,349,350,351,352,353,354,355,356,357,358,359,360,361,362,363,364,365,366,367,368,369,370,371,372,373,374,375,376,377,378,379,380,381,382,383,384,385,386,387,388,389,390,391,392,393,394,395,396,397,398,399,400,401,402,403,404,405,406,407,408,409,410,411,412,413,414,415,416,417,418,419,420,421,422,423,424,425,426,427,428,429,430,431,432,433,434,435,436,437,438,439,440,441,442,443,444,445,446,447,448,449,450,451,452,453,454,455,456,457,458,459,460,461,462,463,464,465,466,467,468,469,470,471,472,473,474,475,476,477,478,479,480,481,482,483,484,485,486,487,488,489,490,491,492,493,494,495,496,497,498,499,500,501,502,503,504,505,506,507,508,509,510,511,512,513,514,515,516,517,518,519,520,521,522,523,524,525,526,527,528,529,530,531,532,533,534,535,536,537,538,539,540,541,542,543,544,545,546,547,548,549,550,551,552,553,554,555,556,557,558,559,560,561,562,563,564,565,566,567,568,569,570,571,572,573,574,575,576,577,578,579,580,581,582,583,584,585,586,587,588,589,590,591,592,593,594,595,596,597,598,599,600,601,602,603,604,605,606,607,608,609,610,611,612,613,614,615,616,617,618,619,620,621,622,623,624,625,626,627,628,629,630,631,632,633,634,635,636,637,638,639,640,641,642,643,644,645,646,647,648,649,650,651,652,653,654,655,656,657,658,659,660,661,662,663,664,665,666,667,668,669,670,671,672,673,674,675,676,677,678,679,680,681,682,683,684,685,686,687,688,689,690,691,692,693,694,695,696,697,698,699,700,701,702,703,704,705,706,707,708,709,710,711,712,713,714,715,716,717,718,719,720,721,722,723,724,725,726,727,728,729,730,731,732,733,734,735,736,737,738,739,740,741,742,743,744,745,746,747,748,749,750,751,752,753,754,755,756,757,758,759,760,761,762,763,764,765,766,767,768,769,770,771,772,773,774,775,776,777,778,779,780,781,782,783,784,785,786,787,788,789,790,791,792,793,794,795,796,797,798,799,800,801,802,803,804,805,806,807,808,809,810,811,812,813,814,815,816,817,818,819,820,821,822,823,824,825,826,827,828,829,830,831,832,833,834,835,836,837,838,839,840,841,842,843,844,845,846,847,848,849,850,851,852,853,854,855,856,857,858,859,860,861,862,863,864,865,866,867,868,869,870,871,872,873,874,875,876,877,878,879,880,881,882,883,884,885,886,887,888,889,890,891,892,893,894,895,896,897,898,899,900,901,902,903,904,905,906,907,908,909,910,911,912,913,914,915,916,917,918,919,920,921,922,923,924,925,926,927,928,929,930,931,932,933,934,935,936,937,938,939,940,941,942,943,944,945,946,947,948,949,950,951,952,953,954,955,956,957,958,959,960,961,962,963,964,965,966,967,968,969,970,971,972,973,974,975,976,977,978,979,980,981,982,983,984,985,986,987,988,989,990,991,992,993,994,995,996,997,998,999,1000,1001,1002,1003,1004,1005,1006,1007,1008,1009,1010,1011,1012,1013,1014,1015,1016,1017,1018,1019,1020,1021,1022,1023,1024,1025,1026,1027,1028,1029,1030,1031,1032,1033,1034,1035,1036,1037,1038,1039,1040,1041,1042,1043,1044,1045,1046,1047,1048,1049,1050,1051,1052,1053,1054,1055,1056,1057,1058,1059,1060,1061,1062,1063,1064,1065,1066,1067,1068,1069,1070,1071,1072,1073,1074,1075,1076,1077,1078,1079,1080,1081,1082,1083,1084,1085,1086,1087,1088,1089,1090,1091,1092,1093,1094,1095,1096,1097,1098,1099,1100,1101,1102,1103,1104,1105,1106,1107,1108,1109,1110,1111,1112,1113,1114,1115,1116,1117,1118,1119,1120,1121,1122,1123,1124,1125,1126,1127,1128,1129,1130,1131,1132,1133,1134,1135,1136,1137,1138,1139,1140,1141,1142,1143,1144,1145,1146,1147,1148,1149,1150,1151,1152,1153,1154,1155,1156,1157,1158,1159,1160,1161,1162,1163,1164,1165,1166,1167,1168,1169,1170,1171,1172,1173,1174,1175,1176,1177,1178,1179,1180,1181,1182,1183,1184,1185,1186,1187,1188,1189,1190,1191,1192,1193,1194,1195,1196,1197,1198,1199,1200,1201,1202,1203,1204,1205,1206,1207,1208,1209,1210,1211,1212,1213,1214,1215,1216,1217,1218,1219,1220,1221,1222,1223,1224,1225,1226,1227,1228,1229,1230,1231,1232,1233,1234,1235,1236,1237,1238,1239,1240,1241,1242,1243,1244,1245,1246,1247,1248,1249,1250,1251,1252,1253,1254,1255,1256,1257,1258,1259,1260,1261,1262,1263,1264,1265,1266,1267,1268,1269,1270,1271,1272,1273,1274,1275,1276,1277,1278,1279,1280,1281,1282,1283,1284,1285,1286,1287,1288,1289,1290,1291,1292,1293,1294,1295,1296,1297,1298,1299,1300,1301,1302,1303,1304,1305,1306,1307,1308,1309,1310,1311,1312,1313,1314,1315,1316,1317,1318,1319,1320,1321,1322,1323,1324,1325,1326,1327,1328,1329,1330,1331,1332,1333,1334,1335,1336,1337,1338,1339,1340,1341,1342,1343,1344,1345,1346,1347,1348,1349,1350,1351,1352,1353,1354,1355,1356,1357,1358,1359,1360,1361,1362,1363,1364,1365,1366,1367,1368,1369,1370,1371,1372,1373,1374,1375,1376,1377,1378,1379,1380,1381,1382,1383,1384,1385,1386,1387,1388,1389,1390,1391,1392,1393,1394,1395,1396,1397,1398,1399,1400,1401,1402,1403,1404,1405,1406,1407,1408,1409,1410,1411,1412,1413,1414,1415,1416,1417,1418,1419,1420,1421,1422,1423,1424,1425,1426,1427,1428,1429,1430,1431,1432,1433,1434,1435,1436,1437,1438,1439,1440,1441,1442,1443,1444,1445,1446,1447,1448,1449,1450,1451,1452,1453,1454,1455,1456,1457,1458,1459,1460,1461,1462,1463,1464,1465,1466,1467,1468,1469,1470,1471,1472,1473,1474,1475,1476,1477,1478,1479,1480,1481,1482,1483,1484,1485,1486,1487,1488,1489,1490,1491,1492,1493,1494,1495,1496,1497,1498,1499,1500,1501,1502,1503,1504,1505,1506,1507,1508,1509,1510,1511,1512,1513,1514,1515,1516,1517,1518,1519,1520,1521,1522,1523,1524,1525,1526,1527,1528,1529,1530,1531,1532,1533,1534,1535,1536,1537,1538,1539,1540,1541,1542,1543,1544,1545,1546,1547,1548,1549,1550,1551,1552,1553,1554,1555,1556,1557,1558,1559,1560,1561,1562,1563,1564,1565,1566,1567,1568,1569,1570,1571,1572,1573,1574,1575,1576,1577,1578,1579,1580,1581,1582,1583,1584,1585,1586,1587,1588,1589,1590,1591,1592,1593,1594,1595,1596,1597,1598,1599,1600,1601,1602,1603,1604,1605,1606,1607,1608,1609,1610,1611,1612,1613,1614,1615,1616,1617,1618,1619,1620,1621,1622,1623,1624,1625,1626,1627,1628,1629,1630,1631,1632,1633,1634,1635,1636,1637,1638,1639,1640,1641,1642,1643,1644,1645,1646,1647,1648,1649,1650,1651,1652,1653,1654,1655,1656,1657,1658,1659,1660,1661,1662,1663,1664,1665,1666,1667,1668,1669,1670,1671,1672,1673,1674,1675,1676,1677,1678,1679,1680,1681,1682,1683,1684,1685,1686,1687,1688,1689,1690,1691,1692,1693,1694,1695,1696,1697,1698,1699,1700,1701,1702,1703,1704,1705,1706,1707,1708,1709,1710,1711,1712,1713,1714,1715,1716,1717,1718,1719,1720,1721,1722,1723,1724,1725,1726,1727,1728,1729,1730,1731,1732,1733,1734,1735,1736,1737,1738,1739,1740,1741,1742,1743,1744,1745,1746,1747,1748,1749,1750,1751,1752,1753,1754,1755,1756,1757,1758,1759,1760,1761,1762,1763,1764,1765,1766,1767,1768,1769,1770,1771,1772,1773,1774,1775,1776,1777,1778,1779,1780,1781,1782,1783,1784,1785,1786,1787,1788,1789,1790,1791,1792,1793,1794,1795,1796,1797,1798,1799,1800,1801,1802,1803,1804,1805,1806,1807,1808,1809,1810,1811,1812,1813,1814,1815,1816,1817,1818,1819,1820,1821,1822,1823,1824,1825,1826,1827,1828,1829,1830,1831,1832,1833,1834,1835,1836,1837,1838,1839,1840,1841,1842,1843,1844,1845,1846,1847,1848,1849,1850,1851,1852,1853,1854,1855,1856,1857,1858,1859,1860,1861,1862,1863,1864,1865,1866,1867,1868,1869,1870,1871,1872,1873,1874,1875,1876,1877,1878,1879,1880,1881,1882,1883,1884,1885,1886,1887,1888,1889,1890,1891,1892,1893,1894,1895,1896,1897,1898,1899,1900,1901,1902,1903,1904,1905,1906,1907,1908,1909,1910,1911,1912,1913,1914,1915,1916,1917,1918,1919,1920,1921,1922,1923,1924,1925,1926,1927,1928,1929,1930,1931,1932,1933,1934,1935,1936,1937,1938,1939,1940,1941,1942,1943,1944,1945,1946,1947,1948,1949,1950,1951,1952,1953,1954,1955,1956,1957,1958,1959,1960,1961,1962,1963,1964,1965,1966,1967,1968,1969,1970,1971,1972,1973,1974,1975,1976,1977,1978,1979,1980,1981,1982,1983,1984,1985,1986,1987,1988,1989,1990,1991,1992,1993,1994,1995,1996,1997,1998,1999,2000],"tree_info":[0,0,0,0,0,0,0,0,0,0,0,0,0,0,0,0,0,0,0,0,0,0,0,0,0,0,0,0,0,0,0,0,0,0,0,0,0,0,0,0,0,0,0,0,0,0,0,0,0,0,0,0,0,0,0,0,0,0,0,0,0,0,0,0,0,0,0,0,0,0,0,0,0,0,0,0,0,0,0,0,0,0,0,0,0,0,0,0,0,0,0,0,0,0,0,0,0,0,0,0,0,0,0,0,0,0,0,0,0,0,0,0,0,0,0,0,0,0,0,0,0,0,0,0,0,0,0,0,0,0,0,0,0,0,0,0,0,0,0,0,0,0,0,0,0,0,0,0,0,0,0,0,0,0,0,0,0,0,0,0,0,0,0,0,0,0,0,0,0,0,0,0,0,0,0,0,0,0,0,0,0,0,0,0,0,0,0,0,0,0,0,0,0,0,0,0,0,0,0,0,0,0,0,0,0,0,0,0,0,0,0,0,0,0,0,0,0,0,0,0,0,0,0,0,0,0,0,0,0,0,0,0,0,0,0,0,0,0,0,0,0,0,0,0,0,0,0,0,0,0,0,0,0,0,0,0,0,0,0,0,0,0,0,0,0,0,0,0,0,0,0,0,0,0,0,0,0,0,0,0,0,0,0,0,0,0,0,0,0,0,0,0,0,0,0,0,0,0,0,0,0,0,0,0,0,0,0,0,0,0,0,0,0,0,0,0,0,0,0,0,0,0,0,0,0,0,0,0,0,0,0,0,0,0,0,0,0,0,0,0,0,0,0,0,0,0,0,0,0,0,0,0,0,0,0,0,0,0,0,0,0,0,0,0,0,0,0,0,0,0,0,0,0,0,0,0,0,0,0,0,0,0,0,0,0,0,0,0,0,0,0,0,0,0,0,0,0,0,0,0,0,0,0,0,0,0,0,0,0,0,0,0,0,0,0,0,0,0,0,0,0,0,0,0,0,0,0,0,0,0,0,0,0,0,0,0,0,0,0,0,0,0,0,0,0,0,0,0,0,0,0,0,0,0,0,0,0,0,0,0,0,0,0,0,0,0,0,0,0,0,0,0,0,0,0,0,0,0,0,0,0,0,0,0,0,0,0,0,0,0,0,0,0,0,0,0,0,0,0,0,0,0,0,0,0,0,0,0,0,0,0,0,0,0,0,0,0,0,0,0,0,0,0,0,0,0,0,0,0,0,0,0,0,0,0,0,0,0,0,0,0,0,0,0,0,0,0,0,0,0,0,0,0,0,0,0,0,0,0,0,0,0,0,0,0,0,0,0,0,0,0,0,0,0,0,0,0,0,0,0,0,0,0,0,0,0,0,0,0,0,0,0,0,0,0,0,0,0,0,0,0,0,0,0,0,0,0,0,0,0,0,0,0,0,0,0,0,0,0,0,0,0,0,0,0,0,0,0,0,0,0,0,0,0,0,0,0,0,0,0,0,0,0,0,0,0,0,0,0,0,0,0,0,0,0,0,0,0,0,0,0,0,0,0,0,0,0,0,0,0,0,0,0,0,0,0,0,0,0,0,0,0,0,0,0,0,0,0,0,0,0,0,0,0,0,0,0,0,0,0,0,0,0,0,0,0,0,0,0,0,0,0,0,0,0,0,0,0,0,0,0,0,0,0,0,0,0,0,0,0,0,0,0,0,0,0,0,0,0,0,0,0,0,0,0,0,0,0,0,0,0,0,0,0,0,0,0,0,0,0,0,0,0,0,0,0,0,0,0,0,0,0,0,0,0,0,0,0,0,0,0,0,0,0,0,0,0,0,0,0,0,0,0,0,0,0,0,0,0,0,0,0,0,0,0,0,0,0,0,0,0,0,0,0,0,0,0,0,0,0,0,0,0,0,0,0,0,0,0,0,0,0,0,0,0,0,0,0,0,0,0,0,0,0,0,0,0,0,0,0,0,0,0,0,0,0,0,0,0,0,0,0,0,0,0,0,0,0,0,0,0,0,0,0,0,0,0,0,0,0,0,0,0,0,0,0,0,0,0,0,0,0,0,0,0,0,0,0,0,0,0,0,0,0,0,0,0,0,0,0,0,0,0,0,0,0,0,0,0,0,0,0,0,0,0,0,0,0,0,0,0,0,0,0,0,0,0,0,0,0,0,0,0,0,0,0,0,0,0,0,0,0,0,0,0,0,0,0,0,0,0,0,0,0,0,0,0,0,0,0,0,0,0,0,0,0,0,0,0,0,0,0,0,0,0,0,0,0,0,0,0,0,0,0,0,0,0,0,0,0,0,0,0,0,0,0,0,0,0,0,0,0,0,0,0,0,0,0,0,0,0,0,0,0,0,0,0,0,0,0,0,0,0,0,0,0,0,0,0,0,0,0,0,0,0,0,0,0,0,0,0,0,0,0,0,0,0,0,0,0,0,0,0,0,0,0,0,0,0,0,0,0,0,0,0,0,0,0,0,0,0,0,0,0,0,0,0,0,0,0,0,0,0,0,0,0,0,0,0,0,0,0,0,0,0,0,0,0,0,0,0,0,0,0,0,0,0,0,0,0,0,0,0,0,0,0,0,0,0,0,0,0,0,0,0,0,0,0,0,0,0,0,0,0,0,0,0,0,0,0,0,0,0,0,0,0,0,0,0,0,0,0,0,0,0,0,0,0,0,0,0,0,0,0,0,0,0,0,0,0,0,0,0,0,0,0,0,0,0,0,0,0,0,0,0,0,0,0,0,0,0,0,0,0,0,0,0,0,0,0,0,0,0,0,0,0,0,0,0,0,0,0,0,0,0,0,0,0,0,0,0,0,0,0,0,0,0,0,0,0,0,0,0,0,0,0,0,0,0,0,0,0,0,0,0,0,0,0,0,0,0,0,0,0,0,0,0,0,0,0,0,0,0,0,0,0,0,0,0,0,0,0,0,0,0,0,0,0,0,0,0,0,0,0,0,0,0,0,0,0,0,0,0,0,0,0,0,0,0,0,0,0,0,0,0,0,0,0,0,0,0,0,0,0,0,0,0,0,0,0,0,0,0,0,0,0,0,0,0,0,0,0,0,0,0,0,0,0,0,0,0,0,0,0,0,0,0,0,0,0,0,0,0,0,0,0,0,0,0,0,0,0,0,0,0,0,0,0,0,0,0,0,0,0,0,0,0,0,0,0,0,0,0,0,0,0,0,0,0,0,0,0,0,0,0,0,0,0,0,0,0,0,0,0,0,0,0,0,0,0,0,0,0,0,0,0,0,0,0,0,0,0,0,0,0,0,0,0,0,0,0,0,0,0,0,0,0,0,0,0,0,0,0,0,0,0,0,0,0,0,0,0,0,0,0,0,0,0,0,0,0,0,0,0,0,0,0,0,0,0,0,0,0,0,0,0,0,0,0,0,0,0,0,0,0,0,0,0,0,0,0,0,0,0,0,0,0,0,0,0,0,0,0,0,0,0,0,0,0,0,0,0,0,0,0,0,0,0,0,0,0,0,0,0,0,0,0,0,0,0,0,0,0,0,0,0,0,0,0,0,0,0,0,0,0,0,0,0,0,0,0,0,0,0,0,0,0,0,0,0,0,0,0,0,0,0,0,0,0,0,0,0,0,0,0,0,0,0,0,0,0,0,0,0,0,0,0,0,0,0,0,0,0,0,0,0,0,0,0,0,0,0,0,0,0,0,0,0,0,0,0,0,0,0,0,0,0,0,0,0,0,0,0,0,0,0,0,0,0,0,0,0,0,0,0,0,0,0,0,0,0,0,0,0,0,0,0,0,0,0,0,0,0,0,0,0,0,0,0,0,0,0,0,0,0,0,0,0,0,0,0,0,0,0,0,0,0,0,0,0,0,0,0,0,0,0,0,0,0,0,0,0,0,0,0,0,0,0,0,0,0,0,0,0,0,0,0,0,0,0,0,0,0,0,0,0,0,0,0,0,0,0,0,0,0,0,0,0,0,0,0,0,0,0,0,0,0,0,0,0,0,0,0,0,0,0,0,0,0,0,0,0,0,0,0,0,0,0,0,0,0,0,0,0,0,0,0,0,0,0,0,0,0,0,0,0,0,0,0,0,0,0,0,0,0,0,0,0,0,0,0,0,0,0,0,0,0,0,0,0,0,0,0,0,0,0,0,0,0,0,0,0,0,0,0,0,0,0,0,0,0,0,0,0,0,0,0,0,0,0,0,0,0,0,0,0,0,0,0,0,0,0,0,0,0,0,0,0,0,0,0,0,0,0,0,0,0,0,0,0,0,0,0,0,0,0,0,0,0,0,0,0,0,0,0,0,0,0,0,0,0,0,0,0,0,0,0,0,0,0,0,0,0,0,0,0,0,0,0,0,0,0,0,0,0,0,0,0,0,0,0,0,0,0,0,0,0,0,0,0,0,0,0,0,0,0,0,0,0,0,0,0,0,0,0,0,0,0,0,0,0,0,0,0,0,0,0,0,0,0,0,0,0,0,0,0,0,0,0,0,0,0,0,0,0,0,0,0,0,0,0,0,0,0,0,0,0,0,0,0,0,0,0,0,0,0,0,0,0,0],"trees":[{"base_weights":[-0.002844941,-0.2888065,0.21415888,-0.004923008,-0.00045322566,0.0011805237,0.0046149055],"categories":[],"categories_nodes":[],"categories_segments":[],"categories_sizes":[],"default_left":[0,0,0,0,0,0,0],"id":0,"left_children":[1,3,5,-1,-1,-1,-1],"loss_changes":[422.7827,144.95442,90.889496,0.0,0.0,0.0,0.0],"parents":[2147483647,0,0,1,1,2,2],"right_children":[2,4,6,-1,-1,-1,-1],"split_conditions":[0.00023502829,0.013349821,0.0155910095,-0.004923008,-0.00045322566,0.0011805237,0.0046149055],"split_indices":[1,2,2,0,0,0,0],"split_type":[0,0,0,0,0,0,0],"sum_hessian":[6791.89,2930.9133,3860.9766,1588.7623,1342.1511,2794.0854,1066.891],"tree_param":{"num_deleted":"0","num_feature":"4","num_nodes":"7","size_leaf_vector":"1"}},{"base_weights":[0.0051032123,-0.3065364,0.23790342,-0.00839578,-0.0020004122,0.0039173104,0.0011665261],"categories":[],"categories_nodes":[],"categories_segments":[],"categories_sizes":[],"default_left":[0,0,0,0,0,0,0],"id":1,"left_children":[1,3,5,-1,-1,-1,-1],"loss_changes":[493.71643,162.38696,71.731384,0.0,0.0,0.0,0.0],"parents":[2147483647,0,0,1,1,2,2],"right_children":[2,4,6,-1,-1,-1,-1],"split_conditions":[0.00016895785,0.0031586618,0.07577498,-0.00839578,-0.0020004122,0.0039173104,0.0011665261],"split_indices":[1,2,3,0,0,0,0],"split_type":[0,0,0,0,0,0,0],"sum_hessian":[6786.105,2898.5193,3887.586,469.63284,2428.8865,1700.1263,2187.4595],"tree_param":{"num_deleted":"0","num_feature":"4","num_nodes":"7","size_leaf_vector":"1"}},{"base_weights":[-3.361663e-05,-0.2880237,0.22456974,-0.008334301,-0.0017536336,0.0012648611,0.004649543],"categories":[],"categories_nodes":[],"categories_segments":[],"categories_sizes":[],"default_left":[0,0,0,0,0,0,0],"id":2,"left_children":[1,3,5,-1,-1,-1,-1],"loss_changes":[437.6775,179.80077,88.394516,0.0,0.0,0.0,0.0],"parents":[2147483647,0,0,1,1,2,2],"right_children":[2,4,6,-1,-1,-1,-1],"split_conditions":[0.00023502829,0.0031586618,0.015298739,-0.008334301,-0.0017536336,0.0012648611,0.004649543],"split_indices":[1,2,2,0,0,0,0],"split_type":[0,0,0,0,0,0,0],"sum_hessian":[6745.463,2956.377,3789.086,493.65613,2462.7207,2704.8523,1084.2336],"tree_param":{"num_deleted":"0","num_feature":"4","num_nodes":"7","size_leaf_vector":"1"}},{"base_weights":[0.008978703,-0.2734004,0.2256605,-0.007219837,-0.0012785757,0.0037525631,0.0011458986],"categories":[],"categories_nodes":[],"categories_segments":[],"categories_sizes":[],"default_left":[0,0,0,0,0,0,0],"id":3,"left_children":[1,3,5,-1,-1,-1,-1],"loss_changes":[414.84183,190.31754,62.858948,0.0,0.0,0.0,0.0],"parents":[2147483647,0,0,1,1,2,2],"right_children":[2,4,6,-1,-1,-1,-1],"split_conditions":[0.00023502829,0.005903024,0.050208446,-0.007219837,-0.0012785757,0.0037525631,0.0011458986],"split_indices":[1,2,3,0,0,0,0],"split_type":[0,0,0,0,0,0,0],"sum_hessian":[6760.6636,2932.1985,3828.4653,706.9139,2225.2847,1617.3473,2211.118],"tree_param":{"num_deleted":"0","num_feature":"4","num_nodes":"7","size_leaf_vector":"1"}},{"base_weights":[0.012820847,-0.24623667,0.22003698,-0.0064177862,-0.0011293188,0.0012667255,0.0045780535],"categories":[],"categories_nodes":[],"categories_segments":[],"categories_sizes":[],"default_left":[0,0,0,0,0,0,0],"id":4,"left_children":[1,3,5,-1,-1,-1,-1],"loss_changes":[366.13773,158.25659,83.00516,0.0,0.0,0.0,0.0],"parents":[2147483647,0,0,1,1,2,2],"right_children":[2,4,6,-1,-1,-1,-1],"split_conditions":[0.0004514424,0.005903024,0.0155910095,-0.0064177862,-0.0011293188,0.0012667255,0.0045780535],"split_indices":[1,2,2,0,0,0,0],"split_type":[0,0,0,0,0,0,0],"sum_hessian":[6801.029,3019.4558,3781.573,749.5993,2269.8564,2729.3667,1052.2062],"tree_param":{"num_deleted":"0","num_feature":"4","num_nodes":"7","size_leaf_vector":"1"}},{"base_weights":[-0.012353086,-0.3061699,0.20866905,-0.00619131,-0.0014195926,0.0011612147,0.0044704694],"categories":[],"categories_nodes":[],"categories_segments":[],"categories_sizes":[],"default_left":[0,0,0,0,0,0,0],"id":5,"left_children":[1,3,5,-1,-1,-1,-1],"loss_changes":[442.98593,148.91687,84.74759,0.0,0.0,0.0,0.0],"parents":[2147483647,0,0,1,1,2,2],"right_children":[2,4,6,-1,-1,-1,-1],"split_conditions":[0.00023502829,0.0091540655,0.0155910095,-0.00619131,-0.0014195926,0.0011612147,0.0044704694],"split_indices":[1,2,2,0,0,0,0],"split_type":[0,0,0,0,0,0,0],"sum_hessian":[6800.123,2919.605,3880.5183,993.1036,1926.5013,2809.0154,1071.503],"tree_param":{"num_deleted":"0","num_feature":"4","num_nodes":"7","size_leaf_vector":"1"}},{"base_weights":[0.001485902,-0.25565156,0.24715567,-0.0039936868,0.00015728059,0.004241232,0.0011851974],"categories":[],"categories_nodes":[],"categories_segments":[],"categories_sizes":[],"default_left":[0,0,0,0,0,0,0],"id":6,"left_children":[1,3,5,-1,-1,-1,-1],"loss_changes":[432.19507,130.74883,78.65018,0.0,0.0,0.0,0.0],"parents":[2147483647,0,0,1,1,2,2],"right_children":[2,4,6,-1,-1,-1,-1],"split_conditions":[0.0016401391,0.0152149815,0.040635563,-0.0039936868,0.00015728059,0.004241232,0.0011851974],"split_indices":[1,2,3,0,0,0,0],"split_type":[0,0,0,0,0,0,0],"sum_hessian":[6821.8115,3330.9246,3490.887,2176.9993,1153.9254,1456.458,2034.4291],"tree_param":{"num_deleted":"0","num_feature":"4","num_nodes":"7","size_leaf_vector":"1"}},{"base_weights":[-0.0028597328,-0.24189836,0.22349907,-0.004168288,-0.0006202986,0.0039344304,0.001041254],"categories":[],"categories_nodes":[],"categories_segments":[],"categories_sizes":[],"default_left":[0,0,0,0,0,0,0],"id":7,"left_children":[1,3,5,-1,-1,-1,-1],"loss_changes":[370.40887,104.086624,70.377304,0.0,0.0,0.0,0.0],"parents":[2147483647,0,0,1,1,2,2],"right_children":[2,4,6,-1,-1,-1,-1],"split_conditions":[0.0016401391,0.011901948,0.024444023,-0.004168288,-0.0006202986,0.0039344304,0.001041254],"split_indices":[1,2,3,0,0,0,0],"split_type":[0,0,0,0,0,0,0],"sum_hessian":[6825.3374,3321.505,3503.8328,1674.3696,1647.1353,1432.7666,2071.0662],"tree_param":{"num_deleted":"0","num_feature":"4","num_nodes":"7","size_leaf_vector":"1"}},{"base_weights":[0.008063104,-0.2712748,0.2204586,-0.00701595,-0.0014083126,0.003591768,0.00091302267],"categories":[],"categories_nodes":[],"categories_segments":[],"categories_sizes":[],"default_left":[0,0,0,0,0,0,0],"id":8,"left_children":[1,3,5,-1,-1,-1,-1],"loss_changes":[402.6037,162.60858,68.32703,0.0,0.0,0.0,0.0],"parents":[2147483647,0,0,1,1,2,2],"right_children":[2,4,6,-1,-1,-1,-1],"split_conditions":[0.00016895785,0.0057784705,0.15241773,-0.00701595,-0.0014083126,0.003591768,0.00091302267],"split_indices":[1,2,3,0,0,0,0],"split_type":[0,0,0,0,0,0,0],"sum_hessian":[6766.6,2919.4814,3847.1187,667.1544,2252.3271,1842.5773,2004.5414],"tree_param":{"num_deleted":"0","num_feature":"4","num_nodes":"7","size_leaf_vector":"1"}},{"base_weights":[0.002563079,-0.26955467,0.20412222,-0.0068837684,-0.0013946864,0.0011717487,0.004329544],"categories":[],"categories_nodes":[],"categories_segments":[],"categories_sizes":[],"default_left":[0,0,0,0,0,0,0],"id":9,"left_children":[1,3,5,-1,-1,-1,-1],"loss_changes":[372.4405,155.55356,76.61177,0.0,0.0,0.0,0.0],"parents":[2147483647,0,0,1,1,2,2],"right_children":[2,4,6,-1,-1,-1,-1],"split_conditions":[0.00016895785,0.005903024,0.015689464,-0.0068837684,-0.0013946864,0.0011717487,0.004329544],"split_indices":[1,2,2,0,0,0,0],"split_type":[0,0,0,0,0,0,0],"sum_hessian":[6771.595,2877.9045,3893.6907,670.0434,2207.861,2835.7185,1057.972],"tree_param":{"num_deleted":"0","num_feature":"4","num_nodes":"7","size_leaf_vector":"1"}},{"base_weights":[-0.009092819,-0.23885114,0.20181838,-0.0040680524,-0.00010112623,0.003610791,0.00083086465],"categories":[],"categories_nodes":[],"categories_segments":[],"categories_sizes":[],"default_left":[0,0,0,0,0,0,0],"id":10,"left_children":[1,3,5,-1,-1,-1,-1],"loss_changes":[328.56937,124.28116,66.05812,0.0,0.0,0.0,0.0],"parents":[2147483647,0,0,1,1,2,2],"right_children":[2,4,6,-1,-1,-1,-1],"split_conditions":[0.0015034789,0.013494094,0.050208446,-0.0040680524,-0.00010112623,0.003610791,0.00083086465],"split_indices":[1,2,3,0,0,0,0],"split_type":[0,0,0,0,0,0,0],"sum_hessian":[6759.701,3236.932,3522.7693,1859.4507,1377.4813,1492.2756,2030.4938],"tree_param":{"num_deleted":"0","num_feature":"4","num_nodes":"7","size_leaf_vector":"1"}},{"base_weights":[0.0016546282,-0.23277465,0.235489,-0.004299354,-0.0002879868,0.0037737049,0.0010390601],"categories":[],"categories_nodes":[],"categories_segments":[],"categories_sizes":[],"default_left":[0,0,0,0,0,0,0],"id":11,"left_children":[1,3,5,-1,-1,-1,-1],"loss_changes":[372.959,135.96584,62.75522,0.0,0.0,0.0,0.0],"parents":[2147483647,0,0,1,1,2,2],"right_children":[2,4,6,-1,-1,-1,-1],"split_conditions":[0.0020692502,0.011799912,0.16248943,-0.004299354,-0.0002879868,0.0037737049,0.0010390601],"split_indices":[1,2,3,0,0,0,0],"split_type":[0,0,0,0,0,0,0],"sum_hessian":[6783.584,3385.37,3398.214,1713.3175,1672.0526,1622.475,1775.7393],"tree_param":{"num_deleted":"0","num_feature":"4","num_nodes":"7","size_leaf_vector":"1"}},{"base_weights":[0.01221187,-0.25953388,0.2108018,-0.0064018467,-0.00134688,0.0035077839,0.0010853582],"categories":[],"categories_nodes":[],"categories_segments":[],"categories_sizes":[],"default_left":[0,0,0,0,0,0,0],"id":12,"left_children":[1,3,5,-1,-1,-1,-1],"loss_changes":[367.84702,135.06166,55.5683,0.0,0.0,0.0,0.0],"parents":[2147483647,0,0,1,1,2,2],"right_children":[2,4,6,-1,-1,-1,-1],"split_conditions":[0.00016895785,0.005903024,0.0331686,-0.0064018467,-0.00134688,0.0035077839,0.0010853582],"split_indices":[1,2,3,0,0,0,0],"split_type":[0,0,0,0,0,0,0],"sum_hessian":[6797.043,2866.4949,3930.548,695.7843,2170.7104,1644.947,2285.601],"tree_param":{"num_deleted":"0","num_feature":"4","num_nodes":"7","size_leaf_vector":"1"}},{"base_weights":[-0.008473538,-0.26443693,0.17826185,-0.0070108525,-0.0013645614,0.0032620477,0.0005554879],"categories":[],"categories_nodes":[],"categories_segments":[],"categories_sizes":[],"default_left":[0,0,0,0,0,0,0],"id":13,"left_children":[1,3,5,-1,-1,-1,-1],"loss_changes":[327.27234,159.68063,71.25397,0.0,0.0,0.0,0.0],"parents":[2147483647,0,0,1,1,2,2],"right_children":[2,4,6,-1,-1,-1,-1],"split_conditions":[0.00016895785,0.0057784705,0.100382,-0.0070108525,-0.0013645614,0.0032620477,0.0005554879],"split_indices":[1,2,3,0,0,0,0],"split_type":[0,0,0,0,0,0,0],"sum_hessian":[6825.4053,2879.5374,3945.8682,640.7647,2238.7727,1777.8087,2168.0593],"tree_param":{"num_deleted":"0","num_feature":"4","num_nodes":"7","size_leaf_vector":"1"}},{"base_weights":[-0.0073717325,-0.2128126,0.22522496,-0.0055367383,-0.0012439069,0.0036741744,0.001000547],"categories":[],"categories_nodes":[],"categories_segments":[],"categories_sizes":[],"default_left":[0,0,0,0,0,0,0],"id":14,"left_children":[1,3,5,-1,-1,-1,-1],"loss_changes":[325.59338,107.74794,56.00644,0.0,0.0,0.0,0.0],"parents":[2147483647,0,0,1,1,2,2],"right_children":[2,4,6,-1,-1,-1,-1],"split_conditions":[0.0035351745,0.0031586618,0.15241773,-0.0055367383,-0.0012439069,0.0036741744,0.001000547],"split_indices":[1,2,3,0,0,0,0],"split_type":[0,0,0,0,0,0,0],"sum_hessian":[6793.964,3610.31,3183.654,730.4688,2879.8413,1477.6791,1705.975],"tree_param":{"num_deleted":"0","num_feature":"4","num_nodes":"7","size_leaf_vector":"1"}},{"base_weights":[-0.00872217,-0.2714872,0.18567178,-0.006274619,-0.0016511978,0.003551454,0.0005472517],"categories":[],"categories_nodes":[],"categories_segments":[],"categories_sizes":[],"default_left":[0,0,0,0,0,0,0],"id":15,"left_children":[1,3,5,-1,-1,-1,-1],"loss_changes":[348.99155,108.225845,86.480515,0.0,0.0,0.0,0.0],"parents":[2147483647,0,0,1,1,2,2],"right_children":[2,4,6,-1,-1,-1,-1],"split_conditions":[0.00016895785,0.0057784705,0.050208446,-0.006274619,-0.0016511978,0.003551454,0.0005472517],"split_indices":[1,2,3,0,0,0,0],"split_type":[0,0,0,0,0,0,0],"sum_hessian":[6810.715,2896.5652,3914.1497,652.9564,2243.6086,1695.3004,2218.849],"tree_param":{"num_deleted":"0","num_feature":"4","num_nodes":"7","size_leaf_vector":"1"}},{"base_weights":[-0.0005067147,-0.25610453,0.19787388,-0.004451962,-0.00029937841,0.0035733175,0.00082606013],"categories":[],"categories_nodes":[],"categories_segments":[],"categories_sizes":[],"default_left":[0,0,0,0,0,0,0],"id":16,"left_children":[1,3,5,-1,-1,-1,-1],"loss_changes":[343.93683,126.22548,69.40654,0.0,0.0,0.0,0.0],"parents":[2147483647,0,0,1,1,2,2],"right_children":[2,4,6,-1,-1,-1,-1],"split_conditions":[0.00037923205,0.013349821,0.024444023,-0.004451962,-0.00029937841,0.0035733175,0.00082606013],"split_indices":[1,2,3,0,0,0,0],"split_type":[0,0,0,0,0,0,0],"sum_hessian":[6761.865,2955.7476,3806.1177,1602.1382,1353.6094,1584.498,2221.6196],"tree_param":{"num_deleted":"0","num_feature":"4","num_nodes":"7","size_leaf_vector":"1"}},{"base_weights":[-0.006524296,-0.2604453,0.18418379,-0.0054097055,-0.0010382723,0.001041957,0.003932963],"categories":[],"categories_nodes":[],"categories_segments":[],"categories_sizes":[],"default_left":[0,0,0,0,0,0,0],"id":17,"left_children":[1,3,5,-1,-1,-1,-1],"loss_changes":[331.4483,127.84119,64.424774,0.0,0.0,0.0,0.0],"parents":[2147483647,0,0,1,1,2,2],"right_children":[2,4,6,-1,-1,-1,-1],"split_conditions":[0.00023502829,0.0095606595,0.015689464,-0.0054097055,-0.0010382723,0.001041957,0.003932963],"split_indices":[1,2,2,0,0,0,0],"split_type":[0,0,0,0,0,0,0],"sum_hessian":[6823.1187,2927.2188,3895.9001,1037.6729,1889.5459,2832.2822,1063.6178],"tree_param":{"num_deleted":"0","num_feature":"4","num_nodes":"7","size_leaf_vector":"1"}},{"base_weights":[-0.0062389015,-0.2407745,0.17920227,-0.0061755637,-0.0011559881,0.0033443815,0.0006481649],"categories":[],"categories_nodes":[],"categories_segments":[],"categories_sizes":[],"default_left":[0,0,0,0,0,0,0],"id":18,"left_children":[1,3,5,-1,-1,-1,-1],"loss_changes":[298.68573,141.64833,67.4311,0.0,0.0,0.0,0.0],"parents":[2147483647,0,0,1,1,2,2],"right_children":[2,4,6,-1,-1,-1,-1],"split_conditions":[0.0004514424,0.0057784705,0.050208446,-0.0061755637,-0.0011559881,0.0033443815,0.0006481649],"split_indices":[1,2,3,0,0,0,0],"split_type":[0,0,0,0,0,0,0],"sum_hessian":[6846.1772,3024.0,3822.177,742.3087,2281.6914,1609.6711,2212.5059],"tree_param":{"num_deleted":"0","num_feature":"4","num_nodes":"7","size_leaf_vector":"1"}},{"base_weights":[0.008637786,-0.22534473,0.19070573,-0.0058976966,-0.0010387712,0.0010709353,0.004136467],"categories":[],"categories_nodes":[],"categories_segments":[],"categories_sizes":[],"default_left":[0,0,0,0,0,0,0],"id":19,"left_children":[1,3,5,-1,-1,-1,-1],"loss_changes":[291.67776,131.24081,70.861496,0.0,0.0,0.0,0.0],"parents":[2147483647,0,0,1,1,2,2],"right_children":[2,4,6,-1,-1,-1,-1],"split_conditions":[0.00037923205,0.005903024,0.015689464,-0.0058976966,-0.0010387712,0.0010709353,0.004136467],"split_indices":[1,2,2,0,0,0,0],"split_type":[0,0,0,0,0,0,0],"sum_hessian":[6827.507,2984.3433,3843.1638,734.3558,2249.9873,2808.9712,1034.1926],"tree_param":{"num_deleted":"0","num_feature":"4","num_nodes":"7","size_leaf_vector":"1"}},{"base_weights":[0.003851721,-0.22541049,0.21336225,-0.0057499725,-0.0013698195,0.001375007,0.0039730994],"categories":[],"categories_nodes":[],"categories_segments":[],"categories_sizes":[],"default_left":[0,0,0,0,0,0,0],"id":20,"left_children":[1,3,5,-1,-1,-1,-1],"loss_changes":[329.2322,99.6122,48.928513,0.0,0.0,0.0,0.0],"parents":[2147483647,0,0,1,1,2,2],"right_children":[2,4,6,-1,-1,-1,-1],"split_conditions":[0.0015034789,0.0031586618,0.015689464,-0.0057499725,-0.0013698195,0.001375007,0.0039730994],"split_indices":[1,2,2,0,0,0,0],"split_type":[0,0,0,0,0,0,0],"sum_hessian":[6834.552,3260.8032,3573.7485,644.9144,2615.8887,2546.4731,1027.2753],"tree_param":{"num_deleted":"0","num_feature":"4","num_nodes":"7","size_leaf_vector":"1"}},{"base_weights":[-0.00048121312,-0.18931681,0.21191677,-0.0053844377,-0.00097062864,0.0013782397,0.0037840463],"categories":[],"categories_nodes":[],"categories_segments":[],"categories_sizes":[],"default_left":[0,0,0,0,0,0,0],"id":21,"left_children":[1,3,5,-1,-1,-1,-1],"loss_changes":[270.9043,114.09172,38.1476,0.0,0.0,0.0,0.0],"parents":[2147483647,0,0,1,1,2,2],"right_children":[2,4,6,-1,-1,-1,-1],"split_conditions":[0.0035351745,0.0031586618,0.0155910095,-0.0053844377,-0.00097062864,0.0013782397,0.0037840463],"split_indices":[1,2,2,0,0,0,0],"split_type":[0,0,0,0,0,0,0],"sum_hessian":[6734.8804,3568.2603,3166.62,733.4349,2834.8252,2208.1865,958.4337],"tree_param":{"num_deleted":"0","num_feature":"4","num_nodes":"7","size_leaf_vector":"1"}},{"base_weights":[0.0019372287,-0.19940011,0.21432081,-0.003113119,0.00014307759,0.0035529982,0.0011306147],"categories":[],"categories_nodes":[],"categories_segments":[],"categories_sizes":[],"default_left":[0,0,0,0,0,0,0],"id":22,"left_children":[1,3,5,-1,-1,-1,-1],"loss_changes":[290.87756,83.79764,46.41896,0.0,0.0,0.0,0.0],"parents":[2147483647,0,0,1,1,2,2],"right_children":[2,4,6,-1,-1,-1,-1],"split_conditions":[0.0028256024,0.015126465,0.024444023,-0.003113119,0.00014307759,0.0035529982,0.0011306147],"split_indices":[1,2,3,0,0,0,0],"split_type":[0,0,0,0,0,0,0],"sum_hessian":[6782.1006,3479.4873,3302.6135,2283.7004,1195.787,1365.9275,1936.686],"tree_param":{"num_deleted":"0","num_feature":"4","num_nodes":"7","size_leaf_vector":"1"}},{"base_weights":[-0.0029975194,-0.257785,0.18303104,-0.006629342,-0.0013902026,0.0010403158,0.0039373133],"categories":[],"categories_nodes":[],"categories_segments":[],"categories_sizes":[],"default_left":[0,0,0,0,0,0,0],"id":23,"left_children":[1,3,5,-1,-1,-1,-1],"loss_changes":[326.01825,138.02307,65.21631,0.0,0.0,0.0,0.0],"parents":[2147483647,0,0,1,1,2,2],"right_children":[2,4,6,-1,-1,-1,-1],"split_conditions":[0.00016895785,0.0057784705,0.0155910095,-0.006629342,-0.0013902026,0.0010403158,0.0039373133],"split_indices":[1,2,2,0,0,0,0],"split_type":[0,0,0,0,0,0,0],"sum_hessian":[6856.818,2894.283,3962.5347,643.8023,2250.4807,2896.29,1066.2445],"tree_param":{"num_deleted":"0","num_feature":"4","num_nodes":"7","size_leaf_vector":"1"}},{"base_weights":[-0.006968541,-0.2524336,0.1777047,-0.0070605106,-0.0016267193,0.0032343226,0.00056883466],"categories":[],"categories_nodes":[],"categories_segments":[],"categories_sizes":[],"default_left":[0,0,0,0,0,0,0],"id":24,"left_children":[1,3,5,-1,-1,-1,-1],"loss_changes":[309.46835,117.38742,67.976585,0.0,0.0,0.0,0.0],"parents":[2147483647,0,0,1,1,2,2],"right_children":[2,4,6,-1,-1,-1,-1],"split_conditions":[0.00023502829,0.0031586618,0.100382,-0.0070605106,-0.0016267193,0.0032343226,0.00056883466],"split_indices":[1,2,3,0,0,0,0],"split_type":[0,0,0,0,0,0,0],"sum_hessian":[6805.3403,2922.5173,3882.823,469.59332,2452.924,1748.653,2134.1702],"tree_param":{"num_deleted":"0","num_feature":"4","num_nodes":"7","size_leaf_vector":"1"}},{"base_weights":[0.0054875715,-0.22847348,0.18024392,-0.0070255725,-0.0013586065,0.0033432671,0.00068265223],"categories":[],"categories_nodes":[],"categories_segments":[],"categories_sizes":[],"default_left":[0,0,0,0,0,0,0],"id":25,"left_children":[1,3,5,-1,-1,-1,-1],"loss_changes":[276.3949,125.0345,66.18724,0.0,0.0,0.0,0.0],"parents":[2147483647,0,0,1,1,2,2],"right_children":[2,4,6,-1,-1,-1,-1],"split_conditions":[0.00023502829,0.0031586618,0.024444023,-0.0070255725,-0.0013586065,0.0033432671,0.00068265223],"split_indices":[1,2,3,0,0,0,0],"split_type":[0,0,0,0,0,0,0],"sum_hessian":[6741.2124,2878.5964,3862.616,457.90915,2420.6875,1613.5641,2249.052],"tree_param":{"num_deleted":"0","num_feature":"4","num_nodes":"7","size_leaf_vector":"1"}},{"base_weights":[0.014611934,-0.22938797,0.18910979,-0.004380541,6.4603366e-05,0.0011410849,0.003874369],"categories":[],"categories_nodes":[],"categories_segments":[],"categories_sizes":[],"default_left":[0,0,0,0,0,0,0],"id":26,"left_children":[1,3,5,-1,-1,-1,-1],"loss_changes":[291.08762,140.66469,58.38463,0.0,0.0,0.0,0.0],"parents":[2147483647,0,0,1,1,2,2],"right_children":[2,4,6,-1,-1,-1,-1],"split_conditions":[9.5561416e-05,0.013412934,0.015689464,-0.004380541,6.4603366e-05,0.0011410849,0.003874369],"split_indices":[1,2,2,0,0,0,0],"split_type":[0,0,0,0,0,0,0],"sum_hessian":[6817.4175,2838.906,3978.5115,1503.9536,1334.9524,2901.8977,1076.6138],"tree_param":{"num_deleted":"0","num_feature":"4","num_nodes":"7","size_leaf_vector":"1"}},{"base_weights":[-0.006055712,-0.2000244,0.18307064,-0.0053967824,-0.0011218567,0.00325935,0.0007446101],"categories":[],"categories_nodes":[],"categories_segments":[],"categories_sizes":[],"default_left":[0,0,0,0,0,0,0],"id":27,"left_children":[1,3,5,-1,-1,-1,-1],"loss_changes":[250.39879,99.34418,52.940193,0.0,0.0,0.0,0.0],"parents":[2147483647,0,0,1,1,2,2],"right_children":[2,4,6,-1,-1,-1,-1],"split_conditions":[0.0022165286,0.0032895226,0.06668175,-0.0053967824,-0.0011218567,0.00325935,0.0007446101],"split_indices":[1,2,3,0,0,0,0],"split_type":[0,0,0,0,0,0,0],"sum_hessian":[6805.2773,3361.955,3443.3223,677.8865,2684.0686,1474.5249,1968.7972],"tree_param":{"num_deleted":"0","num_feature":"4","num_nodes":"7","size_leaf_vector":"1"}},{"base_weights":[0.0066733235,-0.22379954,0.18447189,-0.0067014205,-0.0012764621,0.0031369722,0.00085002393],"categories":[],"categories_nodes":[],"categories_segments":[],"categories_sizes":[],"default_left":[0,0,0,0,0,0,0],"id":28,"left_children":[1,3,5,-1,-1,-1,-1],"loss_changes":[278.94794,125.49446,48.765503,0.0,0.0,0.0,0.0],"parents":[2147483647,0,0,1,1,2,2],"right_children":[2,4,6,-1,-1,-1,-1],"split_conditions":[0.0004514424,0.0029866318,0.050208446,-0.0067014205,-0.0012764621,0.0031369722,0.00085002393],"split_indices":[1,2,3,0,0,0,0],"split_type":[0,0,0,0,0,0,0],"sum_hessian":[6788.187,2952.619,3835.568,510.9058,2441.7131,1654.5184,2181.0498],"tree_param":{"num_deleted":"0","num_feature":"4","num_nodes":"7","size_leaf_vector":"1"}},{"base_weights":[0.016395483,-0.23590453,0.20578267,-0.005960406,-0.0011956851,0.0013013468,0.0039692773],"categories":[],"categories_nodes":[],"categories_segments":[],"categories_sizes":[],"default_left":[0,0,0,0,0,0,0],"id":29,"left_children":[1,3,5,-1,-1,-1,-1],"loss_changes":[326.5754,121.28215,55.43953,0.0,0.0,0.0,0.0],"parents":[2147483647,0,0,1,1,2,2],"right_children":[2,4,6,-1,-1,-1,-1],"split_conditions":[0.00023502829,0.005903024,0.0155910095,-0.005960406,-0.0011956851,0.0013013468,0.0039692773],"split_indices":[1,2,2,0,0,0,0],"split_type":[0,0,0,0,0,0,0],"sum_hessian":[6815.11,2918.8743,3896.2358,700.5093,2218.365,2807.2659,1088.97],"tree_param":{"num_deleted":"0","num_feature":"4","num_nodes":"7","size_leaf_vector":"1"}},{"base_weights":[0.009233561,-0.22503753,0.1773219,-0.004510296,-0.00023115467,0.0010277205,0.0037702324],"categories":[],"categories_nodes":[],"categories_segments":[],"categories_sizes":[],"default_left":[0,0,0,0,0,0,0],"id":30,"left_children":[1,3,5,-1,-1,-1,-1],"loss_changes":[267.72095,128.94565,58.108643,0.0,0.0,0.0,0.0],"parents":[2147483647,0,0,1,1,2,2],"right_children":[2,4,6,-1,-1,-1,-1],"split_conditions":[9.5561416e-05,0.01220732,0.015689464,-0.004510296,-0.00023115467,0.0010277205,0.0037702324],"split_indices":[1,2,2,0,0,0,0],"split_type":[0,0,0,0,0,0,0],"sum_hessian":[6779.7812,2828.3982,3951.3833,1326.4924,1501.9056,2891.952,1059.4312],"tree_param":{"num_deleted":"0","num_feature":"4","num_nodes":"7","size_leaf_vector":"1"}},{"base_weights":[-0.0039697764,-0.23384605,0.17169116,-0.0059189587,-0.0011645682,0.003335873,0.0005397345],"categories":[],"categories_nodes":[],"categories_segments":[],"categories_sizes":[],"default_left":[0,0,0,0,0,0,0],"id":31,"left_children":[1,3,5,-1,-1,-1,-1],"loss_changes":[275.38373,122.83586,73.04464,0.0,0.0,0.0,0.0],"parents":[2147483647,0,0,1,1,2,2],"right_children":[2,4,6,-1,-1,-1,-1],"split_conditions":[0.00037923205,0.005903024,0.0331686,-0.0059189587,-0.0011645682,0.003335873,0.0005397345],"split_indices":[1,2,3,0,0,0,0],"split_type":[0,0,0,0,0,0,0],"sum_hessian":[6798.2754,2945.7458,3852.5295,715.2416,2230.5042,1610.6221,2241.9075],"tree_param":{"num_deleted":"0","num_feature":"4","num_nodes":"7","size_leaf_vector":"1"}},{"base_weights":[0.0022644582,-0.22493862,0.16930157,-0.0045126216,-0.0004291527,0.00089312426,0.003842835],"categories":[],"categories_nodes":[],"categories_segments":[],"categories_sizes":[],"default_left":[0,0,0,0,0,0,0],"id":32,"left_children":[1,3,5,-1,-1,-1,-1],"loss_changes":[257.7787,117.79248,66.55414,0.0,0.0,0.0,0.0],"parents":[2147483647,0,0,1,1,2,2],"right_children":[2,4,6,-1,-1,-1,-1],"split_conditions":[0.00016895785,0.01160867,0.015689464,-0.0045126216,-0.0004291527,0.00089312426,0.003842835],"split_indices":[1,2,2,0,0,0,0],"split_type":[0,0,0,0,0,0,0],"sum_hessian":[6773.7783,2866.0027,3907.776,1268.4974,1597.5051,2861.7861,1045.9897],"tree_param":{"num_deleted":"0","num_feature":"4","num_nodes":"7","size_leaf_vector":"1"}},{"base_weights":[-0.0034607577,-0.19017485,0.20293227,-0.005016063,-0.001107021,0.003469909,0.00093388715],"categories":[],"categories_nodes":[],"categories_segments":[],"categories_sizes":[],"default_left":[0,0,0,0,0,0,0],"id":33,"left_children":[1,3,5,-1,-1,-1,-1],"loss_changes":[262.17496,87.30376,50.19229,0.0,0.0,0.0,0.0],"parents":[2147483647,0,0,1,1,2,2],"right_children":[2,4,6,-1,-1,-1,-1],"split_conditions":[0.0035351745,0.0031586618,0.06668175,-0.005016063,-0.001107021,0.003469909,0.00093388715],"split_indices":[1,2,3,0,0,0,0],"split_type":[0,0,0,0,0,0,0],"sum_hessian":[6783.6084,3564.5544,3219.0542,711.3342,2853.2202,1377.1653,1841.8889],"tree_param":{"num_deleted":"0","num_feature":"4","num_nodes":"7","size_leaf_vector":"1"}},{"base_weights":[-0.007828206,-0.2244298,0.14774162,-0.0054182224,-0.00073157705,0.002758758,0.00059557095],"categories":[],"categories_nodes":[],"categories_segments":[],"categories_sizes":[],"default_left":[0,0,0,0,0,0,0],"id":34,"left_children":[1,3,5,-1,-1,-1,-1],"loss_changes":[228.71408,135.28593,44.094,0.0,0.0,0.0,0.0],"parents":[2147483647,0,0,1,1,2,2],"right_children":[2,4,6,-1,-1,-1,-1],"split_conditions":[9.5561416e-05,0.008955257,0.00804141,-0.0054182224,-0.00073157705,0.002758758,0.00059557095],"split_indices":[1,2,3,0,0,0,0],"split_type":[0,0,0,0,0,0,0],"sum_hessian":[6765.3223,2828.781,3936.5413,902.58606,1926.1948,1591.4718,2345.0696],"tree_param":{"num_deleted":"0","num_feature":"4","num_nodes":"7","size_leaf_vector":"1"}},{"base_weights":[0.0034957442,-0.15717469,0.22043753,-0.004809597,-0.0008223079,0.003500013,0.0010519486],"categories":[],"categories_nodes":[],"categories_segments":[],"categories_sizes":[],"default_left":[0,0,0,0,0,0,0],"id":35,"left_children":[1,3,5,-1,-1,-1,-1],"loss_changes":[237.11055,93.78837,42.42102,0.0,0.0,0.0,0.0],"parents":[2147483647,0,0,1,1,2,2],"right_children":[2,4,6,-1,-1,-1,-1],"split_conditions":[0.006023145,0.0031586618,0.15241773,-0.004809597,-0.0008223079,0.003500013,0.0010519486],"split_indices":[1,2,3,0,0,0,0],"split_type":[0,0,0,0,0,0,0],"sum_hessian":[6780.795,3894.5652,2886.2297,719.32007,3175.245,1345.0184,1541.2112],"tree_param":{"num_deleted":"0","num_feature":"4","num_nodes":"7","size_leaf_vector":"1"}},{"base_weights":[-0.0026046343,-0.14759263,0.22281936,-0.004583442,-0.00078589853,0.0037512975,0.0012479827],"categories":[],"categories_nodes":[],"categories_segments":[],"categories_sizes":[],"default_left":[0,0,0,0,0,0,0],"id":36,"left_children":[1,3,5,-1,-1,-1,-1],"loss_changes":[221.6089,87.669464,38.62909,0.0,0.0,0.0,0.0],"parents":[2147483647,0,0,1,1,2,2],"right_children":[2,4,6,-1,-1,-1,-1],"split_conditions":[0.007609559,0.0031586618,-0.0074736364,-0.004583442,-0.00078589853,0.0037512975,0.0012479827],"split_indices":[1,2,3,0,0,0,0],"split_type":[0,0,0,0,0,0,0],"sum_hessian":[6762.635,4120.381,2642.254,735.80273,3384.5781,1019.55023,1622.7037],"tree_param":{"num_deleted":"0","num_feature":"4","num_nodes":"7","size_leaf_vector":"1"}},{"base_weights":[-0.010166465,-0.22995012,0.14903781,-0.004379282,-0.00047047975,0.0007751909,0.0033625066],"categories":[],"categories_nodes":[],"categories_segments":[],"categories_sizes":[],"default_left":[0,0,0,0,0,0,0],"id":37,"left_children":[1,3,5,-1,-1,-1,-1],"loss_changes":[238.28566,108.186676,52.155243,0.0,0.0,0.0,0.0],"parents":[2147483647,0,0,1,1,2,2],"right_children":[2,4,6,-1,-1,-1,-1],"split_conditions":[0.00016895785,0.0120203225,0.0155910095,-0.004379282,-0.00047047975,0.0007751909,0.0033625066],"split_indices":[1,2,2,0,0,0,0],"split_type":[0,0,0,0,0,0,0],"sum_hessian":[6787.904,2852.217,3935.6868,1325.5375,1526.6796,2861.8792,1073.8077],"tree_param":{"num_deleted":"0","num_feature":"4","num_nodes":"7","size_leaf_vector":"1"}},{"base_weights":[-0.002410437,-0.20688492,0.15170328,-0.0054165516,-0.0009846631,0.001692591,-0.004103584],"categories":[],"categories_nodes":[],"categories_segments":[],"categories_sizes":[],"default_left":[0,0,0,0,0,0,0],"id":38,"left_children":[1,3,5,-1,-1,-1,-1],"loss_changes":[214.14458,104.902695,38.653206,0.0,0.0,0.0,0.0],"parents":[2147483647,0,0,1,1,2,2],"right_children":[2,4,6,-1,-1,-1,-1],"split_conditions":[0.00037923205,0.005903024,0.063988775,-0.0054165516,-0.0009846631,0.001692591,-0.004103584],"split_indices":[1,2,1,0,0,0,0],"split_type":[0,0,0,0,0,0,0],"sum_hessian":[6773.871,2912.5854,3861.2856,700.4826,2212.1028,3752.8347,108.45086],"tree_param":{"num_deleted":"0","num_feature":"4","num_nodes":"7","size_leaf_vector":"1"}},{"base_weights":[-0.013229291,-0.228292,0.1480823,-0.0066083292,-0.0013973535,0.0007500668,0.0033520667],"categories":[],"categories_nodes":[],"categories_segments":[],"categories_sizes":[],"default_left":[0,0,0,0,0,0,0],"id":39,"left_children":[1,3,5,-1,-1,-1,-1],"loss_changes":[236.66174,110.323685,52.592995,0.0,0.0,0.0,0.0],"parents":[2147483647,0,0,1,1,2,2],"right_children":[2,4,6,-1,-1,-1,-1],"split_conditions":[0.00037923205,0.0029866318,0.0155910095,-0.0066083292,-0.0013973535,0.0007500668,0.0033520667],"split_indices":[1,2,2,0,0,0,0],"split_type":[0,0,0,0,0,0,0],"sum_hessian":[6799.7183,2915.1926,3884.5256,482.51407,2432.6785,2807.4973,1077.0283],"tree_param":{"num_deleted":"0","num_feature":"4","num_nodes":"7","size_leaf_vector":"1"}},{"base_weights":[-0.009819649,-0.21959564,0.14777218,-0.003691152,-0.00022742682,0.0027403384,0.00056485325],"categories":[],"categories_nodes":[],"categories_segments":[],"categories_sizes":[],"default_left":[0,0,0,0,0,0,0],"id":40,"left_children":[1,3,5,-1,-1,-1,-1],"loss_changes":[226.67392,86.14476,44.601357,0.0,0.0,0.0,0.0],"parents":[2147483647,0,0,1,1,2,2],"right_children":[2,4,6,-1,-1,-1,-1],"split_conditions":[0.00037923205,0.0139916465,0.024444023,-0.003691152,-0.00022742682,0.0027403384,0.00056485325],"split_indices":[1,2,3,0,0,0,0],"split_type":[0,0,0,0,0,0,0],"sum_hessian":[6834.6636,2932.938,3901.7253,1659.0083,1273.9297,1624.2297,2277.4956],"tree_param":{"num_deleted":"0","num_feature":"4","num_nodes":"7","size_leaf_vector":"1"}},{"base_weights":[0.0023477464,-0.20855607,0.1550181,-0.0064755827,-0.0012079317,0.0012580297,0.008233575],"categories":[],"categories_nodes":[],"categories_segments":[],"categories_sizes":[],"default_left":[0,0,0,0,0,0,0],"id":41,"left_children":[1,3,5,-1,-1,-1,-1],"loss_changes":[218.72267,108.27127,75.02564,0.0,0.0,0.0,0.0],"parents":[2147483647,0,0,1,1,2,2],"right_children":[2,4,6,-1,-1,-1,-1],"split_conditions":[0.00023502829,0.0032895226,1.7681556,-0.0064755827,-0.0012079317,0.0012580297,0.008233575],"split_indices":[1,2,3,0,0,0,0],"split_type":[0,0,0,0,0,0,0],"sum_hessian":[6774.513,2840.434,3934.079,460.71158,2379.7227,3782.1294,151.94972],"tree_param":{"num_deleted":"0","num_feature":"4","num_nodes":"7","size_leaf_vector":"1"}},{"base_weights":[0.0095447,-0.19063278,0.16256012,-0.006047859,-0.001041377,0.00079664786,0.003733586],"categories":[],"categories_nodes":[],"categories_segments":[],"categories_sizes":[],"default_left":[0,0,0,0,0,0,0],"id":42,"left_children":[1,3,5,-1,-1,-1,-1],"loss_changes":[207.61453,103.773994,66.430885,0.0,0.0,0.0,0.0],"parents":[2147483647,0,0,1,1,2,2],"right_children":[2,4,6,-1,-1,-1,-1],"split_conditions":[0.0004514424,0.0031586618,0.015689464,-0.006047859,-0.001041377,0.00079664786,0.003733586],"split_indices":[1,2,2,0,0,0,0],"split_type":[0,0,0,0,0,0,0],"sum_hessian":[6758.8896,2924.2893,3834.6003,492.86844,2431.421,2765.576,1069.0244],"tree_param":{"num_deleted":"0","num_feature":"4","num_nodes":"7","size_leaf_vector":"1"}},{"base_weights":[-0.005466845,-0.1664631,0.17107676,-0.0031078267,0.0004762438,0.0031787595,0.00057187263],"categories":[],"categories_nodes":[],"categories_segments":[],"categories_sizes":[],"default_left":[0,0,0,0,0,0,0],"id":43,"left_children":[1,3,5,-1,-1,-1,-1],"loss_changes":[194.37102,111.01139,53.93077,0.0,0.0,0.0,0.0],"parents":[2147483647,0,0,1,1,2,2],"right_children":[2,4,6,-1,-1,-1,-1],"split_conditions":[0.0033242817,0.01363869,0.06668175,-0.0031078267,0.0004762438,0.0031787595,0.00057187263],"split_indices":[1,2,3,0,0,0,0],"split_type":[0,0,0,0,0,0,0],"sum_hessian":[6818.6875,3569.6418,3249.0457,2132.3486,1437.2933,1407.7799,1841.2656],"tree_param":{"num_deleted":"0","num_feature":"4","num_nodes":"7","size_leaf_vector":"1"}},{"base_weights":[-0.0090865325,-0.19254701,0.14703059,-0.0032477519,0.00024200419,0.0012577417,0.009233175],"categories":[],"categories_nodes":[],"categories_segments":[],"categories_sizes":[],"default_left":[0,0,0,0,0,0,0],"id":44,"left_children":[1,3,5,-1,-1,-1,-1],"loss_changes":[196.0696,90.636536,58.760834,0.0,0.0,0.0,0.0],"parents":[2147483647,0,0,1,1,2,2],"right_children":[2,4,6,-1,-1,-1,-1],"split_conditions":[0.0011444282,0.014777146,1.9960272,-0.0032477519,0.00024200419,0.0012577417,0.009233175],"split_indices":[1,2,3,0,0,0,0],"split_type":[0,0,0,0,0,0,0],"sum_hessian":[6824.2163,3139.2314,3684.9846,1949.5347,1189.6968,3599.3354,85.6492],"tree_param":{"num_deleted":"0","num_feature":"4","num_nodes":"7","size_leaf_vector":"1"}},{"base_weights":[0.0075122644,-0.1585307,0.18230121,-0.0028056842,0.00074645266,0.0015762784,0.006932045],"categories":[],"categories_nodes":[],"categories_segments":[],"categories_sizes":[],"default_left":[0,0,0,0,0,0,0],"id":45,"left_children":[1,3,5,-1,-1,-1,-1],"loss_changes":[196.38246,99.07289,39.640198,0.0,0.0,0.0,0.0],"parents":[2147483647,0,0,1,1,2,2],"right_children":[2,4,6,-1,-1,-1,-1],"split_conditions":[0.003020175,0.015126465,1.7681556,-0.0028056842,0.00074645266,0.0015762784,0.006932045],"split_indices":[1,2,3,0,0,0,0],"split_type":[0,0,0,0,0,0,0],"sum_hessian":[6745.7886,3456.988,3288.8005,2270.7812,1186.2069,3151.639,137.16147],"tree_param":{"num_deleted":"0","num_feature":"4","num_nodes":"7","size_leaf_vector":"1"}},{"base_weights":[-0.00028451066,-0.21469173,0.15466903,-0.005731855,-0.0010658038,0.0027724241,0.00056220265],"categories":[],"categories_nodes":[],"categories_segments":[],"categories_sizes":[],"default_left":[0,0,0,0,0,0,0],"id":46,"left_children":[1,3,5,-1,-1,-1,-1],"loss_changes":[226.06949,109.422775,47.130104,0.0,0.0,0.0,0.0],"parents":[2147483647,0,0,1,1,2,2],"right_children":[2,4,6,-1,-1,-1,-1],"split_conditions":[0.00023502829,0.005903024,0.06668175,-0.005731855,-0.0010658038,0.0027724241,0.00056220265],"split_indices":[1,2,3,0,0,0,0],"split_type":[0,0,0,0,0,0,0],"sum_hessian":[6782.7744,2846.587,3936.1873,647.4373,2199.1497,1740.6617,2195.5254],"tree_param":{"num_deleted":"0","num_feature":"4","num_nodes":"7","size_leaf_vector":"1"}},{"base_weights":[0.00075557973,-0.21226345,0.13999303,-0.0052872375,-0.0007990838,0.0006791454,0.0033401432],"categories":[],"categories_nodes":[],"categories_segments":[],"categories_sizes":[],"default_left":[0,0,0,0,0,0,0],"id":47,"left_children":[1,3,5,-1,-1,-1,-1],"loss_changes":[200.9965,111.08523,56.74082,0.0,0.0,0.0,0.0],"parents":[2147483647,0,0,1,1,2,2],"right_children":[2,4,6,-1,-1,-1,-1],"split_conditions":[-0.00019165399,0.008811603,0.0155910095,-0.0052872375,-0.0007990838,0.0006791454,0.0033401432],"split_indices":[1,2,2,0,0,0,0],"split_type":[0,0,0,0,0,0,0],"sum_hessian":[6759.0522,2666.7583,4092.2937,775.364,1891.3944,2997.415,1094.8787],"tree_param":{"num_deleted":"0","num_feature":"4","num_nodes":"7","size_leaf_vector":"1"}},{"base_weights":[-0.0054313196,-0.2036347,0.13363115,-0.006675719,-0.0011736393,0.0026636873,0.00030422065],"categories":[],"categories_nodes":[],"categories_segments":[],"categories_sizes":[],"default_left":[0,0,0,0,0,0,0],"id":48,"left_children":[1,3,5,-1,-1,-1,-1],"loss_changes":[186.22235,110.00305,53.959633,0.0,0.0,0.0,0.0],"parents":[2147483647,0,0,1,1,2,2],"right_children":[2,4,6,-1,-1,-1,-1],"split_conditions":[9.5561416e-05,0.0032895226,0.06668175,-0.006675719,-0.0011736393,0.0026636873,0.00030422065],"split_indices":[1,2,3,0,0,0,0],"split_type":[0,0,0,0,0,0,0],"sum_hessian":[6733.917,2777.5994,3956.3174,423.1356,2354.4639,1719.4406,2236.877],"tree_param":{"num_deleted":"0","num_feature":"4","num_nodes":"7","size_leaf_vector":"1"}},{"base_weights":[-0.018754128,-0.15755188,0.15812561,-0.0026465298,0.00059931574,0.0013633814,0.005841805],"categories":[],"categories_nodes":[],"categories_segments":[],"categories_sizes":[],"default_left":[0,0,0,0,0,0,0],"id":49,"left_children":[1,3,5,-1,-1,-1,-1],"loss_changes":[166.33087,88.845,26.11042,0.0,0.0,0.0,0.0],"parents":[2147483647,0,0,1,1,2,2],"right_children":[2,4,6,-1,-1,-1,-1],"split_conditions":[0.005449469,0.0152149815,1.7681556,-0.0026465298,0.00059931574,0.0013633814,0.005841805],"split_indices":[1,2,3,0,0,0,0],"split_type":[0,0,0,0,0,0,0],"sum_hessian":[6754.922,3788.6833,2966.2385,2540.1833,1248.5001,2836.7224,129.51631],"tree_param":{"num_deleted":"0","num_feature":"4","num_nodes":"7","size_leaf_vector":"1"}},{"base_weights":[0.006873547,-0.1682698,0.13875858,-0.0045484896,-0.0002674883,0.00072977756,0.003095071],"categories":[],"categories_nodes":[],"categories_segments":[],"categories_sizes":[],"default_left":[0,0,0,0,0,0,0],"id":50,"left_children":[1,3,5,-1,-1,-1,-1],"loss_changes":[155.48651,116.56382,42.56275,0.0,0.0,0.0,0.0],"parents":[2147483647,0,0,1,1,2,2],"right_children":[2,4,6,-1,-1,-1,-1],"split_conditions":[0.00037923205,0.0087381415,0.015689464,-0.0045484896,-0.0002674883,0.00072977756,0.003095071],"split_indices":[1,2,2,0,0,0,0],"split_type":[0,0,0,0,0,0,0],"sum_hessian":[6712.5405,2878.9514,3833.589,942.06635,1936.8851,2781.9673,1051.6218],"tree_param":{"num_deleted":"0","num_feature":"4","num_nodes":"7","size_leaf_vector":"1"}},{"base_weights":[0.0056927833,-0.21651421,0.14571854,-0.007958719,-0.0014395316,0.0025915175,0.00046847004],"categories":[],"categories_nodes":[],"categories_segments":[],"categories_sizes":[],"default_left":[0,0,0,0,0,0,0],"id":51,"left_children":[1,3,5,-1,-1,-1,-1],"loss_changes":[211.00352,108.04307,46.272285,0.0,0.0,0.0,0.0],"parents":[2147483647,0,0,1,1,2,2],"right_children":[2,4,6,-1,-1,-1,-1],"split_conditions":[-0.000418864,0.0031586618,0.100382,-0.007958719,-0.0014395316,0.0025915175,0.00046847004],"split_indices":[1,2,3,0,0,0,0],"split_type":[0,0,0,0,0,0,0],"sum_hessian":[6763.6084,2609.688,4153.9204,277.83926,2331.8489,1922.2448,2231.6755],"tree_param":{"num_deleted":"0","num_feature":"4","num_nodes":"7","size_leaf_vector":"1"}},{"base_weights":[-0.008968786,-0.20624857,0.12977311,-0.0065815607,-0.0012119841,0.0011340562,0.007562457],"categories":[],"categories_nodes":[],"categories_segments":[],"categories_sizes":[],"default_left":[0,0,0,0,0,0,0],"id":52,"left_children":[1,3,5,-1,-1,-1,-1],"loss_changes":[186.86784,106.831406,39.329628,0.0,0.0,0.0,0.0],"parents":[2147483647,0,0,1,1,2,2],"right_children":[2,4,6,-1,-1,-1,-1],"split_conditions":[0.00016895785,0.0031586618,1.9960272,-0.0065815607,-0.0012119841,0.0011340562,0.007562457],"split_indices":[1,2,3,0,0,0,0],"split_type":[0,0,0,0,0,0,0],"sum_hessian":[6804.6543,2810.5793,3994.0752,432.63965,2377.9397,3905.4463,88.62883],"tree_param":{"num_deleted":"0","num_feature":"4","num_nodes":"7","size_leaf_vector":"1"}},{"base_weights":[0.0044214227,-0.12263601,0.19855556,-0.004042373,-0.000605845,0.005019324,0.0015037163],"categories":[],"categories_nodes":[],"categories_segments":[],"categories_sizes":[],"default_left":[0,0,0,0,0,0,0],"id":53,"left_children":[1,3,5,-1,-1,-1,-1],"loss_changes":[167.86818,71.084335,37.97319,0.0,0.0,0.0,0.0],"parents":[2147483647,0,0,1,1,2,2],"right_children":[2,4,6,-1,-1,-1,-1],"split_conditions":[0.007609559,0.0031586618,-0.59365654,-0.004042373,-0.000605845,0.005019324,0.0015037163],"split_indices":[1,2,3,0,0,0,0],"split_type":[0,0,0,0,0,0,0],"sum_hessian":[6782.65,4098.672,2683.978,727.2075,3371.4644,352.1073,2331.8706],"tree_param":{"num_deleted":"0","num_feature":"4","num_nodes":"7","size_leaf_vector":"1"}},{"base_weights":[-0.01605152,-0.15296048,0.16898611,-0.0042892974,-0.00088911894,0.0029271676,0.00073021976],"categories":[],"categories_nodes":[],"categories_segments":[],"categories_sizes":[],"default_left":[0,0,0,0,0,0,0],"id":54,"left_children":[1,3,5,-1,-1,-1,-1],"loss_changes":[171.88744,68.07971,33.65165,0.0,0.0,0.0,0.0],"parents":[2147483647,0,0,1,1,2,2],"right_children":[2,4,6,-1,-1,-1,-1],"split_conditions":[0.006226138,0.0031586618,0.100382,-0.0042892974,-0.00088911894,0.0029271676,0.00073021976],"split_indices":[1,2,3,0,0,0,0],"split_type":[0,0,0,0,0,0,0],"sum_hessian":[6765.4663,3892.5293,2872.9368,719.5569,3172.9724,1241.4102,1631.5265],"tree_param":{"num_deleted":"0","num_feature":"4","num_nodes":"7","size_leaf_vector":"1"}},{"base_weights":[0.0055873236,-0.1319096,0.16633321,-0.0039401627,-0.00067172624,0.001928363,-0.0019555953],"categories":[],"categories_nodes":[],"categories_segments":[],"categories_sizes":[],"default_left":[0,0,0,0,0,0,0],"id":55,"left_children":[1,3,5,-1,-1,-1,-1],"loss_changes":[150.04694,61.29299,30.417,0.0,0.0,0.0,0.0],"parents":[2147483647,0,0,1,1,2,2],"right_children":[2,4,6,-1,-1,-1,-1],"split_conditions":[0.004290172,0.0031586618,0.04793753,-0.0039401627,-0.00067172624,0.001928363,-0.0019555953],"split_indices":[1,2,1,0,0,0,0],"split_type":[0,0,0,0,0,0,0],"sum_hessian":[6767.3345,3645.0486,3122.286,708.83014,2936.2185,2916.157,206.12901],"tree_param":{"num_deleted":"0","num_feature":"4","num_nodes":"7","size_leaf_vector":"1"}},{"base_weights":[0.0066385795,-0.17855938,0.13695934,-0.0038609419,-4.399146e-05,0.0027235055,0.0002872741],"categories":[],"categories_nodes":[],"categories_segments":[],"categories_sizes":[],"default_left":[0,0,0,0,0,0,0],"id":56,"left_children":[1,3,5,-1,-1,-1,-1],"loss_changes":[163.93199,100.91032,58.098984,0.0,0.0,0.0,0.0],"parents":[2147483647,0,0,1,1,2,2],"right_children":[2,4,6,-1,-1,-1,-1],"split_conditions":[9.5561416e-05,0.012080873,0.06668175,-0.0038609419,-4.399146e-05,0.0027235055,0.0002872741],"split_indices":[1,2,3,0,0,0,0],"split_type":[0,0,0,0,0,0,0],"sum_hessian":[6773.8447,2793.147,3980.6975,1266.288,1526.8591,1757.622,2223.0757],"tree_param":{"num_deleted":"0","num_feature":"4","num_nodes":"7","size_leaf_vector":"1"}},{"base_weights":[0.0029240479,-0.14464955,0.17449413,-0.0025620647,0.00075169915,0.0015317999,0.006098068],"categories":[],"categories_nodes":[],"categories_segments":[],"categories_sizes":[],"default_left":[0,0,0,0,0,0,0],"id":57,"left_children":[1,3,5,-1,-1,-1,-1],"loss_changes":[171.72629,89.697685,27.425232,0.0,0.0,0.0,0.0],"parents":[2147483647,0,0,1,1,2,2],"right_children":[2,4,6,-1,-1,-1,-1],"split_conditions":[0.004290172,0.0150373755,1.7681556,-0.0025620647,0.00075169915,0.0015317999,0.006098068],"split_indices":[1,2,3,0,0,0,0],"split_type":[0,0,0,0,0,0,0],"sum_hessian":[6761.3003,3632.5522,3128.7483,2411.5835,1220.9688,2997.7842,130.96407],"tree_param":{"num_deleted":"0","num_feature":"4","num_nodes":"7","size_leaf_vector":"1"}},{"base_weights":[0.0034534314,-0.19502354,0.12779759,-0.008126275,-0.001221638,0.002613999,0.00023633681],"categories":[],"categories_nodes":[],"categories_segments":[],"categories_sizes":[],"default_left":[0,0,0,0,0,0,0],"id":58,"left_children":[1,3,5,-1,-1,-1,-1],"loss_changes":[167.28201,115.46633,57.712624,0.0,0.0,0.0,0.0],"parents":[2147483647,0,0,1,1,2,2],"right_children":[2,4,6,-1,-1,-1,-1],"split_conditions":[-0.000418864,0.0029866318,0.040635563,-0.008126275,-0.001221638,0.002613999,0.00023633681],"split_indices":[1,2,3,0,0,0,0],"split_type":[0,0,0,0,0,0,0],"sum_hessian":[6760.8154,2598.842,4161.9736,262.07498,2336.767,1812.5159,2349.4578],"tree_param":{"num_deleted":"0","num_feature":"4","num_nodes":"7","size_leaf_vector":"1"}},{"base_weights":[-0.0083144205,-0.1855085,0.12265484,-0.0058762333,-0.00107322,0.000530263,0.0030000128],"categories":[],"categories_nodes":[],"categories_segments":[],"categories_sizes":[],"default_left":[0,0,0,0,0,0,0],"id":59,"left_children":[1,3,5,-1,-1,-1,-1],"loss_changes":[157.37354,89.34585,47.582733,0.0,0.0,0.0,0.0],"parents":[2147483647,0,0,1,1,2,2],"right_children":[2,4,6,-1,-1,-1,-1],"split_conditions":[0.00037923205,0.0029866318,0.015689464,-0.0058762333,-0.00107322,0.000530263,0.0030000128],"split_indices":[1,2,2,0,0,0,0],"split_type":[0,0,0,0,0,0,0],"sum_hessian":[6758.789,2873.957,3884.832,455.1523,2418.805,2802.9756,1081.8563],"tree_param":{"num_deleted":"0","num_feature":"4","num_nodes":"7","size_leaf_vector":"1"}},{"base_weights":[0.019998763,-0.16293472,0.15166603,-0.0043593207,-0.0002229699,0.0024963506,0.00057408784],"categories":[],"categories_nodes":[],"categories_segments":[],"categories_sizes":[],"default_left":[0,0,0,0,0,0,0],"id":60,"left_children":[1,3,5,-1,-1,-1,-1],"loss_changes":[162.46307,107.7335,35.791924,0.0,0.0,0.0,0.0],"parents":[2147483647,0,0,1,1,2,2],"right_children":[2,4,6,-1,-1,-1,-1],"split_conditions":[0.00023502829,0.009290328,0.17962393,-0.0043593207,-0.0002229699,0.0024963506,0.00057408784],"split_indices":[1,2,3,0,0,0,0],"split_type":[0,0,0,0,0,0,0],"sum_hessian":[6725.2344,2810.4846,3914.7498,946.0203,1864.4642,1906.2937,2008.456],"tree_param":{"num_deleted":"0","num_feature":"4","num_nodes":"7","size_leaf_vector":"1"}},{"base_weights":[-0.00045622603,-0.18426158,0.1187908,-0.007445609,-0.0010635802,0.0009267416,0.0061733876],"categories":[],"categories_nodes":[],"categories_segments":[],"categories_sizes":[],"default_left":[0,0,0,0,0,0,0],"id":61,"left_children":[1,3,5,-1,-1,-1,-1],"loss_changes":[148.6169,114.9076,52.197643,0.0,0.0,0.0,0.0],"parents":[2147483647,0,0,1,1,2,2],"right_children":[2,4,6,-1,-1,-1,-1],"split_conditions":[-0.00025517476,0.0031586618,1.6497123,-0.007445609,-0.0010635802,0.0009267416,0.0061733876],"split_indices":[1,2,3,0,0,0,0],"split_type":[0,0,0,0,0,0,0],"sum_hessian":[6757.5386,2660.1548,4097.384,312.70453,2347.4502,3906.5996,190.78413],"tree_param":{"num_deleted":"0","num_feature":"4","num_nodes":"7","size_leaf_vector":"1"}},{"base_weights":[0.007835379,-0.15998983,0.1289115,-0.005858297,-0.0008509702,0.0010933261,0.0067387256],"categories":[],"categories_nodes":[],"categories_segments":[],"categories_sizes":[],"default_left":[0,0,0,0,0,0,0],"id":62,"left_children":[1,3,5,-1,-1,-1,-1],"loss_changes":[137.6137,89.26656,40.499184,0.0,0.0,0.0,0.0],"parents":[2147483647,0,0,1,1,2,2],"right_children":[2,4,6,-1,-1,-1,-1],"split_conditions":[0.00016895785,0.0029866318,1.835051,-0.005858297,-0.0008509702,0.0010933261,0.0067387256],"split_indices":[1,2,3,0,0,0,0],"split_type":[0,0,0,0,0,0,0],"sum_hessian":[6753.8315,2825.6655,3928.166,410.42392,2415.2417,3805.294,122.87194],"tree_param":{"num_deleted":"0","num_feature":"4","num_nodes":"7","size_leaf_vector":"1"}},{"base_weights":[0.005595156,-0.19300029,0.13158387,-0.00615914,-0.0009289508,0.0010635494,0.005711124],"categories":[],"categories_nodes":[],"categories_segments":[],"categories_sizes":[],"default_left":[0,0,0,0,0,0,0],"id":63,"left_children":[1,3,5,-1,-1,-1,-1],"loss_changes":[169.1492,109.725525,44.62966,0.0,0.0,0.0,0.0],"parents":[2147483647,0,0,1,1,2,2],"right_children":[2,4,6,-1,-1,-1,-1],"split_conditions":[-0.00025517476,0.005903024,1.6073533,-0.00615914,-0.0009289508,0.0010635494,0.005711124],"split_indices":[1,2,3,0,0,0,0],"split_type":[0,0,0,0,0,0,0],"sum_hessian":[6742.653,2612.044,4130.609,488.16794,2123.876,3920.2798,210.32906],"tree_param":{"num_deleted":"0","num_feature":"4","num_nodes":"7","size_leaf_vector":"1"}},{"base_weights":[-0.012607404,-0.1920967,0.11285367,-0.003838643,-0.00028339465,0.0025757689,0.00031592563],"categories":[],"categories_nodes":[],"categories_segments":[],"categories_sizes":[],"default_left":[0,0,0,0,0,0,0],"id":64,"left_children":[1,3,5,-1,-1,-1,-1],"loss_changes":[153.31001,87.48702,46.69918,0.0,0.0,0.0,0.0],"parents":[2147483647,0,0,1,1,2,2],"right_children":[2,4,6,-1,-1,-1,-1],"split_conditions":[9.5561416e-05,0.012260193,-0.09402303,-0.003838643,-0.00028339465,0.0025757689,0.00031592563],"split_indices":[1,2,3,0,0,0,0],"split_type":[0,0,0,0,0,0,0],"sum_hessian":[6784.9077,2792.505,3992.4026,1277.2435,1515.2614,1423.3904,2569.0122],"tree_param":{"num_deleted":"0","num_feature":"4","num_nodes":"7","size_leaf_vector":"1"}},{"base_weights":[-0.0024705445,-0.16722307,0.11444516,-0.004817678,-0.00075818953,0.0005014789,0.0027930024],"categories":[],"categories_nodes":[],"categories_segments":[],"categories_sizes":[],"default_left":[0,0,0,0,0,0,0],"id":65,"left_children":[1,3,5,-1,-1,-1,-1],"loss_changes":[131.24403,80.45734,41.721066,0.0,0.0,0.0,0.0],"parents":[2147483647,0,0,1,1,2,2],"right_children":[2,4,6,-1,-1,-1,-1],"split_conditions":[0.00016895785,0.005903024,0.0155910095,-0.004817678,-0.00075818953,0.0005014789,0.0027930024],"split_indices":[1,2,2,0,0,0,0],"split_type":[0,0,0,0,0,0,0],"sum_hessian":[6790.8926,2820.5486,3970.3442,622.99994,2197.5486,2870.062,1100.2822],"tree_param":{"num_deleted":"0","num_feature":"4","num_nodes":"7","size_leaf_vector":"1"}},{"base_weights":[-0.010159138,-0.17992805,0.10921032,-0.00564948,-0.0010791053,0.00039640913,0.0028875943],"categories":[],"categories_nodes":[],"categories_segments":[],"categories_sizes":[],"default_left":[0,0,0,0,0,0,0],"id":66,"left_children":[1,3,5,-1,-1,-1,-1],"loss_changes":[137.954,76.69486,49.422123,0.0,0.0,0.0,0.0],"parents":[2147483647,0,0,1,1,2,2],"right_children":[2,4,6,-1,-1,-1,-1],"split_conditions":[0.00016895785,0.0031586618,0.0155910095,-0.00564948,-0.0010791053,0.00039640913,0.0028875943],"split_indices":[1,2,2,0,0,0,0],"split_type":[0,0,0,0,0,0,0],"sum_hessian":[6784.2397,2802.2065,3982.0332,428.5833,2373.623,2882.8142,1099.2188],"tree_param":{"num_deleted":"0","num_feature":"4","num_nodes":"7","size_leaf_vector":"1"}},{"base_weights":[-0.00065238465,-0.18270472,0.1147299,-0.007269077,-0.0011232559,0.00093359617,0.006359611],"categories":[],"categories_nodes":[],"categories_segments":[],"categories_sizes":[],"default_left":[0,0,0,0,0,0,0],"id":67,"left_children":[1,3,5,-1,-1,-1,-1],"loss_changes":[141.55515,98.549446,44.562557,0.0,0.0,0.0,0.0],"parents":[2147483647,0,0,1,1,2,2],"right_children":[2,4,6,-1,-1,-1,-1],"split_conditions":[-0.00025517476,0.0029866318,1.7681556,-0.007269077,-0.0011232559,0.00093359617,0.006359611],"split_indices":[1,2,3,0,0,0,0],"split_type":[0,0,0,0,0,0,0],"sum_hessian":[6715.704,2606.2874,4109.417,286.15045,2320.137,3960.7378,148.67911],"tree_param":{"num_deleted":"0","num_feature":"4","num_nodes":"7","size_leaf_vector":"1"}},{"base_weights":[-0.00035942948,-0.16193765,0.11103794,-0.0033518511,-0.0001520517,0.002370061,3.5951394e-05],"categories":[],"categories_nodes":[],"categories_segments":[],"categories_sizes":[],"default_left":[0,0,0,0,0,0,0],"id":68,"left_children":[1,3,5,-1,-1,-1,-1],"loss_changes":[122.22256,70.105194,54.07787,0.0,0.0,0.0,0.0],"parents":[2147483647,0,0,1,1,2,2],"right_children":[2,4,6,-1,-1,-1,-1],"split_conditions":[9.5561416e-05,0.012080873,0.100382,-0.0033518511,-0.0001520517,0.002370061,3.5951394e-05],"split_indices":[1,2,3,0,0,0,0],"split_type":[0,0,0,0,0,0,0],"sum_hessian":[6767.555,2763.5527,4004.0022,1258.2615,1505.2913,1833.2712,2170.7312],"tree_param":{"num_deleted":"0","num_feature":"4","num_nodes":"7","size_leaf_vector":"1"}},{"base_weights":[0.01278504,-0.1115226,0.16623232,-0.00367305,-0.00049840997,0.0018943321,-0.003334231],"categories":[],"categories_nodes":[],"categories_segments":[],"categories_sizes":[],"default_left":[0,0,0,0,0,0,0],"id":69,"left_children":[1,3,5,-1,-1,-1,-1],"loss_changes":[129.55162,58.526047,35.747467,0.0,0.0,0.0,0.0],"parents":[2147483647,0,0,1,1,2,2],"right_children":[2,4,6,-1,-1,-1,-1],"split_conditions":[0.0048814444,0.0031586618,0.058745872,-0.00367305,-0.00049840997,0.0018943321,-0.003334231],"split_indices":[1,2,1,0,0,0,0],"split_type":[0,0,0,0,0,0,0],"sum_hessian":[6769.2275,3737.6072,3031.6204,713.42065,3024.1865,2904.9429,126.67742],"tree_param":{"num_deleted":"0","num_feature":"4","num_nodes":"7","size_leaf_vector":"1"}},{"base_weights":[-0.011284521,-0.18723497,0.0993985,-0.0072937976,-0.0011509584,-0.0056473487,0.0011485944],"categories":[],"categories_nodes":[],"categories_segments":[],"categories_sizes":[],"default_left":[0,0,0,0,0,0,0],"id":70,"left_children":[1,3,5,-1,-1,-1,-1],"loss_changes":[132.00977,100.7462,42.86712,0.0,0.0,0.0,0.0],"parents":[2147483647,0,0,1,1,2,2],"right_children":[2,4,6,-1,-1,-1,-1],"split_conditions":[-0.00025517476,0.0031586618,0.0004356692,-0.0072937976,-0.0011509584,-0.0056473487,0.0011485944],"split_indices":[1,2,2,0,0,0,0],"split_type":[0,0,0,0,0,0,0],"sum_hessian":[6754.45,2609.0374,4145.413,294.06805,2314.9692,84.755394,4060.6575],"tree_param":{"num_deleted":"0","num_feature":"4","num_nodes":"7","size_leaf_vector":"1"}},{"base_weights":[0.0017302898,-0.41256672,0.051639102,-0.007808692,-0.0017904243,-0.0023842433,0.001294347],"categories":[],"categories_nodes":[],"categories_segments":[],"categories_sizes":[],"default_left":[0,0,0,0,0,0,0],"id":71,"left_children":[1,3,5,-1,-1,-1,-1],"loss_changes":[140.32837,60.375183,137.27304,0.0,0.0,0.0,0.0],"parents":[2147483647,0,0,1,1,2,2],"right_children":[2,4,6,-1,-1,-1,-1],"split_conditions":[0.0031586618,-0.000418864,-0.011628097,-0.007808692,-0.0017904243,-0.0023842433,0.001294347],"split_indices":[2,1,1,0,0,0,0],"split_type":[0,0,0,0,0,0,0],"sum_hessian":[6783.8174,719.3914,6064.4263,268.38605,451.0054,1275.4326,4788.9937],"tree_param":{"num_deleted":"0","num_feature":"4","num_nodes":"7","size_leaf_vector":"1"}},{"base_weights":[-0.007925874,-0.16878851,0.096551254,-0.004256776,-0.00015833405,0.00078673434,0.0068651545],"categories":[],"categories_nodes":[],"categories_segments":[],"categories_sizes":[],"default_left":[0,0,0,0,0,0,0],"id":72,"left_children":[1,3,5,-1,-1,-1,-1],"loss_changes":[113.98675,104.49728,42.000706,0.0,0.0,0.0,0.0],"parents":[2147483647,0,0,1,1,2,2],"right_children":[2,4,6,-1,-1,-1,-1],"split_conditions":[-0.00019165399,0.01082068,1.9082004,-0.004256776,-0.00015833405,0.00078673434,0.0068651545],"split_indices":[1,2,3,0,0,0,0],"split_type":[0,0,0,0,0,0,0],"sum_hessian":[6758.32,2662.423,4095.8967,984.5301,1677.893,3988.0737,107.82294],"tree_param":{"num_deleted":"0","num_feature":"4","num_nodes":"7","size_leaf_vector":"1"}},{"base_weights":[0.0055062785,-0.16461335,0.11192192,-0.007555832,-0.0009000867,0.0004946581,0.0027914946],"categories":[],"categories_nodes":[],"categories_segments":[],"categories_sizes":[],"default_left":[0,0,0,0,0,0,0],"id":73,"left_children":[1,3,5,-1,-1,-1,-1],"loss_changes":[122.91955,113.568695,43.212784,0.0,0.0,0.0,0.0],"parents":[2147483647,0,0,1,1,2,2],"right_children":[2,4,6,-1,-1,-1,-1],"split_conditions":[-0.0003331384,0.0031586618,0.0155910095,-0.007555832,-0.0009000867,0.0004946581,0.0027914946],"split_indices":[1,2,2,0,0,0,0],"split_type":[0,0,0,0,0,0,0],"sum_hessian":[6772.597,2600.494,4172.103,279.7571,2320.7368,3051.4036,1120.6996],"tree_param":{"num_deleted":"0","num_feature":"4","num_nodes":"7","size_leaf_vector":"1"}},{"base_weights":[0.003420714,-0.119574845,0.14518008,-0.0014524627,0.005674574,0.0025418364,0.0003498665],"categories":[],"categories_nodes":[],"categories_segments":[],"categories_sizes":[],"default_left":[0,0,0,0,0,0,0],"id":74,"left_children":[1,3,5,-1,-1,-1,-1],"loss_changes":[118.375114,64.438416,37.54222,0.0,0.0,0.0,0.0],"parents":[2147483647,0,0,1,1,2,2],"right_children":[2,4,6,-1,-1,-1,-1],"split_conditions":[0.004290172,1.4810723,0.21595694,-0.0014524627,0.005674574,0.0025418364,0.0003498665],"split_indices":[1,3,3,0,0,0,0],"split_type":[0,0,0,0,0,0,0],"sum_hessian":[6767.7847,3620.7776,3147.007,3499.3628,121.41471,1570.9137,1576.0935],"tree_param":{"num_deleted":"0","num_feature":"4","num_nodes":"7","size_leaf_vector":"1"}},{"base_weights":[0.00063427957,-0.17904818,0.11049394,-0.007735653,-0.0010452502,0.000939509,0.0073401527],"categories":[],"categories_nodes":[],"categories_segments":[],"categories_sizes":[],"default_left":[0,0,0,0,0,0,0],"id":75,"left_children":[1,3,5,-1,-1,-1,-1],"loss_changes":[134.31697,112.60428,42.095848,0.0,0.0,0.0,0.0],"parents":[2147483647,0,0,1,1,2,2],"right_children":[2,4,6,-1,-1,-1,-1],"split_conditions":[-0.000418864,0.0032895226,1.9960272,-0.007735653,-0.0010452502,0.000939509,0.0073401527],"split_indices":[1,2,3,0,0,0,0],"split_type":[0,0,0,0,0,0,0],"sum_hessian":[6787.804,2569.6226,4218.1816,274.2824,2295.3403,4121.9307,96.25098],"tree_param":{"num_deleted":"0","num_feature":"4","num_nodes":"7","size_leaf_vector":"1"}},{"base_weights":[0.0005384947,-0.0977363,0.15335758,-0.001754201,0.0006732076,0.004102045,0.0009761558],"categories":[],"categories_nodes":[],"categories_segments":[],"categories_sizes":[],"default_left":[0,0,0,0,0,0,0],"id":76,"left_children":[1,3,5,-1,-1,-1,-1],"loss_changes":[101.8998,53.09588,37.148216,0.0,0.0,0.0,0.0],"parents":[2147483647,0,0,1,1,2,2],"right_children":[2,4,6,-1,-1,-1,-1],"split_conditions":[0.007813591,0.0152149815,-0.48010075,-0.001754201,0.0006732076,0.004102045,0.0009761558],"split_indices":[1,2,3,0,0,0,0],"split_type":[0,0,0,0,0,0,0],"sum_hessian":[6761.375,4113.274,2648.1008,2800.605,1312.6691,457.68024,2190.4204],"tree_param":{"num_deleted":"0","num_feature":"4","num_nodes":"7","size_leaf_vector":"1"}},{"base_weights":[-0.019383136,-0.17988053,0.08086622,-0.006951796,-0.0011125,0.0019846153,-0.00015737976],"categories":[],"categories_nodes":[],"categories_segments":[],"categories_sizes":[],"default_left":[0,0,0,0,0,0,0],"id":77,"left_children":[1,3,5,-1,-1,-1,-1],"loss_changes":[108.722694,90.33658,47.392944,0.0,0.0,0.0,0.0],"parents":[2147483647,0,0,1,1,2,2],"right_children":[2,4,6,-1,-1,-1,-1],"split_conditions":[-0.00025517476,0.0031586618,0.08436472,-0.006951796,-0.0011125,0.0019846153,-0.00015737976],"split_indices":[1,2,3,0,0,0,0],"split_type":[0,0,0,0,0,0,0],"sum_hessian":[6732.0654,2589.0596,4143.006,291.8555,2297.204,1868.413,2274.5928],"tree_param":{"num_deleted":"0","num_feature":"4","num_nodes":"7","size_leaf_vector":"1"}},{"base_weights":[-0.0072309286,-0.1558341,0.08937359,-0.005070481,-0.00068609265,0.0004393523,0.0028953264],"categories":[],"categories_nodes":[],"categories_segments":[],"categories_sizes":[],"default_left":[0,0,0,0,0,0,0],"id":78,"left_children":[1,3,5,-1,-1,-1,-1],"loss_changes":[97.841644,81.39723,37.04663,0.0,0.0,0.0,0.0],"parents":[2147483647,0,0,1,1,2,2],"right_children":[2,4,6,-1,-1,-1,-1],"split_conditions":[-0.0001095387,0.005903024,0.01794432,-0.005070481,-0.00068609265,0.0004393523,0.0028953264],"split_indices":[1,2,2,0,0,0,0],"split_type":[0,0,0,0,0,0,0],"sum_hessian":[6791.1777,2677.1843,4113.9937,520.7538,2156.4304,3366.8677,747.12573],"tree_param":{"num_deleted":"0","num_feature":"4","num_nodes":"7","size_leaf_vector":"1"}},{"base_weights":[0.009893541,-0.41601846,0.06058201,-0.0073958477,-0.0019375976,-0.0018780662,0.0015050125],"categories":[],"categories_nodes":[],"categories_segments":[],"categories_sizes":[],"default_left":[0,0,0,0,0,0,0],"id":79,"left_children":[1,3,5,-1,-1,-1,-1],"loss_changes":[144.36923,48.758057,134.05638,0.0,0.0,0.0,0.0],"parents":[2147483647,0,0,1,1,2,2],"right_children":[2,4,6,-1,-1,-1,-1],"split_conditions":[0.0031586618,-0.0003331384,-0.007391828,-0.0073958477,-0.0019375976,-0.0018780662,0.0015050125],"split_indices":[2,1,1,0,0,0,0],"split_type":[0,0,0,0,0,0,0],"sum_hessian":[6682.01,700.89636,5981.1133,274.0934,426.80295,1583.8778,4397.236],"tree_param":{"num_deleted":"0","num_feature":"4","num_nodes":"7","size_leaf_vector":"1"}},{"base_weights":[0.01099951,-0.097505204,0.16969603,-0.0018111538,0.0010610134,0.0019084031,-0.004378407],"categories":[],"categories_nodes":[],"categories_segments":[],"categories_sizes":[],"default_left":[0,0,0,0,0,0,0],"id":80,"left_children":[1,3,5,-1,-1,-1,-1],"loss_changes":[116.90208,68.81344,36.026085,0.0,0.0,0.0,0.0],"parents":[2147483647,0,0,1,1,2,2],"right_children":[2,4,6,-1,-1,-1,-1],"split_conditions":[0.0071816086,0.016168814,0.071912795,-0.0018111538,0.0010610134,0.0019084031,-0.004378407],"split_indices":[1,2,1,0,0,0,0],"split_type":[0,0,0,0,0,0,0],"sum_hessian":[6765.2046,4016.5474,2748.6575,2851.5757,1164.9717,2664.4312,84.22619],"tree_param":{"num_deleted":"0","num_feature":"4","num_nodes":"7","size_leaf_vector":"1"}},{"base_weights":[0.014498836,-0.10924771,0.15532102,-0.0019822293,0.0009657013,0.0018004961,-0.0015546331],"categories":[],"categories_nodes":[],"categories_segments":[],"categories_sizes":[],"default_left":[0,0,0,0,0,0,0],"id":81,"left_children":[1,3,5,-1,-1,-1,-1],"loss_changes":[117.99625,66.211426,24.660591,0.0,0.0,0.0,0.0],"parents":[2147483647,0,0,1,1,2,2],"right_children":[2,4,6,-1,-1,-1,-1],"split_conditions":[0.004290172,0.016261434,0.04793753,-0.0019822293,0.0009657013,0.0018004961,-0.0015546331],"split_indices":[1,2,1,0,0,0,0],"split_type":[0,0,0,0,0,0,0],"sum_hessian":[6748.7944,3589.599,3159.195,2509.8267,1079.7726,2933.2273,225.96779],"tree_param":{"num_deleted":"0","num_feature":"4","num_nodes":"7","size_leaf_vector":"1"}},{"base_weights":[0.00040409027,-0.28792918,0.06688669,-0.0073693553,-0.0018963431,-0.0034203017,0.0012860347],"categories":[],"categories_nodes":[],"categories_segments":[],"categories_sizes":[],"default_left":[0,0,0,0,0,0,0],"id":82,"left_children":[1,3,5,-1,-1,-1,-1],"loss_changes":[129.15964,53.36718,138.71559,0.0,0.0,0.0,0.0],"parents":[2147483647,0,0,1,1,2,2],"right_children":[2,4,6,-1,-1,-1,-1],"split_conditions":[-0.012039838,0.011799912,0.0031586618,-0.0073693553,-0.0018963431,-0.0034203017,0.0012860347],"split_indices":[1,2,2,0,0,0,0],"split_type":[0,0,0,0,0,0,0],"sum_hessian":[6729.376,1251.8379,5477.538,211.33301,1040.5049,710.2188,4767.3193],"tree_param":{"num_deleted":"0","num_feature":"4","num_nodes":"7","size_leaf_vector":"1"}},{"base_weights":[-0.012613662,-0.34339783,0.027907358,-0.0067615276,-0.0013039418,-0.0024348602,0.0010082687],"categories":[],"categories_nodes":[],"categories_segments":[],"categories_sizes":[],"default_left":[0,0,0,0,0,0,0],"id":83,"left_children":[1,3,5,-1,-1,-1,-1],"loss_changes":[91.179,50.93615,119.621185,0.0,0.0,0.0,0.0],"parents":[2147483647,0,0,1,1,2,2],"right_children":[2,4,6,-1,-1,-1,-1],"split_conditions":[0.0032895226,-0.000418864,-0.011628097,-0.0067615276,-0.0013039418,-0.0024348602,0.0010082687],"split_indices":[2,1,1,0,0,0,0],"split_type":[0,0,0,0,0,0,0],"sum_hessian":[6761.832,732.46375,6029.3687,275.554,456.90973,1269.0576,4760.311],"tree_param":{"num_deleted":"0","num_feature":"4","num_nodes":"7","size_leaf_vector":"1"}},{"base_weights":[-0.0032528103,-0.1566034,0.102727756,-0.0031369056,0.00027005063,0.00042225717,0.002687526],"categories":[],"categories_nodes":[],"categories_segments":[],"categories_sizes":[],"default_left":[0,0,0,0,0,0,0],"id":84,"left_children":[1,3,5,-1,-1,-1,-1],"loss_changes":[110.04619,80.25312,39.738537,0.0,0.0,0.0,0.0],"parents":[2147483647,0,0,1,1,2,2],"right_children":[2,4,6,-1,-1,-1,-1],"split_conditions":[0.00016895785,0.01363869,0.015787454,-0.0031369056,0.00027005063,0.00042225717,0.002687526],"split_indices":[1,2,2,0,0,0,0],"split_type":[0,0,0,0,0,0,0],"sum_hessian":[6747.95,2759.5813,3988.3691,1486.3169,1273.2644,2936.7415,1051.6277],"tree_param":{"num_deleted":"0","num_feature":"4","num_nodes":"7","size_leaf_vector":"1"}},{"base_weights":[0.0041634473,-0.10132932,0.13071062,-0.0046210587,-0.0006003851,0.0038496277,0.00084655103],"categories":[],"categories_nodes":[],"categories_segments":[],"categories_sizes":[],"default_left":[0,0,0,0,0,0,0],"id":85,"left_children":[1,3,5,-1,-1,-1,-1],"loss_changes":[89.96695,53.872295,35.118393,0.0,0.0,0.0,0.0],"parents":[2147483647,0,0,1,1,2,2],"right_children":[2,4,6,-1,-1,-1,-1],"split_conditions":[0.0048814444,-0.03816082,-0.55319756,-0.0046210587,-0.0006003851,0.0038496277,0.00084655103],"split_indices":[1,1,3,0,0,0,0],"split_type":[0,0,0,0,0,0,0],"sum_hessian":[6717.0703,3660.053,3057.0176,362.92023,3297.1326,454.21234,2602.8052],"tree_param":{"num_deleted":"0","num_feature":"4","num_nodes":"7","size_leaf_vector":"1"}},{"base_weights":[-0.0064237965,-0.15375319,0.093689166,-0.0041915877,-0.00034317918,0.0007186495,0.0057189045],"categories":[],"categories_nodes":[],"categories_segments":[],"categories_sizes":[],"default_left":[0,0,0,0,0,0,0],"id":86,"left_children":[1,3,5,-1,-1,-1,-1],"loss_changes":[99.99565,86.42147,41.00949,0.0,0.0,0.0,0.0],"parents":[2147483647,0,0,1,1,2,2],"right_children":[2,4,6,-1,-1,-1,-1],"split_conditions":[9.5561416e-05,0.008889763,1.7681556,-0.0041915877,-0.00034317918,0.0007186495,0.0057189045],"split_indices":[1,2,3,0,0,0,0],"split_type":[0,0,0,0,0,0,0],"sum_hessian":[6755.7197,2735.1775,4020.5425,838.475,1896.7024,3858.0618,162.48077],"tree_param":{"num_deleted":"0","num_feature":"4","num_nodes":"7","size_leaf_vector":"1"}},{"base_weights":[0.00081049977,-0.1516156,0.09617162,-0.0069261184,-0.0008430751,0.0021884528,-4.339951e-05],"categories":[],"categories_nodes":[],"categories_segments":[],"categories_sizes":[],"default_left":[0,0,0,0,0,0,0],"id":87,"left_children":[1,3,5,-1,-1,-1,-1],"loss_changes":[98.27195,93.290665,51.5819,0.0,0.0,0.0,0.0],"parents":[2147483647,0,0,1,1,2,2],"right_children":[2,4,6,-1,-1,-1,-1],"split_conditions":[-0.00025517476,0.0029866318,0.06668175,-0.0069261184,-0.0008430751,0.0021884528,-4.339951e-05],"split_indices":[1,2,3,0,0,0,0],"split_type":[0,0,0,0,0,0,0],"sum_hessian":[6744.595,2589.3572,4155.2383,274.58563,2314.7715,1870.492,2284.7463],"tree_param":{"num_deleted":"0","num_feature":"4","num_nodes":"7","size_leaf_vector":"1"}},{"base_weights":[-0.0114643555,-0.15799351,0.09043307,-0.003782317,-0.00015958823,0.0020294755,6.707247e-05],"categories":[],"categories_nodes":[],"categories_segments":[],"categories_sizes":[],"default_left":[0,0,0,0,0,0,0],"id":88,"left_children":[1,3,5,-1,-1,-1,-1],"loss_changes":[101.547615,86.86832,37.510365,0.0,0.0,0.0,0.0],"parents":[2147483647,0,0,1,1,2,2],"right_children":[2,4,6,-1,-1,-1,-1],"split_conditions":[0.00016895785,0.01069055,0.0331686,-0.003782317,-0.00015958823,0.0020294755,6.707247e-05],"split_indices":[1,2,3,0,0,0,0],"split_type":[0,0,0,0,0,0,0],"sum_hessian":[6777.0576,2781.521,3995.5366,1081.258,1700.2628,1693.5225,2302.0142],"tree_param":{"num_deleted":"0","num_feature":"4","num_nodes":"7","size_leaf_vector":"1"}},{"base_weights":[-0.0031878217,-0.37849683,0.04244229,-0.0073163663,-0.0015793504,-0.002495106,0.0010752245],"categories":[],"categories_nodes":[],"categories_segments":[],"categories_sizes":[],"default_left":[0,0,0,0,0,0,0],"id":89,"left_children":[1,3,5,-1,-1,-1,-1],"loss_changes":[116.68692,55.503128,115.189095,0.0,0.0,0.0,0.0],"parents":[2147483647,0,0,1,1,2,2],"right_children":[2,4,6,-1,-1,-1,-1],"split_conditions":[0.0032895226,-0.000418864,-0.014209455,-0.0073163663,-0.0015793504,-0.002495106,0.0010752245],"split_indices":[2,1,1,0,0,0,0],"split_type":[0,0,0,0,0,0,0],"sum_hessian":[6774.676,728.8478,6045.828,269.5569,459.2909,1094.0701,4951.7583],"tree_param":{"num_deleted":"0","num_feature":"4","num_nodes":"7","size_leaf_vector":"1"}},{"base_weights":[0.0006983154,-0.35635602,0.04269311,-0.006832651,-0.0015653814,-0.0021462615,0.0010906472],"categories":[],"categories_nodes":[],"categories_segments":[],"categories_sizes":[],"default_left":[0,0,0,0,0,0,0],"id":90,"left_children":[1,3,5,-1,-1,-1,-1],"loss_changes":[100.71565,44.24488,103.13155,0.0,0.0,0.0,0.0],"parents":[2147483647,0,0,1,1,2,2],"right_children":[2,4,6,-1,-1,-1,-1],"split_conditions":[0.0032895226,-0.000418864,-0.012039838,-0.006832651,-0.0015653814,-0.0021462615,0.0010906472],"split_indices":[2,1,1,0,0,0,0],"split_type":[0,0,0,0,0,0,0],"sum_hessian":[6717.646,696.56226,6021.084,253.16934,443.3929,1226.9313,4794.153],"tree_param":{"num_deleted":"0","num_feature":"4","num_nodes":"7","size_leaf_vector":"1"}},{"base_weights":[-0.002707147,-0.37624413,0.04014314,-0.0072994623,-0.002002668,-0.00215004,0.0010583241],"categories":[],"categories_nodes":[],"categories_segments":[],"categories_sizes":[],"default_left":[0,0,0,0,0,0,0],"id":91,"left_children":[1,3,5,-1,-1,-1,-1],"loss_changes":[108.52555,41.05304,101.717,0.0,0.0,0.0,0.0],"parents":[2147483647,0,0,1,1,2,2],"right_children":[2,4,6,-1,-1,-1,-1],"split_conditions":[0.0031586618,-0.00067490834,-0.012039838,-0.0072994623,-0.002002668,-0.00215004,0.0010583241],"split_indices":[2,1,1,0,0,0,0],"split_type":[0,0,0,0,0,0,0],"sum_hessian":[6739.7993,687.98553,6051.814,216.2254,471.7601,1231.3008,4820.513],"tree_param":{"num_deleted":"0","num_feature":"4","num_nodes":"7","size_leaf_vector":"1"}},{"base_weights":[-0.013209116,-0.11175412,0.13247815,-0.0019314482,0.00061919185,0.0040370165,0.0008575976],"categories":[],"categories_nodes":[],"categories_segments":[],"categories_sizes":[],"default_left":[0,0,0,0,0,0,0],"id":92,"left_children":[1,3,5,-1,-1,-1,-1],"loss_changes":[96.499214,56.985912,33.489906,0.0,0.0,0.0,0.0],"parents":[2147483647,0,0,1,1,2,2],"right_children":[2,4,6,-1,-1,-1,-1],"split_conditions":[0.007609559,0.0152149815,-0.5731424,-0.0019314482,0.00061919185,0.0040370165,0.0008575976],"split_indices":[1,2,3,0,0,0,0],"split_type":[0,0,0,0,0,0,0],"sum_hessian":[6702.6523,4003.6904,2698.9617,2729.2734,1274.4171,382.21225,2316.7495],"tree_param":{"num_deleted":"0","num_feature":"4","num_nodes":"7","size_leaf_vector":"1"}},{"base_weights":[0.01145854,-0.14001837,0.10369141,-0.0055305595,-0.0004606867,0.0021783907,0.00037601116],"categories":[],"categories_nodes":[],"categories_segments":[],"categories_sizes":[],"default_left":[0,0,0,0,0,0,0],"id":93,"left_children":[1,3,5,-1,-1,-1,-1],"loss_changes":[93.97426,97.81876,31.239918,0.0,0.0,0.0,0.0],"parents":[2147483647,0,0,1,1,2,2],"right_children":[2,4,6,-1,-1,-1,-1],"split_conditions":[-0.0003331384,0.005903024,-0.09402303,-0.0055305595,-0.0004606867,0.0021783907,0.00037601116],"split_indices":[1,2,3,0,0,0,0],"split_type":[0,0,0,0,0,0,0],"sum_hessian":[6708.5156,2532.7986,4175.7173,458.32437,2074.474,1517.1991,2658.5183],"tree_param":{"num_deleted":"0","num_feature":"4","num_nodes":"7","size_leaf_vector":"1"}},{"base_weights":[0.00586979,-0.08715541,0.14676085,-0.0016303486,0.0009613599,0.0042885826,0.0010498968],"categories":[],"categories_nodes":[],"categories_segments":[],"categories_sizes":[],"default_left":[0,0,0,0,0,0,0],"id":94,"left_children":[1,3,5,-1,-1,-1,-1],"loss_changes":[89.24264,57.17135,30.95147,0.0,0.0,0.0,0.0],"parents":[2147483647,0,0,1,1,2,2],"right_children":[2,4,6,-1,-1,-1,-1],"split_conditions":[0.007609559,0.016087495,-0.6353185,-0.0016303486,0.0009613599,0.0042885826,0.0010498968],"split_indices":[1,2,3,0,0,0,0],"split_type":[0,0,0,0,0,0,0],"sum_hessian":[6784.7715,4084.586,2700.1858,2893.35,1191.2358,333.21863,2366.9673],"tree_param":{"num_deleted":"0","num_feature":"4","num_nodes":"7","size_leaf_vector":"1"}},{"base_weights":[0.0055956193,-0.32361376,0.044403154,-0.007003218,-0.0011552848,-0.00167377,0.0012258115],"categories":[],"categories_nodes":[],"categories_segments":[],"categories_sizes":[],"default_left":[0,0,0,0,0,0,0],"id":95,"left_children":[1,3,5,-1,-1,-1,-1],"loss_changes":[86.605415,54.378304,100.907455,0.0,0.0,0.0,0.0],"parents":[2147483647,0,0,1,1,2,2],"right_children":[2,4,6,-1,-1,-1,-1],"split_conditions":[0.0031586618,-0.00050335727,-0.0068598846,-0.007003218,-0.0011552848,-0.00167377,0.0012258115],"split_indices":[2,1,1,0,0,0,0],"split_type":[0,0,0,0,0,0,0],"sum_hessian":[6779.4697,704.44165,6075.028,240.5321,463.90952,1631.4132,4443.6147],"tree_param":{"num_deleted":"0","num_feature":"4","num_nodes":"7","size_leaf_vector":"1"}},{"base_weights":[0.0022000922,-0.42828992,0.03140156,0.0028514722,-0.005803485,-0.00050048006,0.00227088],"categories":[],"categories_nodes":[],"categories_segments":[],"categories_sizes":[],"default_left":[0,0,0,0,0,0,0],"id":96,"left_children":[1,3,5,-1,-1,-1,-1],"loss_changes":[84.5114,48.260956,101.12993,0.0,0.0,0.0,0.0],"parents":[2147483647,0,0,1,1,2,2],"right_children":[2,4,6,-1,-1,-1,-1],"split_conditions":[-0.035156004,-1.1704607,0.015298739,0.0028514722,-0.005803485,-0.00050048006,0.00227088],"split_indices":[1,3,2,0,0,0,0],"split_type":[0,0,0,0,0,0,0],"sum_hessian":[6733.6323,416.89062,6316.7417,70.55022,346.3404,4461.914,1854.8276],"tree_param":{"num_deleted":"0","num_feature":"4","num_nodes":"7","size_leaf_vector":"1"}},{"base_weights":[0.0055543683,-0.32777014,0.044343017,-0.006489808,-0.0011521477,-0.0014954285,0.0011732958],"categories":[],"categories_nodes":[],"categories_segments":[],"categories_sizes":[],"default_left":[0,0,0,0,0,0,0],"id":97,"left_children":[1,3,5,-1,-1,-1,-1],"loss_changes":[87.232895,46.47953,85.96564,0.0,0.0,0.0,0.0],"parents":[2147483647,0,0,1,1,2,2],"right_children":[2,4,6,-1,-1,-1,-1],"split_conditions":[0.0031586618,-0.0003331384,-0.006582242,-0.006489808,-0.0011521477,-0.0014954285,0.0011732958],"split_indices":[2,1,1,0,0,0,0],"split_type":[0,0,0,0,0,0,0],"sum_hessian":[6747.644,692.9133,6054.7305,265.8809,427.0324,1649.2839,4405.447],"tree_param":{"num_deleted":"0","num_feature":"4","num_nodes":"7","size_leaf_vector":"1"}},{"base_weights":[0.0023378027,-0.19990124,0.08079476,-0.0046527362,-0.00083037163,-0.0029575306,0.0014061906],"categories":[],"categories_nodes":[],"categories_segments":[],"categories_sizes":[],"default_left":[0,0,0,0,0,0,0],"id":98,"left_children":[1,3,5,-1,-1,-1,-1],"loss_changes":[106.91711,57.430344,109.82277,0.0,0.0,0.0,0.0],"parents":[2147483647,0,0,1,1,2,2],"right_children":[2,4,6,-1,-1,-1,-1],"split_conditions":[-0.0044962363,0.011968213,0.0031586618,-0.0046527362,-0.00083037163,-0.0029575306,0.0014061906],"split_indices":[1,2,2,0,0,0,0],"split_type":[0,0,0,0,0,0,0],"sum_hessian":[6725.633,1871.9833,4853.6494,560.60455,1311.3788,657.7114,4195.938],"tree_param":{"num_deleted":"0","num_feature":"4","num_nodes":"7","size_leaf_vector":"1"}},{"base_weights":[-0.006048688,-0.3583131,0.03377158,-0.0071765026,-0.0012688987,-0.0026623798,0.0008642359],"categories":[],"categories_nodes":[],"categories_segments":[],"categories_sizes":[],"default_left":[0,0,0,0,0,0,0],"id":99,"left_children":[1,3,5,-1,-1,-1,-1],"loss_changes":[96.21192,56.188408,97.04436,0.0,0.0,0.0,0.0],"parents":[2147483647,0,0,1,1,2,2],"right_children":[2,4,6,-1,-1,-1,-1],"split_conditions":[0.0031586618,-0.0003331384,-0.018200416,-0.0071765026,-0.0012688987,-0.0026623798,0.0008642359],"split_indices":[2,1,1,0,0,0,0],"split_type":[0,0,0,0,0,0,0],"sum_hessian":[6817.1606,686.78076,6130.38,259.1148,427.666,906.36743,5224.012],"tree_param":{"num_deleted":"0","num_feature":"4","num_nodes":"7","size_leaf_vector":"1"}},{"base_weights":[0.011609382,-0.0724857,0.14480671,-0.005026501,-0.00042751312,0.004243085,0.0009457615],"categories":[],"categories_nodes":[],"categories_segments":[],"categories_sizes":[],"default_left":[0,0,0,0,0,0,0],"id":100,"left_children":[1,3,5,-1,-1,-1,-1],"loss_changes":[75.89506,52.26612,35.920376,0.0,0.0,0.0,0.0],"parents":[2147483647,0,0,1,1,2,2],"right_children":[2,4,6,-1,-1,-1,-1],"split_conditions":[0.008467188,-0.04665873,-0.56322026,-0.005026501,-0.00042751312,0.004243085,0.0009457615],"split_indices":[1,1,3,0,0,0,0],"split_type":[0,0,0,0,0,0,0],"sum_hessian":[6749.766,4135.708,2614.058,254.93346,3880.7744,383.84116,2230.217],"tree_param":{"num_deleted":"0","num_feature":"4","num_nodes":"7","size_leaf_vector":"1"}},{"base_weights":[0.0018821877,-0.12815177,0.091205634,-0.0042940807,-0.00043061344,0.002145992,-1.622418e-05],"categories":[],"categories_nodes":[],"categories_segments":[],"categories_sizes":[],"default_left":[0,0,0,0,0,0,0],"id":101,"left_children":[1,3,5,-1,-1,-1,-1],"loss_changes":[78.51068,69.81692,46.18569,0.0,0.0,0.0,0.0],"parents":[2147483647,0,0,1,1,2,2],"right_children":[2,4,6,-1,-1,-1,-1],"split_conditions":[0.00016895785,0.005903024,0.050208446,-0.0042940807,-0.00043061344,0.002145992,-1.622418e-05],"split_indices":[1,2,3,0,0,0,0],"split_type":[0,0,0,0,0,0,0],"sum_hessian":[6742.492,2739.248,4003.244,591.8016,2147.4465,1717.6619,2285.582],"tree_param":{"num_deleted":"0","num_feature":"4","num_nodes":"7","size_leaf_vector":"1"}},{"base_weights":[0.0005918852,-0.3291386,0.038479984,-0.0066553024,-0.0014328996,-0.0027196652,0.00092290324],"categories":[],"categories_nodes":[],"categories_segments":[],"categories_sizes":[],"default_left":[0,0,0,0,0,0,0],"id":102,"left_children":[1,3,5,-1,-1,-1,-1],"loss_changes":[84.697876,41.90132,102.04691,0.0,0.0,0.0,0.0],"parents":[2147483647,0,0,1,1,2,2],"right_children":[2,4,6,-1,-1,-1,-1],"split_conditions":[0.0031586618,-0.00050335727,-0.018710097,-0.0066553024,-0.0014328996,-0.0027196652,0.00092290324],"split_indices":[2,1,1,0,0,0,0],"split_type":[0,0,0,0,0,0,0],"sum_hessian":[6782.83,688.4201,6094.4097,233.88681,454.5333,891.5707,5202.839],"tree_param":{"num_deleted":"0","num_feature":"4","num_nodes":"7","size_leaf_vector":"1"}},{"base_weights":[-0.0034476358,-0.14445163,0.089071706,-0.0031667666,-8.3749925e-05,0.0006949577,0.0055328254],"categories":[],"categories_nodes":[],"categories_segments":[],"categories_sizes":[],"default_left":[0,0,0,0,0,0,0],"id":103,"left_children":[1,3,5,-1,-1,-1,-1],"loss_changes":[88.668846,62.81587,36.227215,0.0,0.0,0.0,0.0],"parents":[2147483647,0,0,1,1,2,2],"right_children":[2,4,6,-1,-1,-1,-1],"split_conditions":[-4.341507e-06,0.012080873,1.7681556,-0.0031667666,-8.3749925e-05,0.0006949577,0.0055328254],"split_indices":[1,2,3,0,0,0,0],"split_type":[0,0,0,0,0,0,0],"sum_hessian":[6772.7324,2685.3394,4087.3928,1176.1401,1509.1992,3935.0996,152.29332],"tree_param":{"num_deleted":"0","num_feature":"4","num_nodes":"7","size_leaf_vector":"1"}},{"base_weights":[-0.012867559,-0.30936775,0.024106871,0.0037837576,-0.003824909,-0.0006733473,0.0024320197],"categories":[],"categories_nodes":[],"categories_segments":[],"categories_sizes":[],"default_left":[0,0,0,0,0,0,0],"id":104,"left_children":[1,3,5,-1,-1,-1,-1],"loss_changes":[74.71646,39.45781,121.28347,0.0,0.0,0.0,0.0],"parents":[2147483647,0,0,1,1,2,2],"right_children":[2,4,6,-1,-1,-1,-1],"split_conditions":[-0.02189678,-1.4210382,0.0149451485,0.0037837576,-0.003824909,-0.0006733473,0.0024320197],"split_indices":[1,3,2,0,0,0,0],"split_type":[0,0,0,0,0,0,0],"sum_hessian":[6772.5522,745.7459,6026.8066,66.34378,679.4021,4253.8013,1773.0054],"tree_param":{"num_deleted":"0","num_feature":"4","num_nodes":"7","size_leaf_vector":"1"}},{"base_weights":[0.0078715645,-0.30830482,0.043917835,-0.0064319083,-0.0010752034,-0.0025604202,0.00093973934],"categories":[],"categories_nodes":[],"categories_segments":[],"categories_sizes":[],"default_left":[0,0,0,0,0,0,0],"id":105,"left_children":[1,3,5,-1,-1,-1,-1],"loss_changes":[77.274124,45.185303,91.79049,0.0,0.0,0.0,0.0],"parents":[2147483647,0,0,1,1,2,2],"right_children":[2,4,6,-1,-1,-1,-1],"split_conditions":[0.0031586618,-0.000418864,-0.018710097,-0.0064319083,-0.0010752034,-0.0025604202,0.00093973934],"split_indices":[2,1,1,0,0,0,0],"split_type":[0,0,0,0,0,0,0],"sum_hessian":[6781.546,683.4508,6098.095,246.05098,437.39984,863.35205,5234.743],"tree_param":{"num_deleted":"0","num_feature":"4","num_nodes":"7","size_leaf_vector":"1"}},{"base_weights":[0.009678589,-0.26068398,0.061713744,-0.005429351,-0.0009629171,-0.0028405003,0.0010901652],"categories":[],"categories_nodes":[],"categories_segments":[],"categories_sizes":[],"default_left":[0,0,0,0,0,0,0],"id":106,"left_children":[1,3,5,-1,-1,-1,-1],"loss_changes":[94.996506,49.37236,92.97055,0.0,0.0,0.0,0.0],"parents":[2147483647,0,0,1,1,2,2],"right_children":[2,4,6,-1,-1,-1,-1],"split_conditions":[-0.0146425245,0.015984122,0.0031586618,-0.005429351,-0.0009629171,-0.0028405003,0.0010901652],"split_indices":[1,2,2,0,0,0,0],"split_type":[0,0,0,0,0,0,0],"sum_hessian":[6745.202,1079.1055,5666.0967,386.46304,692.6424,673.3076,4992.789],"tree_param":{"num_deleted":"0","num_feature":"4","num_nodes":"7","size_leaf_vector":"1"}},{"base_weights":[0.0015149537,-0.3209871,0.038949687,-0.0069706403,-0.0010311479,-0.0026580705,0.0008776556],"categories":[],"categories_nodes":[],"categories_segments":[],"categories_sizes":[],"default_left":[0,0,0,0,0,0,0],"id":107,"left_children":[1,3,5,-1,-1,-1,-1],"loss_changes":[80.90188,55.558487,89.7274,0.0,0.0,0.0,0.0],"parents":[2147483647,0,0,1,1,2,2],"right_children":[2,4,6,-1,-1,-1,-1],"split_conditions":[0.0031586618,-0.000418864,-0.019907499,-0.0069706403,-0.0010311479,-0.0026580705,0.0008776556],"split_indices":[2,1,1,0,0,0,0],"split_type":[0,0,0,0,0,0,0],"sum_hessian":[6704.187,686.6037,6017.583,242.10825,444.49545,821.85,5195.733],"tree_param":{"num_deleted":"0","num_feature":"4","num_nodes":"7","size_leaf_vector":"1"}},{"base_weights":[0.004840439,-0.48325598,0.027364826,0.001798616,-0.007147342,-0.00052108144,0.002349642],"categories":[],"categories_nodes":[],"categories_segments":[],"categories_sizes":[],"default_left":[0,0,0,0,0,0,0],"id":108,"left_children":[1,3,5,-1,-1,-1,-1],"loss_changes":[73.2703,46.92713,106.06268,0.0,0.0,0.0,0.0],"parents":[2147483647,0,0,1,1,2,2],"right_children":[2,4,6,-1,-1,-1,-1],"split_conditions":[-0.044260003,-1.0162199,0.015984122,0.001798616,-0.007147342,-0.00052108144,0.002349642],"split_indices":[1,3,2,0,0,0,0],"split_type":[0,0,0,0,0,0,0],"sum_hessian":[6683.966,283.86017,6400.1055,72.90847,210.9517,4630.237,1769.869],"tree_param":{"num_deleted":"0","num_feature":"4","num_nodes":"7","size_leaf_vector":"1"}},{"base_weights":[-0.019038973,-0.23797505,0.028961152,-0.0049745813,-0.0005721249,-0.0031046274,0.00077230565],"categories":[],"categories_nodes":[],"categories_segments":[],"categories_sizes":[],"default_left":[0,0,0,0,0,0,0],"id":109,"left_children":[1,3,5,-1,-1,-1,-1],"loss_changes":[71.671196,56.6867,91.38093,0.0,0.0,0.0,0.0],"parents":[2147483647,0,0,1,1,2,2],"right_children":[2,4,6,-1,-1,-1,-1],"split_conditions":[-0.012039838,0.016168814,0.0031586618,-0.0049745813,-0.0005721249,-0.0031046274,0.00077230565],"split_indices":[1,2,2,0,0,0,0],"split_type":[0,0,0,0,0,0,0],"sum_hessian":[6783.561,1216.4407,5567.1206,489.99908,726.4416,683.7872,4883.3335],"tree_param":{"num_deleted":"0","num_feature":"4","num_nodes":"7","size_leaf_vector":"1"}},{"base_weights":[-0.0028397688,-0.07377019,0.14708248,-0.005576023,-0.00021954381,0.00311077,-0.0018170823],"categories":[],"categories_nodes":[],"categories_segments":[],"categories_sizes":[],"default_left":[0,0,0,0,0,0,0],"id":110,"left_children":[1,3,5,-1,-1,-1,-1],"loss_changes":[71.65763,114.20126,117.2657,0.0,0.0,0.0,0.0],"parents":[2147483647,0,0,1,1,2,2],"right_children":[2,4,6,-1,-1,-1,-1],"split_conditions":[0.015491669,-0.91128784,0.17962393,-0.005576023,-0.00021954381,0.00311077,-0.0018170823],"split_indices":[2,3,3,0,0,0,0],"split_type":[0,0,0,0,0,0,0],"sum_hessian":[6725.2007,4573.2695,2151.9314,431.085,4142.1846,1438.1765,713.75476],"tree_param":{"num_deleted":"0","num_feature":"4","num_nodes":"7","size_leaf_vector":"1"}},{"base_weights":[0.0040936675,-0.27513596,0.04652782,0.0039669997,-0.0032485821,-0.00036799515,0.002636359],"categories":[],"categories_nodes":[],"categories_segments":[],"categories_sizes":[],"default_left":[0,0,0,0,0,0,0],"id":111,"left_children":[1,3,5,-1,-1,-1,-1],"loss_changes":[80.23422,31.039513,107.010315,0.0,0.0,0.0,0.0],"parents":[2147483647,0,0,1,1,2,2],"right_children":[2,4,6,-1,-1,-1,-1],"split_conditions":[-0.018710097,-1.533435,0.0152149815,0.0039669997,-0.0032485821,-0.00036799515,0.002636359],"split_indices":[1,3,2,0,0,0,0],"split_type":[0,0,0,0,0,0,0],"sum_hessian":[6769.954,882.7549,5887.199,54.63562,828.11926,4257.027,1630.1725],"tree_param":{"num_deleted":"0","num_feature":"4","num_nodes":"7","size_leaf_vector":"1"}},{"base_weights":[0.010183205,-0.32266173,0.04832708,-0.0070947683,-0.00100031,-0.002027173,0.0010350717],"categories":[],"categories_nodes":[],"categories_segments":[],"categories_sizes":[],"default_left":[0,0,0,0,0,0,0],"id":112,"left_children":[1,3,5,-1,-1,-1,-1],"loss_changes":[85.31045,57.93947,83.89647,0.0,0.0,0.0,0.0],"parents":[2147483647,0,0,1,1,2,2],"right_children":[2,4,6,-1,-1,-1,-1],"split_conditions":[0.0031586618,-0.000418864,-0.014209455,-0.0070947683,-0.00100031,-0.002027173,0.0010350717],"split_indices":[2,1,1,0,0,0,0],"split_type":[0,0,0,0,0,0,0],"sum_hessian":[6718.8027,680.44104,6038.362,238.93611,441.5049,1079.9985,4958.3633],"tree_param":{"num_deleted":"0","num_feature":"4","num_nodes":"7","size_leaf_vector":"1"}},{"base_weights":[-0.006951184,-0.08211758,0.14188975,-0.006462344,-0.00026663684,-0.0040265704,0.0021877387],"categories":[],"categories_nodes":[],"categories_segments":[],"categories_sizes":[],"default_left":[0,0,0,0,0,0,0],"id":113,"left_children":[1,3,5,-1,-1,-1,-1],"loss_changes":[75.75186,140.1242,95.71426,0.0,0.0,0.0,0.0],"parents":[2147483647,0,0,1,1,2,2],"right_children":[2,4,6,-1,-1,-1,-1],"split_conditions":[0.015298739,-0.95189893,-0.044260003,-0.006462344,-0.00026663684,-0.0040265704,0.0021877387],"split_indices":[2,3,1,0,0,0,0],"split_type":[0,0,0,0,0,0,0],"sum_hessian":[6755.8403,4496.339,2259.5017,391.28983,4105.049,272.69653,1986.805],"tree_param":{"num_deleted":"0","num_feature":"4","num_nodes":"7","size_leaf_vector":"1"}},{"base_weights":[0.003430115,-0.26973116,0.03790328,-0.004434884,0.0007580629,-0.0003980316,0.0025206446],"categories":[],"categories_nodes":[],"categories_segments":[],"categories_sizes":[],"default_left":[0,0,0,0,0,0,0],"id":114,"left_children":[1,3,5,-1,-1,-1,-1],"loss_changes":[63.450867,46.00901,100.28383,0.0,0.0,0.0,0.0],"parents":[2147483647,0,0,1,1,2,2],"right_children":[2,4,6,-1,-1,-1,-1],"split_conditions":[-0.02189678,0.025861487,0.015689464,-0.004434884,0.0007580629,-0.0003980316,0.0025206446],"split_indices":[1,2,2,0,0,0,0],"split_type":[0,0,0,0,0,0,0],"sum_hessian":[6741.859,744.58704,5997.272,495.48593,249.10115,4403.114,1594.1578],"tree_param":{"num_deleted":"0","num_feature":"4","num_nodes":"7","size_leaf_vector":"1"}},{"base_weights":[0.0008509514,-0.30611023,0.035684574,-0.0065543083,-0.0008219447,-0.0019548384,0.0009828014],"categories":[],"categories_nodes":[],"categories_segments":[],"categories_sizes":[],"default_left":[0,0,0,0,0,0,0],"id":115,"left_children":[1,3,5,-1,-1,-1,-1],"loss_changes":[72.162476,52.495285,88.16677,0.0,0.0,0.0,0.0],"parents":[2147483647,0,0,1,1,2,2],"right_children":[2,4,6,-1,-1,-1,-1],"split_conditions":[0.0031586618,-0.0003331384,-0.011266991,-0.0065543083,-0.0008219447,-0.0019548384,0.0009828014],"split_indices":[2,1,1,0,0,0,0],"split_type":[0,0,0,0,0,0,0],"sum_hessian":[6753.9185,677.4552,6076.463,255.3532,422.102,1286.852,4789.611],"tree_param":{"num_deleted":"0","num_feature":"4","num_nodes":"7",