{"learner":{"attributes":{},"feature_names":["VNS_7","sEMA_13","Mo_79","nATR_43"],"feature_types":["float","float","float","float"],"gradient_booster":{"model":{"gbtree_model_param":{"num_parallel_tree":"1","num_trees":"2000"},"iteration_indptr":[0,1,2,3,4,5,6,7,8,9,10,11,12,13,14,15,16,17,18,19,20,21,22,23,24,25,26,27,28,29,30,31,32,33,34,35,36,37,38,39,40,41,42,43,44,45,46,47,48,49,50,51,52,53,54,55,56,57,58,59,60,61,62,63,64,65,66,67,68,69,70,71,72,73,74,75,76,77,78,79,80,81,82,83,84,85,86,87,88,89,90,91,92,93,94,95,96,97,98,99,100,101,102,103,104,105,106,107,108,109,110,111,112,113,114,115,116,117,118,119,120,121,122,123,124,125,126,127,128,129,130,131,132,133,134,135,136,137,138,139,140,141,142,143,144,145,146,147,148,149,150,151,152,153,154,155,156,157,158,159,160,161,162,163,164,165,166,167,168,169,170,171,172,173,174,175,176,177,178,179,180,181,182,183,184,185,186,187,188,189,190,191,192,193,194,195,196,197,198,199,200,201,202,203,204,205,206,207,208,209,210,211,212,213,214,215,216,217,218,219,220,221,222,223,224,225,226,227,228,229,230,231,232,233,234,235,236,237,238,239,240,241,242,243,244,245,246,247,248,249,250,251,252,253,254,255,256,257,258,259,260,261,262,263,264,265,266,267,268,269,270,271,272,273,274,275,276,277,278,279,280,281,282,283,284,285,286,287,288,289,290,291,292,293,294,295,296,297,298,299,300,301,302,303,304,305,306,307,308,309,310,311,312,313,314,315,316,317,318,319,320,321,322,323,324,325,326,327,328,329,330,331,332,333,334,335,336,337,338,339,340,341,342,343,344,345,346,347,348,349,350,351,352,353,354,355,356,357,358,359,360,361,362,363,364,365,366,367,368,369,370,371,372,373,374,375,376,377,378,379,380,381,382,383,384,385,386,387,388,389,390,391,392,393,394,395,396,397,398,399,400,401,402,403,404,405,406,407,408,409,410,411,412,413,414,415,416,417,418,419,420,421,422,423,424,425,426,427,428,429,430,431,432,433,434,435,436,437,438,439,440,441,442,443,444,445,446,447,448,449,450,451,452,453,454,455,456,457,458,459,460,461,462,463,464,465,466,467,468,469,470,471,472,473,474,475,476,477,478,479,480,481,482,483,484,485,486,487,488,489,490,491,492,493,494,495,496,497,498,499,500,501,502,503,504,505,506,507,508,509,510,511,512,513,514,515,516,517,518,519,520,521,522,523,524,525,526,527,528,529,530,531,532,533,534,535,536,537,538,539,540,541,542,543,544,545,546,547,548,549,550,551,552,553,554,555,556,557,558,559,560,561,562,563,564,565,566,567,568,569,570,571,572,573,574,575,576,577,578,579,580,581,582,583,584,585,586,587,588,589,590,591,592,593,594,595,596,597,598,599,600,601,602,603,604,605,606,607,608,609,610,611,612,613,614,615,616,617,618,619,620,621,622,623,624,625,626,627,628,629,630,631,632,633,634,635,636,637,638,639,640,641,642,643,644,645,646,647,648,649,650,651,652,653,654,655,656,657,658,659,660,661,662,663,664,665,666,667,668,669,670,671,672,673,674,675,676,677,678,679,680,681,682,683,684,685,686,687,688,689,690,691,692,693,694,695,696,697,698,699,700,701,702,703,704,705,706,707,708,709,710,711,712,713,714,715,716,717,718,719,720,721,722,723,724,725,726,727,728,729,730,731,732,733,734,735,736,737,738,739,740,741,742,743,744,745,746,747,748,749,750,751,752,753,754,755,756,757,758,759,760,761,762,763,764,765,766,767,768,769,770,771,772,773,774,775,776,777,778,779,780,781,782,783,784,785,786,787,788,789,790,791,792,793,794,795,796,797,798,799,800,801,802,803,804,805,806,807,808,809,810,811,812,813,814,815,816,817,818,819,820,821,822,823,824,825,826,827,828,829,830,831,832,833,834,835,836,837,838,839,840,841,842,843,844,845,846,847,848,849,850,851,852,853,854,855,856,857,858,859,860,861,862,863,864,865,866,867,868,869,870,871,872,873,874,875,876,877,878,879,880,881,882,883,884,885,886,887,888,889,890,891,892,893,894,895,896,897,898,899,900,901,902,903,904,905,906,907,908,909,910,911,912,913,914,915,916,917,918,919,920,921,922,923,924,925,926,927,928,929,930,931,932,933,934,935,936,937,938,939,940,941,942,943,944,945,946,947,948,949,950,951,952,953,954,955,956,957,958,959,960,961,962,963,964,965,966,967,968,969,970,971,972,973,974,975,976,977,978,979,980,981,982,983,984,985,986,987,988,989,990,991,992,993,994,995,996,997,998,999,1000,1001,1002,1003,1004,1005,1006,1007,1008,1009,1010,1011,1012,1013,1014,1015,1016,1017,1018,1019,1020,1021,1022,1023,1024,1025,1026,1027,1028,1029,1030,1031,1032,1033,1034,1035,1036,1037,1038,1039,1040,1041,1042,1043,1044,1045,1046,1047,1048,1049,1050,1051,1052,1053,1054,1055,1056,1057,1058,1059,1060,1061,1062,1063,1064,1065,1066,1067,1068,1069,1070,1071,1072,1073,1074,1075,1076,1077,1078,1079,1080,1081,1082,1083,1084,1085,1086,1087,1088,1089,1090,1091,1092,1093,1094,1095,1096,1097,1098,1099,1100,1101,1102,1103,1104,1105,1106,1107,1108,1109,1110,1111,1112,1113,1114,1115,1116,1117,1118,1119,1120,1121,1122,1123,1124,1125,1126,1127,1128,1129,1130,1131,1132,1133,1134,1135,1136,1137,1138,1139,1140,1141,1142,1143,1144,1145,1146,1147,1148,1149,1150,1151,1152,1153,1154,1155,1156,1157,1158,1159,1160,1161,1162,1163,1164,1165,1166,1167,1168,1169,1170,1171,1172,1173,1174,1175,1176,1177,1178,1179,1180,1181,1182,1183,1184,1185,1186,1187,1188,1189,1190,1191,1192,1193,1194,1195,1196,1197,1198,1199,1200,1201,1202,1203,1204,1205,1206,1207,1208,1209,1210,1211,1212,1213,1214,1215,1216,1217,1218,1219,1220,1221,1222,1223,1224,1225,1226,1227,1228,1229,1230,1231,1232,1233,1234,1235,1236,1237,1238,1239,1240,1241,1242,1243,1244,1245,1246,1247,1248,1249,1250,1251,1252,1253,1254,1255,1256,1257,1258,1259,1260,1261,1262,1263,1264,1265,1266,1267,1268,1269,1270,1271,1272,1273,1274,1275,1276,1277,1278,1279,1280,1281,1282,1283,1284,1285,1286,1287,1288,1289,1290,1291,1292,1293,1294,1295,1296,1297,1298,1299,1300,1301,1302,1303,1304,1305,1306,1307,1308,1309,1310,1311,1312,1313,1314,1315,1316,1317,1318,1319,1320,1321,1322,1323,1324,1325,1326,1327,1328,1329,1330,1331,1332,1333,1334,1335,1336,1337,1338,1339,1340,1341,1342,1343,1344,1345,1346,1347,1348,1349,1350,1351,1352,1353,1354,1355,1356,1357,1358,1359,1360,1361,1362,1363,1364,1365,1366,1367,1368,1369,1370,1371,1372,1373,1374,1375,1376,1377,1378,1379,1380,1381,1382,1383,1384,1385,1386,1387,1388,1389,1390,1391,1392,1393,1394,1395,1396,1397,1398,1399,1400,1401,1402,1403,1404,1405,1406,1407,1408,1409,1410,1411,1412,1413,1414,1415,1416,1417,1418,1419,1420,1421,1422,1423,1424,1425,1426,1427,1428,1429,1430,1431,1432,1433,1434,1435,1436,1437,1438,1439,1440,1441,1442,1443,1444,1445,1446,1447,1448,1449,1450,1451,1452,1453,1454,1455,1456,1457,1458,1459,1460,1461,1462,1463,1464,1465,1466,1467,1468,1469,1470,1471,1472,1473,1474,1475,1476,1477,1478,1479,1480,1481,1482,1483,1484,1485,1486,1487,1488,1489,1490,1491,1492,1493,1494,1495,1496,1497,1498,1499,1500,1501,1502,1503,1504,1505,1506,1507,1508,1509,1510,1511,1512,1513,1514,1515,1516,1517,1518,1519,1520,1521,1522,1523,1524,1525,1526,1527,1528,1529,1530,1531,1532,1533,1534,1535,1536,1537,1538,1539,1540,1541,1542,1543,1544,1545,1546,1547,1548,1549,1550,1551,1552,1553,1554,1555,1556,1557,1558,1559,1560,1561,1562,1563,1564,1565,1566,1567,1568,1569,1570,1571,1572,1573,1574,1575,1576,1577,1578,1579,1580,1581,1582,1583,1584,1585,1586,1587,1588,1589,1590,1591,1592,1593,1594,1595,1596,1597,1598,1599,1600,1601,1602,1603,1604,1605,1606,1607,1608,1609,1610,1611,1612,1613,1614,1615,1616,1617,1618,1619,1620,1621,1622,1623,1624,1625,1626,1627,1628,1629,1630,1631,1632,1633,1634,1635,1636,1637,1638,1639,1640,1641,1642,1643,1644,1645,1646,1647,1648,1649,1650,1651,1652,1653,1654,1655,1656,1657,1658,1659,1660,1661,1662,1663,1664,1665,1666,1667,1668,1669,1670,1671,1672,1673,1674,1675,1676,1677,1678,1679,1680,1681,1682,1683,1684,1685,1686,1687,1688,1689,1690,1691,1692,1693,1694,1695,1696,1697,1698,1699,1700,1701,1702,1703,1704,1705,1706,1707,1708,1709,1710,1711,1712,1713,1714,1715,1716,1717,1718,1719,1720,1721,1722,1723,1724,1725,1726,1727,1728,1729,1730,1731,1732,1733,1734,1735,1736,1737,1738,1739,1740,1741,1742,1743,1744,1745,1746,1747,1748,1749,1750,1751,1752,1753,1754,1755,1756,1757,1758,1759,1760,1761,1762,1763,1764,1765,1766,1767,1768,1769,1770,1771,1772,1773,1774,1775,1776,1777,1778,1779,1780,1781,1782,1783,1784,1785,1786,1787,1788,1789,1790,1791,1792,1793,1794,1795,1796,1797,1798,1799,1800,1801,1802,1803,1804,1805,1806,1807,1808,1809,1810,1811,1812,1813,1814,1815,1816,1817,1818,1819,1820,1821,1822,1823,1824,1825,1826,1827,1828,1829,1830,1831,1832,1833,1834,1835,1836,1837,1838,1839,1840,1841,1842,1843,1844,1845,1846,1847,1848,1849,1850,1851,1852,1853,1854,1855,1856,1857,1858,1859,1860,1861,1862,1863,1864,1865,1866,1867,1868,1869,1870,1871,1872,1873,1874,1875,1876,1877,1878,1879,1880,1881,1882,1883,1884,1885,1886,1887,1888,1889,1890,1891,1892,1893,1894,1895,1896,1897,1898,1899,1900,1901,1902,1903,1904,1905,1906,1907,1908,1909,1910,1911,1912,1913,1914,1915,1916,1917,1918,1919,1920,1921,1922,1923,1924,1925,1926,1927,1928,1929,1930,1931,1932,1933,1934,1935,1936,1937,1938,1939,1940,1941,1942,1943,1944,1945,1946,1947,1948,1949,1950,1951,1952,1953,1954,1955,1956,1957,1958,1959,1960,1961,1962,1963,1964,1965,1966,1967,1968,1969,1970,1971,1972,1973,1974,1975,1976,1977,1978,1979,1980,1981,1982,1983,1984,1985,1986,1987,1988,1989,1990,1991,1992,1993,1994,1995,1996,1997,1998,1999,2000],"tree_info":[0,0,0,0,0,0,0,0,0,0,0,0,0,0,0,0,0,0,0,0,0,0,0,0,0,0,0,0,0,0,0,0,0,0,0,0,0,0,0,0,0,0,0,0,0,0,0,0,0,0,0,0,0,0,0,0,0,0,0,0,0,0,0,0,0,0,0,0,0,0,0,0,0,0,0,0,0,0,0,0,0,0,0,0,0,0,0,0,0,0,0,0,0,0,0,0,0,0,0,0,0,0,0,0,0,0,0,0,0,0,0,0,0,0,0,0,0,0,0,0,0,0,0,0,0,0,0,0,0,0,0,0,0,0,0,0,0,0,0,0,0,0,0,0,0,0,0,0,0,0,0,0,0,0,0,0,0,0,0,0,0,0,0,0,0,0,0,0,0,0,0,0,0,0,0,0,0,0,0,0,0,0,0,0,0,0,0,0,0,0,0,0,0,0,0,0,0,0,0,0,0,0,0,0,0,0,0,0,0,0,0,0,0,0,0,0,0,0,0,0,0,0,0,0,0,0,0,0,0,0,0,0,0,0,0,0,0,0,0,0,0,0,0,0,0,0,0,0,0,0,0,0,0,0,0,0,0,0,0,0,0,0,0,0,0,0,0,0,0,0,0,0,0,0,0,0,0,0,0,0,0,0,0,0,0,0,0,0,0,0,0,0,0,0,0,0,0,0,0,0,0,0,0,0,0,0,0,0,0,0,0,0,0,0,0,0,0,0,0,0,0,0,0,0,0,0,0,0,0,0,0,0,0,0,0,0,0,0,0,0,0,0,0,0,0,0,0,0,0,0,0,0,0,0,0,0,0,0,0,0,0,0,0,0,0,0,0,0,0,0,0,0,0,0,0,0,0,0,0,0,0,0,0,0,0,0,0,0,0,0,0,0,0,0,0,0,0,0,0,0,0,0,0,0,0,0,0,0,0,0,0,0,0,0,0,0,0,0,0,0,0,0,0,0,0,0,0,0,0,0,0,0,0,0,0,0,0,0,0,0,0,0,0,0,0,0,0,0,0,0,0,0,0,0,0,0,0,0,0,0,0,0,0,0,0,0,0,0,0,0,0,0,0,0,0,0,0,0,0,0,0,0,0,0,0,0,0,0,0,0,0,0,0,0,0,0,0,0,0,0,0,0,0,0,0,0,0,0,0,0,0,0,0,0,0,0,0,0,0,0,0,0,0,0,0,0,0,0,0,0,0,0,0,0,0,0,0,0,0,0,0,0,0,0,0,0,0,0,0,0,0,0,0,0,0,0,0,0,0,0,0,0,0,0,0,0,0,0,0,0,0,0,0,0,0,0,0,0,0,0,0,0,0,0,0,0,0,0,0,0,0,0,0,0,0,0,0,0,0,0,0,0,0,0,0,0,0,0,0,0,0,0,0,0,0,0,0,0,0,0,0,0,0,0,0,0,0,0,0,0,0,0,0,0,0,0,0,0,0,0,0,0,0,0,0,0,0,0,0,0,0,0,0,0,0,0,0,0,0,0,0,0,0,0,0,0,0,0,0,0,0,0,0,0,0,0,0,0,0,0,0,0,0,0,0,0,0,0,0,0,0,0,0,0,0,0,0,0,0,0,0,0,0,0,0,0,0,0,0,0,0,0,0,0,0,0,0,0,0,0,0,0,0,0,0,0,0,0,0,0,0,0,0,0,0,0,0,0,0,0,0,0,0,0,0,0,0,0,0,0,0,0,0,0,0,0,0,0,0,0,0,0,0,0,0,0,0,0,0,0,0,0,0,0,0,0,0,0,0,0,0,0,0,0,0,0,0,0,0,0,0,0,0,0,0,0,0,0,0,0,0,0,0,0,0,0,0,0,0,0,0,0,0,0,0,0,0,0,0,0,0,0,0,0,0,0,0,0,0,0,0,0,0,0,0,0,0,0,0,0,0,0,0,0,0,0,0,0,0,0,0,0,0,0,0,0,0,0,0,0,0,0,0,0,0,0,0,0,0,0,0,0,0,0,0,0,0,0,0,0,0,0,0,0,0,0,0,0,0,0,0,0,0,0,0,0,0,0,0,0,0,0,0,0,0,0,0,0,0,0,0,0,0,0,0,0,0,0,0,0,0,0,0,0,0,0,0,0,0,0,0,0,0,0,0,0,0,0,0,0,0,0,0,0,0,0,0,0,0,0,0,0,0,0,0,0,0,0,0,0,0,0,0,0,0,0,0,0,0,0,0,0,0,0,0,0,0,0,0,0,0,0,0,0,0,0,0,0,0,0,0,0,0,0,0,0,0,0,0,0,0,0,0,0,0,0,0,0,0,0,0,0,0,0,0,0,0,0,0,0,0,0,0,0,0,0,0,0,0,0,0,0,0,0,0,0,0,0,0,0,0,0,0,0,0,0,0,0,0,0,0,0,0,0,0,0,0,0,0,0,0,0,0,0,0,0,0,0,0,0,0,0,0,0,0,0,0,0,0,0,0,0,0,0,0,0,0,0,0,0,0,0,0,0,0,0,0,0,0,0,0,0,0,0,0,0,0,0,0,0,0,0,0,0,0,0,0,0,0,0,0,0,0,0,0,0,0,0,0,0,0,0,0,0,0,0,0,0,0,0,0,0,0,0,0,0,0,0,0,0,0,0,0,0,0,0,0,0,0,0,0,0,0,0,0,0,0,0,0,0,0,0,0,0,0,0,0,0,0,0,0,0,0,0,0,0,0,0,0,0,0,0,0,0,0,0,0,0,0,0,0,0,0,0,0,0,0,0,0,0,0,0,0,0,0,0,0,0,0,0,0,0,0,0,0,0,0,0,0,0,0,0,0,0,0,0,0,0,0,0,0,0,0,0,0,0,0,0,0,0,0,0,0,0,0,0,0,0,0,0,0,0,0,0,0,0,0,0,0,0,0,0,0,0,0,0,0,0,0,0,0,0,0,0,0,0,0,0,0,0,0,0,0,0,0,0,0,0,0,0,0,0,0,0,0,0,0,0,0,0,0,0,0,0,0,0,0,0,0,0,0,0,0,0,0,0,0,0,0,0,0,0,0,0,0,0,0,0,0,0,0,0,0,0,0,0,0,0,0,0,0,0,0,0,0,0,0,0,0,0,0,0,0,0,0,0,0,0,0,0,0,0,0,0,0,0,0,0,0,0,0,0,0,0,0,0,0,0,0,0,0,0,0,0,0,0,0,0,0,0,0,0,0,0,0,0,0,0,0,0,0,0,0,0,0,0,0,0,0,0,0,0,0,0,0,0,0,0,0,0,0,0,0,0,0,0,0,0,0,0,0,0,0,0,0,0,0,0,0,0,0,0,0,0,0,0,0,0,0,0,0,0,0,0,0,0,0,0,0,0,0,0,0,0,0,0,0,0,0,0,0,0,0,0,0,0,0,0,0,0,0,0,0,0,0,0,0,0,0,0,0,0,0,0,0,0,0,0,0,0,0,0,0,0,0,0,0,0,0,0,0,0,0,0,0,0,0,0,0,0,0,0,0,0,0,0,0,0,0,0,0,0,0,0,0,0,0,0,0,0,0,0,0,0,0,0,0,0,0,0,0,0,0,0,0,0,0,0,0,0,0,0,0,0,0,0,0,0,0,0,0,0,0,0,0,0,0,0,0,0,0,0,0,0,0,0,0,0,0,0,0,0,0,0,0,0,0,0,0,0,0,0,0,0,0,0,0,0,0,0,0,0,0,0,0,0,0,0,0,0,0,0,0,0,0,0,0,0,0,0,0,0,0,0,0,0,0,0,0,0,0,0,0,0,0,0,0,0,0,0,0,0,0,0,0,0,0,0,0,0,0,0,0,0,0,0,0,0,0,0,0,0,0,0,0,0,0,0,0,0,0,0,0,0,0,0,0,0,0,0,0,0,0,0,0,0,0,0,0,0,0,0,0,0,0,0,0,0,0,0,0,0,0,0,0,0,0,0,0,0,0,0,0,0,0,0,0,0,0,0,0,0,0,0,0,0,0,0,0,0,0,0,0,0,0,0,0,0,0,0,0,0,0,0,0,0,0,0,0,0,0,0,0,0,0,0,0,0,0,0,0,0,0,0,0,0,0,0,0,0,0,0,0,0,0,0,0,0,0,0,0,0,0,0,0,0,0,0,0,0,0,0,0,0,0,0,0,0,0,0,0,0,0,0,0,0,0,0,0,0,0,0,0,0,0,0,0,0,0,0,0,0,0,0,0,0,0,0,0,0,0,0,0,0,0,0,0,0,0,0,0,0,0,0,0,0,0,0,0,0,0,0,0,0,0,0,0,0,0,0,0,0,0,0,0,0,0,0,0,0,0,0,0,0,0,0,0,0,0,0,0,0,0,0,0,0,0,0,0,0,0,0,0,0,0,0,0,0,0,0,0,0,0,0,0,0,0,0,0,0,0,0,0,0,0,0,0,0,0,0,0,0,0,0,0,0,0,0,0,0,0,0,0,0,0,0,0,0,0,0,0,0,0,0,0,0,0,0,0,0,0,0,0,0,0,0,0,0,0,0,0,0,0,0,0,0,0,0,0,0,0,0,0,0,0,0,0,0,0,0],"trees":[{"base_weights":[-0.014954709,-0.3161284,0.24442807,-0.005092526,-0.0013640955,0.0006693314,0.0046894853],"categories":[],"categories_nodes":[],"categories_segments":[],"categories_sizes":[],"default_left":[0,0,0,0,0,0,0],"id":0,"left_children":[1,3,5,-1,-1,-1,-1],"loss_changes":[491.66077,99.777954,133.82806,0.0,0.0,0.0,0.0],"parents":[2147483647,0,0,1,1,2,2],"right_children":[2,4,6,-1,-1,-1,-1],"split_conditions":[0.00033403691,0.011272664,0.012744798,-0.005092526,-0.0013640955,0.0006693314,0.0046894853],"split_indices":[1,3,3,0,0,0,0],"split_type":[0,0,0,0,0,0,0],"sum_hessian":[6272.91,2903.3958,3369.5142,1387.9824,1515.4135,1891.5679,1477.9462],"tree_param":{"num_deleted":"0","num_feature":"4","num_nodes":"7","size_leaf_vector":"1"}},{"base_weights":[0.019828238,-0.26692793,0.2674925,-0.0046943338,-0.0005978895,0.0012499674,0.0059193172],"categories":[],"categories_nodes":[],"categories_segments":[],"categories_sizes":[],"default_left":[0,0,0,0,0,0,0],"id":1,"left_children":[1,3,5,-1,-1,-1,-1],"loss_changes":[446.52246,121.347015,154.5778,0.0,0.0,0.0,0.0],"parents":[2147483647,0,0,1,1,2,2],"right_children":[2,4,6,-1,-1,-1,-1],"split_conditions":[0.00039381348,0.011786079,0.015164792,-0.0046943338,-0.0005978895,0.0012499674,0.0059193172],"split_indices":[1,3,3,0,0,0,0],"split_type":[0,0,0,0,0,0,0],"sum_hessian":[6267.2817,2902.189,3365.093,1458.664,1443.525,2349.9258,1015.1672],"tree_param":{"num_deleted":"0","num_feature":"4","num_nodes":"7","size_leaf_vector":"1"}},{"base_weights":[-0.007662799,-0.274884,0.22193174,-0.006852607,-0.0018465356,0.004223223,0.00051995454],"categories":[],"categories_nodes":[],"categories_segments":[],"categories_sizes":[],"default_left":[0,0,0,0,0,0,0],"id":2,"left_children":[1,3,5,-1,-1,-1,-1],"loss_changes":[383.51596,104.88756,113.72395,0.0,0.0,0.0,0.0],"parents":[2147483647,0,0,1,1,2,2],"right_children":[2,4,6,-1,-1,-1,-1],"split_conditions":[0.00039381348,0.0031225611,0.00016853427,-0.006852607,-0.0018465356,0.004223223,0.00051995454],"split_indices":[1,3,2,0,0,0,0],"split_type":[0,0,0,0,0,0,0],"sum_hessian":[6230.2153,2880.2844,3349.9312,505.26443,2375.0198,1527.7072,1822.2239],"tree_param":{"num_deleted":"0","num_feature":"4","num_nodes":"7","size_leaf_vector":"1"}},{"base_weights":[0.011945161,-0.26081675,0.26751816,-0.0057099983,-0.0018407723,0.004830704,0.00083472143],"categories":[],"categories_nodes":[],"categories_segments":[],"categories_sizes":[],"default_left":[0,0,0,0,0,0,0],"id":3,"left_children":[1,3,5,-1,-1,-1,-1],"loss_changes":[436.66724,70.27945,127.38788,0.0,0.0,0.0,0.0],"parents":[2147483647,0,0,1,1,2,2],"right_children":[2,4,6,-1,-1,-1,-1],"split_conditions":[0.0007689466,0.0031225611,0.00025481646,-0.0057099983,-0.0018407723,0.004830704,0.00083472143],"split_indices":[1,3,2,0,0,0,0],"split_type":[0,0,0,0,0,0,0],"sum_hessian":[6243.897,3018.3867,3225.5103,583.2869,2435.0999,1475.6122,1749.8982],"tree_param":{"num_deleted":"0","num_feature":"4","num_nodes":"7","size_leaf_vector":"1"}},{"base_weights":[-0.003908577,-0.28506052,0.2604016,-0.0061163446,-0.0020421827,0.0013026353,0.005497286],"categories":[],"categories_nodes":[],"categories_segments":[],"categories_sizes":[],"default_left":[0,0,0,0,0,0,0],"id":4,"left_children":[1,3,5,-1,-1,-1,-1],"loss_changes":[468.2797,78.59317,120.82953,0.0,0.0,0.0,0.0],"parents":[2147483647,0,0,1,1,2,2],"right_children":[2,4,6,-1,-1,-1,-1],"split_conditions":[0.0008419197,0.0031225611,0.015342384,-0.0061163446,-0.0020421827,0.0013026353,0.005497286],"split_indices":[1,3,3,0,0,0,0],"split_type":[0,0,0,0,0,0,0],"sum_hessian":[6281.2715,3045.118,3236.1533,588.7498,2456.3682,2244.5312,991.6222],"tree_param":{"num_deleted":"0","num_feature":"4","num_nodes":"7","size_leaf_vector":"1"}},{"base_weights":[0.008357092,-0.27090392,0.2717032,-0.004015878,-0.00067540846,0.0047265408,0.00051598396],"categories":[],"categories_nodes":[],"categories_segments":[],"categories_sizes":[],"default_left":[0,0,0,0,0,0,0],"id":5,"left_children":[1,3,5,-1,-1,-1,-1],"loss_changes":[463.33633,80.477844,142.72403,0.0,0.0,0.0,0.0],"parents":[2147483647,0,0,1,1,2,2],"right_children":[2,4,6,-1,-1,-1,-1],"split_conditions":[0.00093428517,0.013216808,0.0014548799,-0.004015878,-0.00067540846,0.0047265408,0.00051598396],"split_indices":[1,3,2,0,0,0,0],"split_type":[0,0,0,0,0,0,0],"sum_hessian":[6280.25,3046.0417,3234.2083,1845.4597,1200.5822,1682.2938,1551.9144],"tree_param":{"num_deleted":"0","num_feature":"4","num_nodes":"7","size_leaf_vector":"1"}},{"base_weights":[0.0048551885,-0.26679465,0.2586212,-0.006172442,-0.0018143175,0.004468009,0.0007554463],"categories":[],"categories_nodes":[],"categories_segments":[],"categories_sizes":[],"default_left":[0,0,0,0,0,0,0],"id":6,"left_children":[1,3,5,-1,-1,-1,-1],"loss_changes":[435.7275,89.35536,111.790344,0.0,0.0,0.0,0.0],"parents":[2147483647,0,0,1,1,2,2],"right_children":[2,4,6,-1,-1,-1,-1],"split_conditions":[0.0008419197,0.0031225611,0.0008233668,-0.006172442,-0.0018143175,0.004468009,0.0007554463],"split_indices":[1,3,2,0,0,0,0],"split_type":[0,0,0,0,0,0,0],"sum_hessian":[6300.9097,3041.07,3259.8396,581.1577,2459.9124,1597.7184,1662.1212],"tree_param":{"num_deleted":"0","num_feature":"4","num_nodes":"7","size_leaf_vector":"1"}},{"base_weights":[-0.006795776,-0.27201647,0.24681222,-0.0057688784,-0.0019884082,0.0011705585,0.005425797],"categories":[],"categories_nodes":[],"categories_segments":[],"categories_sizes":[],"default_left":[0,0,0,0,0,0,0],"id":7,"left_children":[1,3,5,-1,-1,-1,-1],"loss_changes":[425.3644,67.07588,122.69545,0.0,0.0,0.0,0.0],"parents":[2147483647,0,0,1,1,2,2],"right_children":[2,4,6,-1,-1,-1,-1],"split_conditions":[0.0008419197,0.0031225611,0.015342384,-0.0057688784,-0.0019884082,0.0011705585,0.005425797],"split_indices":[1,3,3,0,0,0,0],"split_type":[0,0,0,0,0,0,0],"sum_hessian":[6303.628,3082.841,3220.7869,580.7526,2502.0884,2250.7134,970.0734],"tree_param":{"num_deleted":"0","num_feature":"4","num_nodes":"7","size_leaf_vector":"1"}},{"base_weights":[-0.0071894107,-0.2802204,0.2489016,0.0051147537,-0.0030934303,0.0044436427,0.00060643087],"categories":[],"categories_nodes":[],"categories_segments":[],"categories_sizes":[],"default_left":[0,0,0,0,0,0,0],"id":8,"left_children":[1,3,5,-1,-1,-1,-1],"loss_changes":[438.41513,71.384964,118.20961,0.0,0.0,0.0,0.0],"parents":[2147483647,0,0,1,1,2,2],"right_children":[2,4,6,-1,-1,-1,-1],"split_conditions":[0.0008419197,-0.022613384,0.0007548279,0.0051147537,-0.0030934303,0.0044436427,0.00060643087],"split_indices":[1,2,2,0,0,0,0],"split_type":[0,0,0,0,0,0,0],"sum_hessian":[6249.7456,3026.2632,3223.4824,100.27704,2925.986,1572.2014,1651.2811],"tree_param":{"num_deleted":"0","num_feature":"4","num_nodes":"7","size_leaf_vector":"1"}},{"base_weights":[0.006934357,-0.2737486,0.24152273,-0.0064871586,-0.001943657,0.0009713217,0.0047140336],"categories":[],"categories_nodes":[],"categories_segments":[],"categories_sizes":[],"default_left":[0,0,0,0,0,0,0],"id":9,"left_children":[1,3,5,-1,-1,-1,-1],"loss_changes":[413.05478,82.85948,112.46599,0.0,0.0,0.0,0.0],"parents":[2147483647,0,0,1,1,2,2],"right_children":[2,4,6,-1,-1,-1,-1],"split_conditions":[0.00028715373,0.0031225611,0.013632054,-0.0064871586,-0.001943657,0.0009713217,0.0047140336],"split_indices":[1,3,3,0,0,0,0],"split_type":[0,0,0,0,0,0,0],"sum_hessian":[6253.59,2844.3806,3409.2092,482.23132,2362.1494,2105.3752,1303.8339],"tree_param":{"num_deleted":"0","num_feature":"4","num_nodes":"7","size_leaf_vector":"1"}},{"base_weights":[-0.0020406318,-0.27346453,0.25015074,-0.0039832145,-0.0008545875,0.004689586,0.0004760256],"categories":[],"categories_nodes":[],"categories_segments":[],"categories_sizes":[],"default_left":[0,0,0,0,0,0,0],"id":10,"left_children":[1,3,5,-1,-1,-1,-1],"loss_changes":[428.7211,70.02652,143.05727,0.0,0.0,0.0,0.0],"parents":[2147483647,0,0,1,1,2,2],"right_children":[2,4,6,-1,-1,-1,-1],"split_conditions":[0.0008419197,0.013143833,0.0006110832,-0.0039832145,-0.0008545875,0.004689586,0.0004760256],"split_indices":[1,3,2,0,0,0,0],"split_type":[0,0,0,0,0,0,0],"sum_hessian":[6242.869,3008.2869,3234.582,1797.8245,1210.4624,1546.1855,1688.3965],"tree_param":{"num_deleted":"0","num_feature":"4","num_nodes":"7","size_leaf_vector":"1"}},{"base_weights":[-0.009828093,-0.2776245,0.21574147,-0.0062769693,-0.002002705,0.0042017377,0.0002052616],"categories":[],"categories_nodes":[],"categories_segments":[],"categories_sizes":[],"default_left":[0,0,0,0,0,0,0],"id":11,"left_children":[1,3,5,-1,-1,-1,-1],"loss_changes":[379.7672,75.78946,135.56538,0.0,0.0,0.0,0.0],"parents":[2147483647,0,0,1,1,2,2],"right_children":[2,4,6,-1,-1,-1,-1],"split_conditions":[0.00039381348,0.0031225611,0.00055933825,-0.0062769693,-0.002002705,0.0042017377,0.0002052616],"split_indices":[1,3,2,0,0,0,0],"split_type":[0,0,0,0,0,0,0],"sum_hessian":[6265.898,2865.774,3400.1238,503.42145,2362.3525,1652.7225,1747.4014],"tree_param":{"num_deleted":"0","num_feature":"4","num_nodes":"7","size_leaf_vector":"1"}},{"base_weights":[-0.004004578,-0.27179283,0.22123076,-0.0041453973,-0.00078324135,0.00085238065,0.0043360423],"categories":[],"categories_nodes":[],"categories_segments":[],"categories_sizes":[],"default_left":[0,0,0,0,0,0,0],"id":12,"left_children":[1,3,5,-1,-1,-1,-1],"loss_changes":[379.8601,78.6848,97.83774,0.0,0.0,0.0,0.0],"parents":[2147483647,0,0,1,1,2,2],"right_children":[2,4,6,-1,-1,-1,-1],"split_conditions":[0.00033403691,0.012939464,0.013632054,-0.0041453973,-0.00078324135,0.00085238065,0.0043360423],"split_indices":[1,3,3,0,0,0,0],"split_type":[0,0,0,0,0,0,0],"sum_hessian":[6277.0903,2868.741,3408.3494,1641.2114,1227.5295,2089.2358,1319.1135],"tree_param":{"num_deleted":"0","num_feature":"4","num_nodes":"7","size_leaf_vector":"1"}},{"base_weights":[0.009222115,-0.25351486,0.25172985,-0.0035754822,-0.0004674021,0.0044461465,0.000662867],"categories":[],"categories_nodes":[],"categories_segments":[],"categories_sizes":[],"default_left":[0,0,0,0,0,0,0],"id":13,"left_children":[1,3,5,-1,-1,-1,-1],"loss_changes":[402.80786,64.66481,116.85129,0.0,0.0,0.0,0.0],"parents":[2147483647,0,0,1,1,2,2],"right_children":[2,4,6,-1,-1,-1,-1],"split_conditions":[0.0007689466,0.014597327,0.0008233668,-0.0035754822,-0.0004674021,0.0044461465,0.000662867],"split_indices":[1,3,2,0,0,0,0],"split_type":[0,0,0,0,0,0,0],"sum_hessian":[6301.964,3022.6243,3279.3396,2002.8257,1019.79865,1597.924,1681.4156],"tree_param":{"num_deleted":"0","num_feature":"4","num_nodes":"7","size_leaf_vector":"1"}},{"base_weights":[-0.008631525,-0.26925328,0.20937018,-0.004071875,-0.00060784083,0.003920203,0.00027954747],"categories":[],"categories_nodes":[],"categories_segments":[],"categories_sizes":[],"default_left":[0,0,0,0,0,0,0],"id":14,"left_children":[1,3,5,-1,-1,-1,-1],"loss_changes":[357.70923,81.78592,112.98753,0.0,0.0,0.0,0.0],"parents":[2147483647,0,0,1,1,2,2],"right_children":[2,4,6,-1,-1,-1,-1],"split_conditions":[0.00033403691,0.013561825,0.0007548279,-0.004071875,-0.00060784083,0.003920203,0.00027954747],"split_indices":[1,3,2,0,0,0,0],"split_type":[0,0,0,0,0,0,0],"sum_hessian":[6274.9497,2859.11,3415.8396,1712.0189,1147.0913,1693.596,1722.2437],"tree_param":{"num_deleted":"0","num_feature":"4","num_nodes":"7","size_leaf_vector":"1"}},{"base_weights":[-0.019108957,-0.2957481,0.21214654,-0.0067008976,-0.0021448953,0.009929541,0.0015355988],"categories":[],"categories_nodes":[],"categories_segments":[],"categories_sizes":[],"default_left":[0,0,0,0,0,0,0],"id":15,"left_children":[1,3,5,-1,-1,-1,-1],"loss_changes":[403.74808,85.12105,154.47691,0.0,0.0,0.0,0.0],"parents":[2147483647,0,0,1,1,2,2],"right_children":[2,4,6,-1,-1,-1,-1],"split_conditions":[0.00039381348,0.0031225611,-0.015043412,-0.0067008976,-0.0021448953,0.009929541,0.0015355988],"split_indices":[1,3,2,0,0,0,0],"split_type":[0,0,0,0,0,0,0],"sum_hessian":[6289.9814,2864.6648,3425.317,495.808,2368.8567,226.75183,3198.565],"tree_param":{"num_deleted":"0","num_feature":"4","num_nodes":"7","size_leaf_vector":"1"}},{"base_weights":[0.0038833516,-0.2677969,0.22657526,-0.0041262554,-0.0006212009,0.0006694465,0.004359873],"categories":[],"categories_nodes":[],"categories_segments":[],"categories_sizes":[],"default_left":[0,0,0,0,0,0,0],"id":16,"left_children":[1,3,5,-1,-1,-1,-1],"loss_changes":[378.97025,83.26883,114.35283,0.0,0.0,0.0,0.0],"parents":[2147483647,0,0,1,1,2,2],"right_children":[2,4,6,-1,-1,-1,-1],"split_conditions":[0.00028715373,0.01329797,0.01280475,-0.0041262554,-0.0006212009,0.0006694465,0.004359873],"split_indices":[1,3,3,0,0,0,0],"split_type":[0,0,0,0,0,0,0],"sum_hessian":[6244.521,2809.9343,3434.587,1640.1138,1169.8206,1959.1432,1475.4436],"tree_param":{"num_deleted":"0","num_feature":"4","num_nodes":"7","size_leaf_vector":"1"}},{"base_weights":[-0.008235865,-0.23950833,0.20457494,-0.003515149,-0.0004452993,0.00377741,0.00044288734],"categories":[],"categories_nodes":[],"categories_segments":[],"categories_sizes":[],"default_left":[0,0,0,0,0,0,0],"id":17,"left_children":[1,3,5,-1,-1,-1,-1],"loss_changes":[311.11462,65.64052,90.71741,0.0,0.0,0.0,0.0],"parents":[2147483647,0,0,1,1,2,2],"right_children":[2,4,6,-1,-1,-1,-1],"split_conditions":[0.0007689466,0.0139275,0.0006110832,-0.003515149,-0.0004452993,0.00377741,0.00044288734],"split_indices":[1,3,2,0,0,0,0],"split_type":[0,0,0,0,0,0,0],"sum_hessian":[6300.5825,3020.9766,3279.6062,1910.386,1110.5905,1566.9442,1712.6621],"tree_param":{"num_deleted":"0","num_feature":"4","num_nodes":"7","size_leaf_vector":"1"}},{"base_weights":[0.012275485,-0.23418573,0.23749731,-0.003817446,-0.00040061327,0.0040745107,0.00041306712],"categories":[],"categories_nodes":[],"categories_segments":[],"categories_sizes":[],"default_left":[0,0,0,0,0,0,0],"id":18,"left_children":[1,3,5,-1,-1,-1,-1],"loss_changes":[352.11594,86.13347,109.96181,0.0,0.0,0.0,0.0],"parents":[2147483647,0,0,1,1,2,2],"right_children":[2,4,6,-1,-1,-1,-1],"split_conditions":[0.0008419197,0.012545265,0.0016740379,-0.003817446,-0.00040061327,0.0040745107,0.00041306712],"split_indices":[1,3,2,0,0,0,0],"split_type":[0,0,0,0,0,0,0],"sum_hessian":[6323.3867,3017.0156,3306.371,1705.6735,1311.3422,1763.1471,1543.224],"tree_param":{"num_deleted":"0","num_feature":"4","num_nodes":"7","size_leaf_vector":"1"}},{"base_weights":[0.0037097163,-0.21555473,0.24489078,-0.005325826,-0.0015748354,0.0041551027,0.00046116262],"categories":[],"categories_nodes":[],"categories_segments":[],"categories_sizes":[],"default_left":[0,0,0,0,0,0,0],"id":19,"left_children":[1,3,5,-1,-1,-1,-1],"loss_changes":[334.61752,59.44586,101.60094,0.0,0.0,0.0,0.0],"parents":[2147483647,0,0,1,1,2,2],"right_children":[2,4,6,-1,-1,-1,-1],"split_conditions":[0.0020756363,0.0019866175,0.0018356172,-0.005325826,-0.0015748354,0.0041551027,0.00046116262],"split_indices":[1,3,2,0,0,0,0],"split_type":[0,0,0,0,0,0,0],"sum_hessian":[6307.038,3302.0073,3005.0308,495.886,2806.1213,1608.4619,1396.5688],"tree_param":{"num_deleted":"0","num_feature":"4","num_nodes":"7","size_leaf_vector":"1"}},{"base_weights":[0.00512402,-0.2568477,0.22492126,-0.0060992953,-0.0018019096,0.0011433417,0.004759588],"categories":[],"categories_nodes":[],"categories_segments":[],"categories_sizes":[],"default_left":[0,0,0,0,0,0,0],"id":20,"left_children":[1,3,5,-1,-1,-1,-1],"loss_changes":[364.53665,76.24007,94.49846,0.0,0.0,0.0,0.0],"parents":[2147483647,0,0,1,1,2,2],"right_children":[2,4,6,-1,-1,-1,-1],"split_conditions":[0.00039381348,0.0031225611,0.015250349,-0.0060992953,-0.0018019096,0.0011433417,0.004759588],"split_indices":[1,3,3,0,0,0,0],"split_type":[0,0,0,0,0,0,0],"sum_hessian":[6311.4087,2876.6064,3434.8025,498.39273,2378.2136,2397.287,1037.5153],"tree_param":{"num_deleted":"0","num_feature":"4","num_nodes":"7","size_leaf_vector":"1"}},{"base_weights":[0.0052550845,-0.22942221,0.26371866,-0.0037662126,-0.00076265587,0.0044317357,0.0005557884],"categories":[],"categories_nodes":[],"categories_segments":[],"categories_sizes":[],"default_left":[0,0,0,0,0,0,0],"id":21,"left_children":[1,3,5,-1,-1,-1,-1],"loss_changes":[378.57986,72.95921,110.25957,0.0,0.0,0.0,0.0],"parents":[2147483647,0,0,1,1,2,2],"right_children":[2,4,6,-1,-1,-1,-1],"split_conditions":[0.0020756363,0.011159253,0.0018356172,-0.0037662126,-0.00076265587,0.0044317357,0.0005557884],"split_indices":[1,3,2,0,0,0,0],"split_type":[0,0,0,0,0,0,0],"sum_hessian":[6220.933,3259.0586,2961.8745,1651.0817,1607.9768,1581.8936,1379.9808],"tree_param":{"num_deleted":"0","num_feature":"4","num_nodes":"7","size_leaf_vector":"1"}},{"base_weights":[0.0111520365,-0.23961368,0.24217689,-0.003345162,-0.00036592453,0.0041301623,0.0005477291],"categories":[],"categories_nodes":[],"categories_segments":[],"categories_sizes":[],"default_left":[0,0,0,0,0,0,0],"id":22,"left_children":[1,3,5,-1,-1,-1,-1],"loss_changes":[364.0288,57.52388,104.07341,0.0,0.0,0.0,0.0],"parents":[2147483647,0,0,1,1,2,2],"right_children":[2,4,6,-1,-1,-1,-1],"split_conditions":[0.0008419197,0.015080019,0.0012225546,-0.003345162,-0.00036592453,0.0041301623,0.0005477291],"split_indices":[1,3,2,0,0,0,0],"split_type":[0,0,0,0,0,0,0],"sum_hessian":[6263.5444,3001.1973,3262.3472,2037.4066,963.7906,1697.5073,1564.8398],"tree_param":{"num_deleted":"0","num_feature":"4","num_nodes":"7","size_leaf_vector":"1"}},{"base_weights":[-0.0073484825,-0.23703484,0.21917929,-0.0055638687,-0.0015821878,0.0040491945,0.00030982206],"categories":[],"categories_nodes":[],"categories_segments":[],"categories_sizes":[],"default_left":[0,0,0,0,0,0,0],"id":23,"left_children":[1,3,5,-1,-1,-1,-1],"loss_changes":[330.5099,77.84195,111.15448,0.0,0.0,0.0,0.0],"parents":[2147483647,0,0,1,1,2,2],"right_children":[2,4,6,-1,-1,-1,-1],"split_conditions":[0.0012914363,0.0031225611,0.0010174512,-0.0055638687,-0.0015821878,0.0040491945,0.00030982206],"split_indices":[1,3,2,0,0,0,0],"split_type":[0,0,0,0,0,0,0],"sum_hessian":[6331.9253,3146.005,3185.9204,608.23553,2537.7693,1594.9565,1590.964],"tree_param":{"num_deleted":"0","num_feature":"4","num_nodes":"7","size_leaf_vector":"1"}},{"base_weights":[-0.0031131445,-0.23581329,0.20857458,-0.0037144225,-0.0005616039,0.0038313922,0.0003936705],"categories":[],"categories_nodes":[],"categories_segments":[],"categories_sizes":[],"default_left":[0,0,0,0,0,0,0],"id":24,"left_children":[1,3,5,-1,-1,-1,-1],"loss_changes":[310.67148,72.61374,96.902176,0.0,0.0,0.0,0.0],"parents":[2147483647,0,0,1,1,2,2],"right_children":[2,4,6,-1,-1,-1,-1],"split_conditions":[0.0008419197,0.012679282,0.0006829862,-0.0037144225,-0.0005616039,0.0038313922,0.0003936705],"split_indices":[1,3,2,0,0,0,0],"split_type":[0,0,0,0,0,0,0],"sum_hessian":[6286.2627,2996.219,3290.0437,1698.0409,1298.1781,1610.255,1679.7887],"tree_param":{"num_deleted":"0","num_feature":"4","num_nodes":"7","size_leaf_vector":"1"}},{"base_weights":[0.004491995,-0.24171335,0.20868908,-0.0062546013,-0.0016265955,0.00090500084,0.004672571],"categories":[],"categories_nodes":[],"categories_segments":[],"categories_sizes":[],"default_left":[0,0,0,0,0,0,0],"id":25,"left_children":[1,3,5,-1,-1,-1,-1],"loss_changes":[313.90204,84.01308,103.39734,0.0,0.0,0.0,0.0],"parents":[2147483647,0,0,1,1,2,2],"right_children":[2,4,6,-1,-1,-1,-1],"split_conditions":[0.00033403691,0.0029308428,0.015080019,-0.0062546013,-0.0016265955,0.00090500084,0.004672571],"split_indices":[1,3,3,0,0,0,0],"split_type":[0,0,0,0,0,0,0],"sum_hessian":[6224.3965,2818.8757,3405.5208,467.5421,2351.3335,2349.1255,1056.3954],"tree_param":{"num_deleted":"0","num_feature":"4","num_nodes":"7","size_leaf_vector":"1"}},{"base_weights":[0.004007065,-0.22337599,0.19509378,-0.0060711387,-0.0013947686,0.0006206461,0.0048199664],"categories":[],"categories_nodes":[],"categories_segments":[],"categories_sizes":[],"default_left":[0,0,0,0,0,0,0],"id":26,"left_children":[1,3,5,-1,-1,-1,-1],"loss_changes":[274.38885,91.18219,130.22179,0.0,0.0,0.0,0.0],"parents":[2147483647,0,0,1,1,2,2],"right_children":[2,4,6,-1,-1,-1,-1],"split_conditions":[0.00047219862,0.0031225611,0.015001935,-0.0060711387,-0.0013947686,0.0006206461,0.0048199664],"split_indices":[1,3,3,0,0,0,0],"split_type":[0,0,0,0,0,0,0],"sum_hessian":[6295.6875,2871.6516,3424.0361,501.8784,2369.7732,2350.0361,1073.9999],"tree_param":{"num_deleted":"0","num_feature":"4","num_nodes":"7","size_leaf_vector":"1"}},{"base_weights":[0.0061919657,-0.23450229,0.19991173,-0.005645326,-0.0016531928,0.0005887938,0.003827471],"categories":[],"categories_nodes":[],"categories_segments":[],"categories_sizes":[],"default_left":[0,0,0,0,0,0,0],"id":27,"left_children":[1,3,5,-1,-1,-1,-1],"loss_changes":[293.91644,62.475723,89.45708,0.0,0.0,0.0,0.0],"parents":[2147483647,0,0,1,1,2,2],"right_children":[2,4,6,-1,-1,-1,-1],"split_conditions":[0.00028715373,0.0031225611,0.012874907,-0.005645326,-0.0016531928,0.0005887938,0.003827471],"split_indices":[1,3,3,0,0,0,0],"split_type":[0,0,0,0,0,0,0],"sum_hessian":[6284.223,2799.105,3485.1182,470.16714,2328.9377,1978.0299,1507.0884],"tree_param":{"num_deleted":"0","num_feature":"4","num_nodes":"7","size_leaf_vector":"1"}},{"base_weights":[0.01072852,-0.22278713,0.23062994,-0.0051101916,-0.0015226807,0.008038714,0.001862681],"categories":[],"categories_nodes":[],"categories_segments":[],"categories_sizes":[],"default_left":[0,0,0,0,0,0,0],"id":28,"left_children":[1,3,5,-1,-1,-1,-1],"loss_changes":[322.9899,60.521606,79.93828,0.0,0.0,0.0,0.0],"parents":[2147483647,0,0,1,1,2,2],"right_children":[2,4,6,-1,-1,-1,-1],"split_conditions":[0.001101729,0.0031225611,-0.015043412,-0.0051101916,-0.0015226807,0.008038714,0.001862681],"split_indices":[1,3,2,0,0,0,0],"split_type":[0,0,0,0,0,0,0],"sum_hessian":[6269.759,3038.483,3231.276,582.20276,2456.2803,218.18248,3013.0933],"tree_param":{"num_deleted":"0","num_feature":"4","num_nodes":"7","size_leaf_vector":"1"}},{"base_weights":[-0.0,-0.23176134,0.1884629,-0.0061099557,-0.0015163211,0.0004535805,0.0037521627],"categories":[],"categories_nodes":[],"categories_segments":[],"categories_sizes":[],"default_left":[0,0,0,0,0,0,0],"id":29,"left_children":[1,3,5,-1,-1,-1,-1],"loss_changes":[275.77902,84.30748,92.53977,0.0,0.0,0.0,0.0],"parents":[2147483647,0,0,1,1,2,2],"right_children":[2,4,6,-1,-1,-1,-1],"split_conditions":[0.00033403691,0.0031225611,0.012874907,-0.0061099557,-0.0015163211,0.0004535805,0.0037521627],"split_indices":[1,3,3,0,0,0,0],"split_type":[0,0,0,0,0,0,0],"sum_hessian":[6294.7075,2819.9758,3474.732,478.16995,2341.806,1977.3314,1497.4005],"tree_param":{"num_deleted":"0","num_feature":"4","num_nodes":"7","size_leaf_vector":"1"}},{"base_weights":[-0.001574067,-0.22299045,0.18560025,-0.0035695392,-0.00047704752,0.00060211733,0.0041557946],"categories":[],"categories_nodes":[],"categories_segments":[],"categories_sizes":[],"default_left":[0,0,0,0,0,0,0],"id":30,"left_children":[1,3,5,-1,-1,-1,-1],"loss_changes":[260.31256,67.038315,97.344345,0.0,0.0,0.0,0.0],"parents":[2147483647,0,0,1,1,2,2],"right_children":[2,4,6,-1,-1,-1,-1],"split_conditions":[0.00047219862,0.012679282,0.014337821,-0.0035695392,-0.00047704752,0.00060211733,0.0041557946],"split_indices":[1,3,3,0,0,0,0],"split_type":[0,0,0,0,0,0,0],"sum_hessian":[6260.2607,2869.3796,3390.881,1617.2866,1252.093,2205.4172,1185.4639],"tree_param":{"num_deleted":"0","num_feature":"4","num_nodes":"7","size_leaf_vector":"1"}},{"base_weights":[0.006986023,-0.22589588,0.19679989,-0.005719113,-0.0015314664,0.0036208397,0.0004745424],"categories":[],"categories_nodes":[],"categories_segments":[],"categories_sizes":[],"default_left":[0,0,0,0,0,0,0],"id":31,"left_children":[1,3,5,-1,-1,-1,-1],"loss_changes":[278.4146,69.54596,85.13751,0.0,0.0,0.0,0.0],"parents":[2147483647,0,0,1,1,2,2],"right_children":[2,4,6,-1,-1,-1,-1],"split_conditions":[0.00039381348,0.0031225611,0.00033826672,-0.005719113,-0.0015314664,0.0036208397,0.0004745424],"split_indices":[1,3,2,0,0,0,0],"split_type":[0,0,0,0,0,0,0],"sum_hessian":[6278.9736,2816.3884,3462.5852,474.96478,2341.4236,1633.6494,1828.9358],"tree_param":{"num_deleted":"0","num_feature":"4","num_nodes":"7","size_leaf_vector":"1"}},{"base_weights":[0.0012665343,-0.22889401,0.1878469,-0.0035368684,-0.0005498447,0.0005889803,0.0036752943],"categories":[],"categories_nodes":[],"categories_segments":[],"categories_sizes":[],"default_left":[0,0,0,0,0,0,0],"id":32,"left_children":[1,3,5,-1,-1,-1,-1],"loss_changes":[269.5784,60.3506,79.75382,0.0,0.0,0.0,0.0],"parents":[2147483647,0,0,1,1,2,2],"right_children":[2,4,6,-1,-1,-1,-1],"split_conditions":[0.00039381348,0.013070688,0.013216808,-0.0035368684,-0.0005498447,0.0005889803,0.0036752943],"split_indices":[1,3,3,0,0,0,0],"split_type":[0,0,0,0,0,0,0],"sum_hessian":[6258.466,2798.5823,3459.8835,1620.0151,1178.567,2025.2847,1434.5989],"tree_param":{"num_deleted":"0","num_feature":"4","num_nodes":"7","size_leaf_vector":"1"}},{"base_weights":[0.006343093,-0.20006083,0.20151211,-0.005055798,-0.0012906222,0.008735584,0.0015608813],"categories":[],"categories_nodes":[],"categories_segments":[],"categories_sizes":[],"default_left":[0,0,0,0,0,0,0],"id":33,"left_children":[1,3,5,-1,-1,-1,-1],"loss_changes":[253.1753,64.91805,96.289505,0.0,0.0,0.0,0.0],"parents":[2147483647,0,0,1,1,2,2],"right_children":[2,4,6,-1,-1,-1,-1],"split_conditions":[0.001101729,0.0029308428,-0.016622925,-0.005055798,-0.0012906222,0.008735584,0.0015608813],"split_indices":[1,3,2,0,0,0,0],"split_type":[0,0,0,0,0,0,0],"sum_hessian":[6264.7715,3042.1382,3222.6333,559.4474,2482.691,191.09296,3031.5403],"tree_param":{"num_deleted":"0","num_feature":"4","num_nodes":"7","size_leaf_vector":"1"}},{"base_weights":[0.011461514,-0.2023729,0.20513237,-0.0050220853,-0.0013276128,0.0037111975,0.0004878348],"categories":[],"categories_nodes":[],"categories_segments":[],"categories_sizes":[],"default_left":[0,0,0,0,0,0,0],"id":34,"left_children":[1,3,5,-1,-1,-1,-1],"loss_changes":[259.6516,60.84556,84.83563,0.0,0.0,0.0,0.0],"parents":[2147483647,0,0,1,1,2,2],"right_children":[2,4,6,-1,-1,-1,-1],"split_conditions":[0.0008419197,0.0031225611,0.00055933825,-0.0050220853,-0.0013276128,0.0037111975,0.0004878348],"split_indices":[1,3,2,0,0,0,0],"split_type":[0,0,0,0,0,0,0],"sum_hessian":[6249.6436,2967.5366,3282.107,544.73016,2422.8066,1582.2173,1699.8898],"tree_param":{"num_deleted":"0","num_feature":"4","num_nodes":"7","size_leaf_vector":"1"}},{"base_weights":[-0.0034672301,-0.2126949,0.22597787,0.0063744127,-0.0024536937,0.0075688013,0.0018415549],"categories":[],"categories_nodes":[],"categories_segments":[],"categories_sizes":[],"default_left":[0,0,0,0,0,0,0],"id":35,"left_children":[1,3,5,-1,-1,-1,-1],"loss_changes":[301.486,92.48103,64.12662,0.0,0.0,0.0,0.0],"parents":[2147483647,0,0,1,1,2,2],"right_children":[2,4,6,-1,-1,-1,-1],"split_conditions":[0.0020756363,-0.022613384,-0.015043412,0.0063744127,-0.0024536937,0.0075688013,0.0018415549],"split_indices":[1,2,2,0,0,0,0],"split_type":[0,0,0,0,0,0,0],"sum_hessian":[6260.404,3277.1272,2983.2764,113.309395,3163.8176,203.61812,2779.6584],"tree_param":{"num_deleted":"0","num_feature":"4","num_nodes":"7","size_leaf_vector":"1"}},{"base_weights":[-0.007395461,-0.20562181,0.1779401,-0.003515534,-0.0005867178,0.007798132,0.0013920479],"categories":[],"categories_nodes":[],"categories_segments":[],"categories_sizes":[],"default_left":[0,0,0,0,0,0,0],"id":36,"left_children":[1,3,5,-1,-1,-1,-1],"loss_changes":[230.23933,64.3663,73.43934,0.0,0.0,0.0,0.0],"parents":[2147483647,0,0,1,1,2,2],"right_children":[2,4,6,-1,-1,-1,-1],"split_conditions":[0.001101729,0.011272664,-0.016622925,-0.003515534,-0.0005867178,0.007798132,0.0013920479],"split_indices":[1,3,2,0,0,0,0],"split_type":[0,0,0,0,0,0,0],"sum_hessian":[6246.2827,3020.2566,3226.026,1504.9792,1515.2775,181.93697,3044.0889],"tree_param":{"num_deleted":"0","num_feature":"4","num_nodes":"7","size_leaf_vector":"1"}},{"base_weights":[-0.0005729746,-0.1922309,0.2068455,-0.004960811,-0.0013592675,0.0009867282,0.004309927],"categories":[],"categories_nodes":[],"categories_segments":[],"categories_sizes":[],"default_left":[0,0,0,0,0,0,0],"id":37,"left_children":[1,3,5,-1,-1,-1,-1],"loss_changes":[250.05327,54.670174,72.23425,0.0,0.0,0.0,0.0],"parents":[2147483647,0,0,1,1,2,2],"right_children":[2,4,6,-1,-1,-1,-1],"split_conditions":[0.0020756363,0.0019866175,0.015342384,-0.004960811,-0.0013592675,0.0009867282,0.004309927],"split_indices":[1,3,3,0,0,0,0],"split_type":[0,0,0,0,0,0,0],"sum_hessian":[6270.4766,3261.943,3008.5332,494.9633,2766.98,2041.9558,966.5774],"tree_param":{"num_deleted":"0","num_feature":"4","num_nodes":"7","size_leaf_vector":"1"}},{"base_weights":[0.020006504,-0.21106319,0.19377226,-0.0036565524,-7.697582e-05,0.0033501503,0.00044582866],"categories":[],"categories_nodes":[],"categories_segments":[],"categories_sizes":[],"default_left":[0,0,0,0,0,0,0],"id":38,"left_children":[1,3,5,-1,-1,-1,-1],"loss_changes":[252.0444,84.24689,75.01416,0.0,0.0,0.0,0.0],"parents":[2147483647,0,0,1,1,2,2],"right_children":[2,4,6,-1,-1,-1,-1],"split_conditions":[0.00013123588,0.013216808,0.0008727801,-0.0036565524,-7.697582e-05,0.0033501503,0.00044582866],"split_indices":[1,3,2,0,0,0,0],"split_type":[0,0,0,0,0,0,0],"sum_hessian":[6257.5015,2682.4888,3575.013,1516.6682,1165.8204,1826.5736,1748.4393],"tree_param":{"num_deleted":"0","num_feature":"4","num_nodes":"7","size_leaf_vector":"1"}},{"base_weights":[-0.0064884415,-0.21613064,0.17958197,-0.005046966,-0.0015059313,0.003543765,0.00023447286],"categories":[],"categories_nodes":[],"categories_segments":[],"categories_sizes":[],"default_left":[0,0,0,0,0,0,0],"id":39,"left_children":[1,3,5,-1,-1,-1,-1],"loss_changes":[245.86522,54.671204,90.59297,0.0,0.0,0.0,0.0],"parents":[2147483647,0,0,1,1,2,2],"right_children":[2,4,6,-1,-1,-1,-1],"split_conditions":[0.0008419197,0.0031225611,0.00025481646,-0.005046966,-0.0015059313,0.003543765,0.00023447286],"split_indices":[1,3,2,0,0,0,0],"split_type":[0,0,0,0,0,0,0],"sum_hessian":[6282.0225,2955.675,3326.3474,531.81055,2423.8645,1560.3812,1765.9663],"tree_param":{"num_deleted":"0","num_feature":"4","num_nodes":"7","size_leaf_vector":"1"}},{"base_weights":[0.0042230445,-0.20099741,0.18887971,0.0056531504,-0.0023189564,0.0005046696,0.0034597972],"categories":[],"categories_nodes":[],"categories_segments":[],"categories_sizes":[],"default_left":[0,0,0,0,0,0,0],"id":40,"left_children":[1,3,5,-1,-1,-1,-1],"loss_changes":[239.94382,71.929665,71.957634,0.0,0.0,0.0,0.0],"parents":[2147483647,0,0,1,1,2,2],"right_children":[2,4,6,-1,-1,-1,-1],"split_conditions":[0.00093428517,-0.022613384,0.012744798,0.0056531504,-0.0023189564,0.0005046696,0.0034597972],"split_indices":[1,2,3,0,0,0,0],"split_type":[0,0,0,0,0,0,0],"sum_hessian":[6312.054,2986.5808,3325.4736,107.79568,2878.785,1778.2908,1547.1829],"tree_param":{"num_deleted":"0","num_feature":"4","num_nodes":"7","size_leaf_vector":"1"}},{"base_weights":[0.012114406,-0.18328543,0.18209733,0.006624201,-0.0021758685,0.00063424313,0.0038716586],"categories":[],"categories_nodes":[],"categories_segments":[],"categories_sizes":[],"default_left":[0,0,0,0,0,0,0],"id":41,"left_children":[1,3,5,-1,-1,-1,-1],"loss_changes":[208.51994,85.65055,81.06658,0.0,0.0,0.0,0.0],"parents":[2147483647,0,0,1,1,2,2],"right_children":[2,4,6,-1,-1,-1,-1],"split_conditions":[0.0007689466,-0.022613384,0.014175189,0.006624201,-0.0021758685,0.00063424313,0.0038716586],"split_indices":[1,2,3,0,0,0,0],"split_type":[0,0,0,0,0,0,0],"sum_hessian":[6257.941,2908.2107,3349.7302,105.08386,2803.1267,2133.2117,1216.5187],"tree_param":{"num_deleted":"0","num_feature":"4","num_nodes":"7","size_leaf_vector":"1"}},{"base_weights":[-0.0,-0.193962,0.20534407,-0.0045401747,-0.0012877798,0.0036607313,0.00035074825],"categories":[],"categories_nodes":[],"categories_segments":[],"categories_sizes":[],"default_left":[0,0,0,0,0,0,0],"id":42,"left_children":[1,3,5,-1,-1,-1,-1],"loss_changes":[249.49483,53.430862,82.75554,0.0,0.0,0.0,0.0],"parents":[2147483647,0,0,1,1,2,2],"right_children":[2,4,6,-1,-1,-1,-1],"split_conditions":[0.0020756363,0.0031225611,0.0012966614,-0.0045401747,-0.0012877798,0.0036607313,0.00035074825],"split_indices":[1,3,2,0,0,0,0],"split_type":[0,0,0,0,0,0,0],"sum_hessian":[6244.1055,3210.8628,3033.2427,628.4863,2582.3765,1551.3972,1481.8453],"tree_param":{"num_deleted":"0","num_feature":"4","num_nodes":"7","size_leaf_vector":"1"}},{"base_weights":[0.0043356647,-0.17826922,0.20024034,-0.0044320542,-0.0011330976,0.0033582004,0.00037597123],"categories":[],"categories_nodes":[],"categories_segments":[],"categories_sizes":[],"default_left":[0,0,0,0,0,0,0],"id":43,"left_children":[1,3,5,-1,-1,-1,-1],"loss_changes":[226.11856,55.19539,66.79244,0.0,0.0,0.0,0.0],"parents":[2147483647,0,0,1,1,2,2],"right_children":[2,4,6,-1,-1,-1,-1],"split_conditions":[0.0020756363,0.0031225611,0.001923556,-0.0044320542,-0.0011330976,0.0033582004,0.00037597123],"split_indices":[1,3,2,0,0,0,0],"split_type":[0,0,0,0,0,0,0],"sum_hessian":[6300.308,3258.666,3041.6423,627.1641,2631.502,1649.6746,1391.9678],"tree_param":{"num_deleted":"0","num_feature":"4","num_nodes":"7","size_leaf_vector":"1"}},{"base_weights":[-0.014142017,-0.23011282,0.15680133,-0.0055507594,-0.001627077,0.0027157848,-0.00042746193],"categories":[],"categories_nodes":[],"categories_segments":[],"categories_sizes":[],"default_left":[0,0,0,0,0,0,0],"id":44,"left_children":[1,3,5,-1,-1,-1,-1],"loss_changes":[233.51074,59.62088,81.13313,0.0,0.0,0.0,0.0],"parents":[2147483647,0,0,1,1,2,2],"right_children":[2,4,6,-1,-1,-1,-1],"split_conditions":[0.00033403691,0.0031225611,0.00358574,-0.0055507594,-0.001627077,0.0027157848,-0.00042746193],"split_indices":[1,3,2,0,0,0,0],"split_type":[0,0,0,0,0,0,0],"sum_hessian":[6303.2275,2785.8972,3517.33,463.61307,2322.2842,2233.8499,1283.4802],"tree_param":{"num_deleted":"0","num_feature":"4","num_nodes":"7","size_leaf_vector":"1"}},{"base_weights":[0.0019158679,-0.19640544,0.1582532,-0.003551008,-0.00016292285,0.00037890606,0.003983741],"categories":[],"categories_nodes":[],"categories_segments":[],"categories_sizes":[],"default_left":[0,0,0,0,0,0,0],"id":45,"left_children":[1,3,5,-1,-1,-1,-1],"loss_changes":[193.85562,78.28546,100.55997,0.0,0.0,0.0,0.0],"parents":[2147483647,0,0,1,1,2,2],"right_children":[2,4,6,-1,-1,-1,-1],"split_conditions":[0.00033403691,0.012424345,0.014759285,-0.003551008,-0.00016292285,0.00037890606,0.003983741],"split_indices":[1,3,3,0,0,0,0],"split_type":[0,0,0,0,0,0,0],"sum_hessian":[6233.599,2743.888,3489.7112,1450.5552,1293.3328,2335.0105,1154.7007],"tree_param":{"num_deleted":"0","num_feature":"4","num_nodes":"7","size_leaf_vector":"1"}},{"base_weights":[0.0017809962,-0.2012561,0.16193022,-0.005605988,-0.0012703076,0.0034598636,0.00014235619],"categories":[],"categories_nodes":[],"categories_segments":[],"categories_sizes":[],"default_left":[0,0,0,0,0,0,0],"id":46,"left_children":[1,3,5,-1,-1,-1,-1],"loss_changes":[204.30699,72.44121,95.168976,0.0,0.0,0.0,0.0],"parents":[2147483647,0,0,1,1,2,2],"right_children":[2,4,6,-1,-1,-1,-1],"split_conditions":[0.00033403691,0.0031225611,-6.297206e-05,-0.005605988,-0.0012703076,0.0034598636,0.00014235619],"split_indices":[1,3,2,0,0,0,0],"split_type":[0,0,0,0,0,0,0],"sum_hessian":[6264.417,2758.4478,3505.9695,458.7122,2299.7356,1551.8573,1954.112],"tree_param":{"num_deleted":"0","num_feature":"4","num_nodes":"7","size_leaf_vector":"1"}},{"base_weights":[0.007557576,-0.195483,0.19546872,-0.0031329417,-0.0002219374,0.0034491809,0.00025793663],"categories":[],"categories_nodes":[],"categories_segments":[],"categories_sizes":[],"default_left":[0,0,0,0,0,0,0],"id":47,"left_children":[1,3,5,-1,-1,-1,-1],"loss_changes":[239.0467,61.02672,82.112495,0.0,0.0,0.0,0.0],"parents":[2147483647,0,0,1,1,2,2],"right_children":[2,4,6,-1,-1,-1,-1],"split_conditions":[0.001101729,0.013216808,0.0014548799,-0.0031329417,-0.0002219374,0.0034491809,0.00025793663],"split_indices":[1,3,2,0,0,0,0],"split_type":[0,0,0,0,0,0,0],"sum_hessian":[6245.365,2999.0864,3246.2788,1777.0823,1222.0042,1717.3868,1528.892],"tree_param":{"num_deleted":"0","num_feature":"4","num_nodes":"7","size_leaf_vector":"1"}},{"base_weights":[0.00023858323,-0.20222528,0.16149457,-0.0055325353,-0.0012568295,0.00050254964,0.0038674136],"categories":[],"categories_nodes":[],"categories_segments":[],"categories_sizes":[],"default_left":[0,0,0,0,0,0,0],"id":48,"left_children":[1,3,5,-1,-1,-1,-1],"loss_changes":[203.71039,72.89311,86.48059,0.0,0.0,0.0,0.0],"parents":[2147483647,0,0,1,1,2,2],"right_children":[2,4,6,-1,-1,-1,-1],"split_conditions":[0.00039381348,0.0031225611,0.0148272505,-0.0055325353,-0.0012568295,0.00050254964,0.0038674136],"split_indices":[1,3,3,0,0,0,0],"split_type":[0,0,0,0,0,0,0],"sum_hessian":[6220.7446,2754.1047,3466.6396,479.54303,2274.5618,2331.7568,1134.8827],"tree_param":{"num_deleted":"0","num_feature":"4","num_nodes":"7","size_leaf_vector":"1"}},{"base_weights":[-0.0024139178,-0.19870847,0.15628481,-0.0052660895,-0.0012848609,0.00039678364,0.0040704682],"categories":[],"categories_nodes":[],"categories_segments":[],"categories_sizes":[],"default_left":[0,0,0,0,0,0,0],"id":49,"left_children":[1,3,5,-1,-1,-1,-1],"loss_changes":[194.96147,63.14044,100.480316,0.0,0.0,0.0,0.0],"parents":[2147483647,0,0,1,1,2,2],"right_children":[2,4,6,-1,-1,-1,-1],"split_conditions":[0.00039381348,0.0031225611,0.015164792,-0.0052660895,-0.0012848609,0.00039678364,0.0040704682],"split_indices":[1,3,3,0,0,0,0],"split_type":[0,0,0,0,0,0,0],"sum_hessian":[6237.124,2789.9783,3447.1458,478.13135,2311.847,2363.615,1083.5306],"tree_param":{"num_deleted":"0","num_feature":"4","num_nodes":"7","size_leaf_vector":"1"}},{"base_weights":[-0.0029288814,-0.1594165,0.2127297,-0.0053314446,-0.0011658032,0.0033052692,0.00021225418],"categories":[],"categories_nodes":[],"categories_segments":[],"categories_sizes":[],"default_left":[0,0,0,0,0,0,0],"id":50,"left_children":[1,3,5,-1,-1,-1,-1],"loss_changes":[209.96935,56.505005,58.552376,0.0,0.0,0.0,0.0],"parents":[2147483647,0,0,1,1,2,2],"right_children":[2,4,6,-1,-1,-1,-1],"split_conditions":[0.0043630213,-0.027431574,0.004199565,-0.0053314446,-0.0011658032,0.0033052692,0.00021225418],"split_indices":[1,1,2,0,0,0,0],"split_type":[0,0,0,0,0,0,0],"sum_hessian":[6203.232,3598.969,2604.263,355.9188,3243.05,1604.7039,999.55914],"tree_param":{"num_deleted":"0","num_feature":"4","num_nodes":"7","size_leaf_vector":"1"}},{"base_weights":[0.009983164,-0.17880018,0.1611855,-0.0033611967,-0.00011902163,0.003102092,7.43431e-05],"categories":[],"categories_nodes":[],"categories_segments":[],"categories_sizes":[],"default_left":[0,0,0,0,0,0,0],"id":51,"left_children":[1,3,5,-1,-1,-1,-1],"loss_changes":[178.84178,72.709335,79.4386,0.0,0.0,0.0,0.0],"parents":[2147483647,0,0,1,1,2,2],"right_children":[2,4,6,-1,-1,-1,-1],"split_conditions":[0.00039381348,0.011893931,0.0008233668,-0.0033611967,-0.00011902163,0.003102092,7.43431e-05],"split_indices":[1,3,2,0,0,0,0],"split_type":[0,0,0,0,0,0,0],"sum_hessian":[6245.892,2773.992,3471.9004,1419.6688,1354.323,1754.5848,1717.3156],"tree_param":{"num_deleted":"0","num_feature":"4","num_nodes":"7","size_leaf_vector":"1"}},{"base_weights":[-0.0050891815,-0.22930494,0.15604095,0.004913654,-0.0026089484,0.0067190486,0.0012094072],"categories":[],"categories_nodes":[],"categories_segments":[],"categories_sizes":[],"default_left":[0,0,0,0,0,0,0],"id":52,"left_children":[1,3,5,-1,-1,-1,-1],"loss_changes":[227.87686,61.132965,64.78308,0.0,0.0,0.0,0.0],"parents":[2147483647,0,0,1,1,2,2],"right_children":[2,4,6,-1,-1,-1,-1],"split_conditions":[5.6104484e-05,-0.022613384,-0.015584513,0.004913654,-0.0026089484,0.0067190486,0.0012094072],"split_indices":[1,2,2,0,0,0,0],"split_type":[0,0,0,0,0,0,0],"sum_hessian":[6285.569,2629.0999,3656.469,102.963356,2526.1365,219.56934,3436.8997],"tree_param":{"num_deleted":"0","num_feature":"4","num_nodes":"7","size_leaf_vector":"1"}},{"base_weights":[-0.010739441,-0.19995494,0.13595916,-0.0053463285,-0.0013419251,0.0029222444,-0.00022638556],"categories":[],"categories_nodes":[],"categories_segments":[],"categories_sizes":[],"default_left":[0,0,0,0,0,0,0],"id":53,"left_children":[1,3,5,-1,-1,-1,-1],"loss_changes":[174.51245,59.081184,88.00766,0.0,0.0,0.0,0.0],"parents":[2147483647,0,0,1,1,2,2],"right_children":[2,4,6,-1,-1,-1,-1],"split_conditions":[0.00028715373,0.0031225611,0.0008233668,-0.0053463285,-0.0013419251,0.0029222444,-0.00022638556],"split_indices":[1,3,2,0,0,0,0],"split_type":[0,0,0,0,0,0,0],"sum_hessian":[6264.9053,2737.3674,3527.538,435.3388,2302.0286,1775.7666,1751.7714],"tree_param":{"num_deleted":"0","num_feature":"4","num_nodes":"7","size_leaf_vector":"1"}},{"base_weights":[0.004687497,-0.17799559,0.14801519,-0.0033438238,-0.0001074679,0.0028812974,-7.600267e-05],"categories":[],"categories_nodes":[],"categories_segments":[],"categories_sizes":[],"default_left":[0,0,0,0,0,0,0],"id":54,"left_children":[1,3,5,-1,-1,-1,-1],"loss_changes":[164.0647,71.60722,76.93712,0.0,0.0,0.0,0.0],"parents":[2147483647,0,0,1,1,2,2],"right_children":[2,4,6,-1,-1,-1,-1],"split_conditions":[0.00033403691,0.012120343,0.0012225546,-0.0033438238,-0.0001074679,0.0028812974,-7.600267e-05],"split_indices":[1,3,2,0,0,0,0],"split_type":[0,0,0,0,0,0,0],"sum_hessian":[6247.0293,2742.319,3504.71,1408.9249,1333.3943,1843.1066,1661.6035],"tree_param":{"num_deleted":"0","num_feature":"4","num_nodes":"7","size_leaf_vector":"1"}},{"base_weights":[-0.00080223236,-0.15713097,0.16444895,0.004712747,-0.0018354879,0.0030859155,-4.4167314e-06],"categories":[],"categories_nodes":[],"categories_segments":[],"categories_sizes":[],"default_left":[0,0,0,0,0,0,0],"id":55,"left_children":[1,3,5,-1,-1,-1,-1],"loss_changes":[161.96533,54.115837,72.67919,0.0,0.0,0.0,0.0],"parents":[2147483647,0,0,1,1,2,2],"right_children":[2,4,6,-1,-1,-1,-1],"split_conditions":[0.0020756363,-0.021487426,0.0018356172,0.004712747,-0.0018354879,0.0030859155,-4.4167314e-06],"split_indices":[1,2,2,0,0,0,0],"split_type":[0,0,0,0,0,0,0],"sum_hessian":[6249.8647,3214.9978,3034.867,121.38337,3093.6143,1617.8975,1416.9695],"tree_param":{"num_deleted":"0","num_feature":"4","num_nodes":"7","size_leaf_vector":"1"}},{"base_weights":[-0.01108957,-0.17922832,0.16471839,-0.0026529073,0.00015404302,0.00058131677,0.0036126755],"categories":[],"categories_nodes":[],"categories_segments":[],"categories_sizes":[],"default_left":[0,0,0,0,0,0,0],"id":56,"left_children":[1,3,5,-1,-1,-1,-1],"loss_changes":[185.62047,54.094505,63.620354,0.0,0.0,0.0,0.0],"parents":[2147483647,0,0,1,1,2,2],"right_children":[2,4,6,-1,-1,-1,-1],"split_conditions":[0.0020756363,0.015164792,0.015001935,-0.0026529073,0.00015404302,0.00058131677,0.0036126755],"split_indices":[1,3,3,0,0,0,0],"split_type":[0,0,0,0,0,0,0],"sum_hessian":[6258.942,3202.059,3056.883,2221.3381,980.72095,1993.7417,1063.1414],"tree_param":{"num_deleted":"0","num_feature":"4","num_nodes":"7","size_leaf_vector":"1"}},{"base_weights":[0.0058559757,-0.17097546,0.14179641,-0.0030936578,6.116328e-05,0.00062142353,0.003287473],"categories":[],"categories_nodes":[],"categories_segments":[],"categories_sizes":[],"default_left":[0,0,0,0,0,0,0],"id":57,"left_children":[1,3,5,-1,-1,-1,-1],"loss_changes":[150.56783,66.97936,52.193207,0.0,0.0,0.0,0.0],"parents":[2147483647,0,0,1,1,2,2],"right_children":[2,4,6,-1,-1,-1,-1],"split_conditions":[0.00028715373,0.012939464,0.015342384,-0.0030936578,6.116328e-05,0.00062142353,0.003287473],"split_indices":[1,3,3,0,0,0,0],"split_type":[0,0,0,0,0,0,0],"sum_hessian":[6244.7285,2709.837,3534.8916,1520.1088,1189.7281,2491.8594,1043.0321],"tree_param":{"num_deleted":"0","num_feature":"4","num_nodes":"7","size_leaf_vector":"1"}},{"base_weights":[0.0009003611,-0.21409607,0.15323253,-0.0035102537,-0.0003043545,0.0003274656,0.0034731969],"categories":[],"categories_nodes":[],"categories_segments":[],"categories_sizes":[],"default_left":[0,0,0,0,0,0,0],"id":58,"left_children":[1,3,5,-1,-1,-1,-1],"loss_changes":[205.1599,64.794,85.33367,0.0,0.0,0.0,0.0],"parents":[2147483647,0,0,1,1,2,2],"right_children":[2,4,6,-1,-1,-1,-1],"split_conditions":[1.670984e-05,0.013561825,0.013561825,-0.0035102537,-0.0003043545,0.0003274656,0.0034731969],"split_indices":[1,3,3,0,0,0,0],"split_type":[0,0,0,0,0,0,0],"sum_hessian":[6246.0986,2585.8704,3660.2283,1473.0621,1112.8081,2268.6985,1391.5297],"tree_param":{"num_deleted":"0","num_feature":"4","num_nodes":"7","size_leaf_vector":"1"}},{"base_weights":[-0.003028428,-0.18184476,0.12416727,-0.0033806895,-0.00036937822,0.009113411,0.0010119808],"categories":[],"categories_nodes":[],"categories_segments":[],"categories_sizes":[],"default_left":[0,0,0,0,0,0,0],"id":59,"left_children":[1,3,5,-1,-1,-1,-1],"loss_changes":[142.47528,58.491547,64.16464,0.0,0.0,0.0,0.0],"parents":[2147483647,0,0,1,1,2,2],"right_children":[2,4,6,-1,-1,-1,-1],"split_conditions":[5.6104484e-05,0.011893931,-0.022613384,-0.0033806895,-0.00036937822,0.009113411,0.0010119808],"split_indices":[1,3,2,0,0,0,0],"split_type":[0,0,0,0,0,0,0],"sum_hessian":[6241.6553,2595.8628,3645.7925,1239.4165,1356.4463,91.16557,3554.627],"tree_param":{"num_deleted":"0","num_feature":"4","num_nodes":"7","size_leaf_vector":"1"}},{"base_weights":[0.0022191484,-0.1557607,0.14199121,-0.0029028945,-0.000102316095,0.0028444347,-8.71991e-05],"categories":[],"categories_nodes":[],"categories_segments":[],"categories_sizes":[],"default_left":[0,0,0,0,0,0,0],"id":60,"left_children":[1,3,5,-1,-1,-1,-1],"loss_changes":[137.5777,56.87178,71.35007,0.0,0.0,0.0,0.0],"parents":[2147483647,0,0,1,1,2,2],"right_children":[2,4,6,-1,-1,-1,-1],"split_conditions":[0.00093428517,0.011841749,0.0011550083,-0.0029028945,-0.000102316095,0.0028444347,-8.71991e-05],"split_indices":[1,3,2,0,0,0,0],"split_type":[0,0,0,0,0,0,0],"sum_hessian":[6211.152,2911.7717,3299.3801,1504.3317,1407.4401,1695.0137,1604.3663],"tree_param":{"num_deleted":"0","num_feature":"4","num_nodes":"7","size_leaf_vector":"1"}},{"base_weights":[-0.015619322,-0.20228904,0.11385379,0.0044737607,-0.0023276883,0.006822412,0.00079470646],"categories":[],"categories_nodes":[],"categories_segments":[],"categories_sizes":[],"default_left":[0,0,0,0,0,0,0],"id":61,"left_children":[1,3,5,-1,-1,-1,-1],"loss_changes":[151.48155,51.68186,70.93187,0.0,0.0,0.0,0.0],"parents":[2147483647,0,0,1,1,2,2],"right_children":[2,4,6,-1,-1,-1,-1],"split_conditions":[1.670984e-05,-0.022613384,-0.016622925,0.0044737607,-0.0023276883,0.006822412,0.00079470646],"split_indices":[1,2,2,0,0,0,0],"split_type":[0,0,0,0,0,0,0],"sum_hessian":[6244.4834,2558.225,3686.258,107.04369,2451.1814,197.86394,3488.3943],"tree_param":{"num_deleted":"0","num_feature":"4","num_nodes":"7","size_leaf_vector":"1"}},{"base_weights":[0.005761453,-0.16997916,0.14709961,-0.0043739765,-0.00097546837,0.00015886493,0.0034259586],"categories":[],"categories_nodes":[],"categories_segments":[],"categories_sizes":[],"default_left":[0,0,0,0,0,0,0],"id":62,"left_children":[1,3,5,-1,-1,-1,-1],"loss_changes":[155.38866,53.001884,88.61779,0.0,0.0,0.0,0.0],"parents":[2147483647,0,0,1,1,2,2],"right_children":[2,4,6,-1,-1,-1,-1],"split_conditions":[0.00039381348,-0.019657478,0.013561825,-0.0043739765,-0.00097546837,0.00015886493,0.0034259586],"split_indices":[1,1,3,0,0,0,0],"split_type":[0,0,0,0,0,0,0],"sum_hessian":[6236.7246,2775.9688,3460.7556,577.9601,2198.0085,2080.377,1380.3789],"tree_param":{"num_deleted":"0","num_feature":"4","num_nodes":"7","size_leaf_vector":"1"}},{"base_weights":[0.0031326725,-0.20696145,0.16622879,-0.005030974,-0.0014717997,0.00043162148,0.0031622376],"categories":[],"categories_nodes":[],"categories_segments":[],"categories_sizes":[],"default_left":[0,0,0,0,0,0,0],"id":63,"left_children":[1,3,5,-1,-1,-1,-1],"loss_changes":[213.9689,46.88523,64.456375,0.0,0.0,0.0,0.0],"parents":[2147483647,0,0,1,1,2,2],"right_children":[2,4,6,-1,-1,-1,-1],"split_conditions":[0.00033403691,0.0031225611,0.012744798,-0.005030974,-0.0014717997,0.00043162148,0.0031622376],"split_indices":[1,3,3,0,0,0,0],"split_type":[0,0,0,0,0,0,0],"sum_hessian":[6225.583,2716.9246,3508.6584,441.0815,2275.843,1938.0708,1570.5876],"tree_param":{"num_deleted":"0","num_feature":"4","num_nodes":"7","size_leaf_vector":"1"}},{"base_weights":[-0.0087140985,-0.16370551,0.14837313,-0.0021386778,0.0016898,0.00020152127,0.003066982],"categories":[],"categories_nodes":[],"categories_segments":[],"categories_sizes":[],"default_left":[0,0,0,0,0,0,0],"id":64,"left_children":[1,3,5,-1,-1,-1,-1],"loss_changes":[153.0409,53.251602,62.91989,0.0,0.0,0.0,0.0],"parents":[2147483647,0,0,1,1,2,2],"right_children":[2,4,6,-1,-1,-1,-1],"split_conditions":[0.0018528224,0.1784942,0.01329797,-0.0021386778,0.0016898,0.00020152127,0.003066982],"split_indices":[1,0,3,0,0,0,0],"split_type":[0,0,0,0,0,0,0],"sum_hessian":[6265.171,3156.6152,3108.556,2748.738,407.87704,1727.2863,1381.2697],"tree_param":{"num_deleted":"0","num_feature":"4","num_nodes":"7","size_leaf_vector":"1"}},{"base_weights":[0.002409712,-0.17492118,0.1378517,-0.0048997183,-0.0010980583,0.001805395,-0.002651641],"categories":[],"categories_nodes":[],"categories_segments":[],"categories_sizes":[],"default_left":[0,0,0,0,0,0,0],"id":65,"left_children":[1,3,5,-1,-1,-1,-1],"loss_changes":[151.0938,54.696777,61.823128,0.0,0.0,0.0,0.0],"parents":[2147483647,0,0,1,1,2,2],"right_children":[2,4,6,-1,-1,-1,-1],"split_conditions":[0.00033403691,0.0031225611,0.016030157,-0.0048997183,-0.0010980583,0.001805395,-0.002651641],"split_indices":[1,3,2,0,0,0,0],"split_type":[0,0,0,0,0,0,0],"sum_hessian":[6272.3477,2711.6943,3560.6536,450.65677,2261.0376,3226.8628,333.79068],"tree_param":{"num_deleted":"0","num_feature":"4","num_nodes":"7","size_leaf_vector":"1"}},{"base_weights":[0.0070966994,-0.1332977,0.19829871,-0.0036871529,-0.0006696567,0.0025192597,-0.001990628],"categories":[],"categories_nodes":[],"categories_segments":[],"categories_sizes":[],"default_left":[0,0,0,0,0,0,0],"id":66,"left_children":[1,3,5,-1,-1,-1,-1],"loss_changes":[168.84865,55.890213,57.34371,0.0,0.0,0.0,0.0],"parents":[2147483647,0,0,1,1,2,2],"right_children":[2,4,6,-1,-1,-1,-1],"split_conditions":[0.0043630213,-0.0147485705,0.015617212,-0.0036871529,-0.0006696567,0.0025192597,-0.001990628],"split_indices":[1,1,2,0,0,0,0],"split_type":[0,0,0,0,0,0,0],"sum_hessian":[6267.801,3612.811,2654.99,780.85016,2831.961,2344.726,310.2638],"tree_param":{"num_deleted":"0","num_feature":"4","num_nodes":"7","size_leaf_vector":"1"}},{"base_weights":[-0.010079107,-0.18311642,0.11041639,-0.0058942307,-0.0011907015,-8.815263e-05,0.0026740541],"categories":[],"categories_nodes":[],"categories_segments":[],"categories_sizes":[],"default_left":[0,0,0,0,0,0,0],"id":67,"left_children":[1,3,5,-1,-1,-1,-1],"loss_changes":[129.79842,65.13522,68.88115,0.0,0.0,0.0,0.0],"parents":[2147483647,0,0,1,1,2,2],"right_children":[2,4,6,-1,-1,-1,-1],"split_conditions":[1.670984e-05,0.0031225611,0.012744798,-0.0058942307,-0.0011907015,-8.815263e-05,0.0026740541],"split_indices":[1,3,3,0,0,0,0],"split_type":[0,0,0,0,0,0,0],"sum_hessian":[6202.0947,2547.239,3654.8555,333.55252,2213.6865,2078.968,1575.8876],"tree_param":{"num_deleted":"0","num_feature":"4","num_nodes":"7","size_leaf_vector":"1"}},{"base_weights":[0.012870085,-0.1697459,0.16672604,-0.0026267427,-2.9179235e-05,0.00051551935,0.0029929571],"categories":[],"categories_nodes":[],"categories_segments":[],"categories_sizes":[],"default_left":[0,0,0,0,0,0,0],"id":68,"left_children":[1,3,5,-1,-1,-1,-1],"loss_changes":[176.17433,44.13688,51.49581,0.0,0.0,0.0,0.0],"parents":[2147483647,0,0,1,1,2,2],"right_children":[2,4,6,-1,-1,-1,-1],"split_conditions":[0.0007689466,0.014428524,0.012744798,-0.0026267427,-2.9179235e-05,0.00051551935,0.0029929571],"split_indices":[1,3,3,0,0,0,0],"split_type":[0,0,0,0,0,0,0],"sum_hessian":[6250.3516,2854.6062,3395.7454,1825.8254,1028.7806,1828.5588,1567.1865],"tree_param":{"num_deleted":"0","num_feature":"4","num_nodes":"7","size_leaf_vector":"1"}},{"base_weights":[-0.0047816467,-0.17848085,0.12477236,-0.0028386791,0.00024668145,3.3326407e-05,0.0027635526],"categories":[],"categories_nodes":[],"categories_segments":[],"categories_sizes":[],"default_left":[0,0,0,0,0,0,0],"id":69,"left_children":[1,3,5,-1,-1,-1,-1],"loss_changes":[141.2348,57.779358,65.80462,0.0,0.0,0.0,0.0],"parents":[2147483647,0,0,1,1,2,2],"right_children":[2,4,6,-1,-1,-1,-1],"split_conditions":[0.00022935298,0.015164792,0.012744798,-0.0028386791,0.00024668145,3.3326407e-05,0.0027635526],"split_indices":[1,3,3,0,0,0,0],"split_type":[0,0,0,0,0,0,0],"sum_hessian":[6253.8633,2673.4219,3580.4414,1760.8826,912.5394,1997.2076,1583.2338],"tree_param":{"num_deleted":"0","num_feature":"4","num_nodes":"7","size_leaf_vector":"1"}},{"base_weights":[0.016630588,-0.15343843,0.14688122,-0.0030318936,0.0001645117,0.0029247557,0.00020566263],"categories":[],"categories_nodes":[],"categories_segments":[],"categories_sizes":[],"default_left":[0,0,0,0,0,0,0],"id":70,"left_children":[1,3,5,-1,-1,-1,-1],"loss_changes":[138.59273,69.302086,64.8384,0.0,0.0,0.0,0.0],"parents":[2147483647,0,0,1,1,2,2],"right_children":[2,4,6,-1,-1,-1,-1],"split_conditions":[0.00033403691,0.012424345,0.00016853427,-0.0030318936,0.0001645117,0.0029247557,0.00020566263],"split_indices":[1,3,2,0,0,0,0],"split_type":[0,0,0,0,0,0,0],"sum_hessian":[6236.6787,2700.787,3535.8916,1434.4323,1266.355,1632.8032,1903.0884],"tree_param":{"num_deleted":"0","num_feature":"4","num_nodes":"7","size_leaf_vector":"1"}},{"base_weights":[-0.00376987,-0.13365959,0.15597565,-0.003389491,-0.00019891941,-0.002758933,0.0026914822],"categories":[],"categories_nodes":[],"categories_segments":[],"categories_sizes":[],"default_left":[0,0,0,0,0,0,0],"id":71,"left_children":[1,3,5,-1,-1,-1,-1],"loss_changes":[130.47372,80.66407,138.42354,0.0,0.0,0.0,0.0],"parents":[2147483647,0,0,1,1,2,2],"right_children":[2,4,6,-1,-1,-1,-1],"split_conditions":[0.012744798,-0.00024928365,-0.016144004,-0.003389491,-0.00019891941,-0.002758933,0.0026914822],"split_indices":[3,1,1,0,0,0,0],"split_type":[0,0,0,0,0,0,0],"sum_hessian":[6269.1294,3462.031,2807.0984,1224.28,2237.751,578.0465,2229.0518],"tree_param":{"num_deleted":"0","num_feature":"4","num_nodes":"7","size_leaf_vector":"1"}},{"base_weights":[0.001926589,-0.16474578,0.13712342,-0.003029845,-0.00022098707,0.00024555105,0.0027134444],"categories":[],"categories_nodes":[],"categories_segments":[],"categories_sizes":[],"default_left":[0,0,0,0,0,0,0],"id":72,"left_children":[1,3,5,-1,-1,-1,-1],"loss_changes":[141.04095,54.83288,51.91175,0.0,0.0,0.0,0.0],"parents":[2147483647,0,0,1,1,2,2],"right_children":[2,4,6,-1,-1,-1,-1],"split_conditions":[0.0005317238,0.011786079,0.012744798,-0.003029845,-0.00022098707,0.00024555105,0.0027134444],"split_indices":[1,3,3,0,0,0,0],"split_type":[0,0,0,0,0,0,0],"sum_hessian":[6240.347,2790.5452,3449.8018,1407.9022,1382.6431,1886.7256,1563.0763],"tree_param":{"num_deleted":"0","num_feature":"4","num_nodes":"7","size_leaf_vector":"1"}},{"base_weights":[-0.004326157,-0.18595046,0.12048045,-0.0038253125,-0.00026823857,0.00041971306,0.003025123],"categories":[],"categories_nodes":[],"categories_segments":[],"categories_sizes":[],"default_left":[0,0,0,0,0,0,0],"id":73,"left_children":[1,3,5,-1,-1,-1,-1],"loss_changes":[142.31996,79.54178,52.642277,0.0,0.0,0.0,0.0],"parents":[2147483647,0,0,1,1,2,2],"right_children":[2,4,6,-1,-1,-1,-1],"split_conditions":[1.670984e-05,0.011272664,0.015164792,-0.0038253125,-0.00026823857,0.00041971306,0.003025123],"split_indices":[1,3,3,0,0,0,0],"split_type":[0,0,0,0,0,0,0],"sum_hessian":[6255.7046,2549.1614,3706.5435,1131.2819,1417.8794,2602.0818,1104.4615],"tree_param":{"num_deleted":"0","num_feature":"4","num_nodes":"7","size_leaf_vector":"1"}},{"base_weights":[-0.00020477487,-0.13149239,0.15620087,-0.0039335964,-0.0007110226,0.0032063494,-0.00025743613],"categories":[],"categories_nodes":[],"categories_segments":[],"categories_sizes":[],"default_left":[0,0,0,0,0,0,0],"id":74,"left_children":[1,3,5,-1,-1,-1,-1],"loss_changes":[128.70348,53.208023,85.86347,0.0,0.0,0.0,0.0],"parents":[2147483647,0,0,1,1,2,2],"right_children":[2,4,6,-1,-1,-1,-1],"split_conditions":[0.0032537652,0.0031225611,0.0015980867,-0.0039335964,-0.0007110226,0.0032063494,-0.00025743613],"split_indices":[1,3,2,0,0,0,0],"split_type":[0,0,0,0,0,0,0],"sum_hessian":[6248.9854,3401.629,2847.3564,624.02014,2777.609,1494.5321,1352.8245],"tree_param":{"num_deleted":"0","num_feature":"4","num_nodes":"7","size_leaf_vector":"1"}},{"base_weights":[-0.006954275,-0.11657855,0.17662023,-0.005362992,-0.0007302597,4.4698932e-05,0.0034908059],"categories":[],"categories_nodes":[],"categories_segments":[],"categories_sizes":[],"default_left":[0,0,0,0,0,0,0],"id":75,"left_children":[1,3,5,-1,-1,-1,-1],"loss_changes":[126.47461,71.018326,69.33029,0.0,0.0,0.0,0.0],"parents":[2147483647,0,0,1,1,2,2],"right_children":[2,4,6,-1,-1,-1,-1],"split_conditions":[0.0061637214,-0.027431574,0.01349882,-0.005362992,-0.0007302597,4.4698932e-05,0.0034908059],"split_indices":[1,1,3,0,0,0,0],"split_type":[0,0,0,0,0,0,0],"sum_hessian":[6267.4478,3929.8035,2337.6443,356.64825,3573.1553,1177.9095,1159.7346],"tree_param":{"num_deleted":"0","num_feature":"4","num_nodes":"7","size_leaf_vector":"1"}},{"base_weights":[-0.0062239715,-0.1336678,0.14676188,-0.004767693,-0.00068793446,-0.0037311406,0.0025840001],"categories":[],"categories_nodes":[],"categories_segments":[],"categories_sizes":[],"default_left":[0,0,0,0,0,0,0],"id":76,"left_children":[1,3,5,-1,-1,-1,-1],"loss_changes":[122.12404,75.26789,165.88217,0.0,0.0,0.0,0.0],"parents":[2147483647,0,0,1,1,2,2],"right_children":[2,4,6,-1,-1,-1,-1],"split_conditions":[0.012744798,-0.005356665,-0.019657478,-0.004767693,-0.00068793446,-0.0037311406,0.0025840001],"split_indices":[3,1,1,0,0,0,0],"split_type":[0,0,0,0,0,0,0],"sum_hessian":[6244.312,3410.7822,2833.5298,529.819,2880.9631,495.18338,2338.3464],"tree_param":{"num_deleted":"0","num_feature":"4","num_nodes":"7","size_leaf_vector":"1"}},{"base_weights":[0.011288242,-0.28318667,0.08229474,-0.0066048354,-0.001815564,-0.00047645732,0.0027508938],"categories":[],"categories_nodes":[],"categories_segments":[],"categories_sizes":[],"default_left":[0,0,0,0,0,0,0],"id":77,"left_children":[1,3,5,-1,-1,-1,-1],"loss_changes":[130.20802,44.319443,126.283905,0.0,0.0,0.0,0.0],"parents":[2147483647,0,0,1,1,2,2],"right_children":[2,4,6,-1,-1,-1,-1],"split_conditions":[-0.008144521,0.0113402475,0.012492339,-0.0066048354,-0.001815564,-0.00047645732,0.0027508938],"split_indices":[1,3,3,0,0,0,0],"split_type":[0,0,0,0,0,0,0],"sum_hessian":[6215.6416,1199.0463,5016.595,240.68561,958.3606,2998.1992,2018.396],"tree_param":{"num_deleted":"0","num_feature":"4","num_nodes":"7","size_leaf_vector":"1"}},{"base_weights":[0.001220825,-0.15157504,0.11932182,-0.0029606814,-0.00031819998,0.0016168981,-0.002918849],"categories":[],"categories_nodes":[],"categories_segments":[],"categories_sizes":[],"default_left":[0,0,0,0,0,0,0],"id":78,"left_children":[1,3,5,-1,-1,-1,-1],"loss_changes":[113.542145,46.99409,62.25241,0.0,0.0,0.0,0.0],"parents":[2147483647,0,0,1,1,2,2],"right_children":[2,4,6,-1,-1,-1,-1],"split_conditions":[0.00039381348,0.01096752,0.016560026,-0.0029606814,-0.00031819998,0.0016168981,-0.002918849],"split_indices":[1,3,2,0,0,0,0],"split_type":[0,0,0,0,0,0,0],"sum_hessian":[6273.8115,2730.2222,3543.589,1226.8572,1503.3651,3220.2915,323.2976],"tree_param":{"num_deleted":"0","num_feature":"4","num_nodes":"7","size_leaf_vector":"1"}},{"base_weights":[0.0041307653,-0.24002013,0.075655036,0.0054178447,-0.0030067388,-0.003707361,0.0014780222],"categories":[],"categories_nodes":[],"categories_segments":[],"categories_sizes":[],"default_left":[0,0,0,0,0,0,0],"id":79,"left_children":[1,3,5,-1,-1,-1,-1],"loss_changes":[107.95115,67.758545,154.6288,0.0,0.0,0.0,0.0],"parents":[2147483647,0,0,1,1,2,2],"right_children":[2,4,6,-1,-1,-1,-1],"split_conditions":[-0.0061914343,-0.022613384,0.003239864,0.0054178447,-0.0030067388,-0.003707361,0.0014780222],"split_indices":[1,2,3,0,0,0,0],"split_type":[0,0,0,0,0,0,0],"sum_hessian":[6170.822,1389.6519,4781.17,93.15158,1296.5002,657.5446,4123.6255],"tree_param":{"num_deleted":"0","num_feature":"4","num_nodes":"7","size_leaf_vector":"1"}},{"base_weights":[-0.016205184,-0.1815958,0.11194094,-0.0023083994,0.0022191096,7.745859e-05,0.002447908],"categories":[],"categories_nodes":[],"categories_segments":[],"categories_sizes":[],"default_left":[0,0,0,0,0,0,0],"id":80,"left_children":[1,3,5,-1,-1,-1,-1],"loss_changes":[132.85324,54.92859,48.555695,0.0,0.0,0.0,0.0],"parents":[2147483647,0,0,1,1,2,2],"right_children":[2,4,6,-1,-1,-1,-1],"split_conditions":[0.00039381348,0.19076297,0.012939464,-0.0023083994,0.0022191096,7.745859e-05,0.002447908],"split_indices":[1,0,3,0,0,0,0],"split_type":[0,0,0,0,0,0,0],"sum_hessian":[6245.51,2728.1199,3517.39,2437.414,290.70572,1981.4417,1535.9484],"tree_param":{"num_deleted":"0","num_feature":"4","num_nodes":"7","size_leaf_vector":"1"}},{"base_weights":[0.0096752085,-0.08017426,0.20035449,-0.0040876195,-0.00019382841,-0.003607628,0.003077894],"categories":[],"categories_nodes":[],"categories_segments":[],"categories_sizes":[],"default_left":[0,0,0,0,0,0,0],"id":81,"left_children":[1,3,5,-1,-1,-1,-1],"loss_changes":[107.21246,84.30769,121.95502,0.0,0.0,0.0,0.0],"parents":[2147483647,0,0,1,1,2,2],"right_children":[2,4,6,-1,-1,-1,-1],"split_conditions":[0.015164792,-0.0064264806,-0.025247961,-0.0040876195,-0.00019382841,-0.003607628,0.003077894],"split_indices":[3,1,1,0,0,0,0],"split_type":[0,0,0,0,0,0,0],"sum_hessian":[6231.475,4235.9946,1995.4807,649.83563,3586.159,315.38458,1680.0961],"tree_param":{"num_deleted":"0","num_feature":"4","num_nodes":"7","size_leaf_vector":"1"}},{"base_weights":[0.013332696,-0.32169294,0.07435006,0.0028386721,-0.0040164334,-0.00067796325,0.002815177],"categories":[],"categories_nodes":[],"categories_segments":[],"categories_sizes":[],"default_left":[0,0,0,0,0,0,0],"id":82,"left_children":[1,3,5,-1,-1,-1,-1],"loss_changes":[127.195786,47.64151,155.72914,0.0,0.0,0.0,0.0],"parents":[2147483647,0,0,1,1,2,2],"right_children":[2,4,6,-1,-1,-1,-1],"split_conditions":[-0.011500034,-0.020516703,0.012545265,0.0028386721,-0.0040164334,-0.00067796325,0.002815177],"split_indices":[1,2,3,0,0,0,0],"split_type":[0,0,0,0,0,0,0],"sum_hessian":[6212.5596,948.04663,5264.513,106.13626,841.9104,3123.3516,2141.1614],"tree_param":{"num_deleted":"0","num_feature":"4","num_nodes":"7","size_leaf_vector":"1"}},{"base_weights":[0.0069784313,-0.100175604,0.18692568,-0.0043513584,-0.0005877293,0.0031001088,0.00013796466],"categories":[],"categories_nodes":[],"categories_segments":[],"categories_sizes":[],"default_left":[0,0,0,0,0,0,0],"id":83,"left_children":[1,3,5,-1,-1,-1,-1],"loss_changes":[120.92468,53.680923,49.54718,0.0,0.0,0.0,0.0],"parents":[2147483647,0,0,1,1,2,2],"right_children":[2,4,6,-1,-1,-1,-1],"split_conditions":[0.0061637214,-0.024360744,0.00358574,-0.0043513584,-0.0005877293,0.0031001088,0.00013796466],"split_indices":[1,1,2,0,0,0,0],"split_type":[0,0,0,0,0,0,0],"sum_hessian":[6247.142,3914.8335,2332.3083,417.54178,3497.2917,1355.1735,977.13495],"tree_param":{"num_deleted":"0","num_feature":"4","num_nodes":"7","size_leaf_vector":"1"}},{"base_weights":[-0.006041042,-0.09355165,0.17610607,-0.003568822,-0.00017899768,-0.0028421353,0.002947588],"categories":[],"categories_nodes":[],"categories_segments":[],"categories_sizes":[],"default_left":[0,0,0,0,0,0,0],"id":84,"left_children":[1,3,5,-1,-1,-1,-1],"loss_changes":[99.563255,83.747635,111.45747,0.0,0.0,0.0,0.0],"parents":[2147483647,0,0,1,1,2,2],"right_children":[2,4,6,-1,-1,-1,-1],"split_conditions":[0.015080019,-0.0033986077,-0.019657478,-0.003568822,-0.00017899768,-0.0028421353,0.002947588],"split_indices":[3,1,1,0,0,0,0],"split_type":[0,0,0,0,0,0,0],"sum_hessian":[6231.0464,4215.911,2015.135,929.6331,3286.278,408.38858,1606.7465],"tree_param":{"num_deleted":"0","num_feature":"4","num_nodes":"7","size_leaf_vector":"1"}},{"base_weights":[-0.0015396244,-0.10608625,0.17209555,-0.0034590603,-0.0005814276,0.0023166751,-0.0021316956],"categories":[],"categories_nodes":[],"categories_segments":[],"categories_sizes":[],"default_left":[0,0,0,0,0,0,0],"id":85,"left_children":[1,3,5,-1,-1,-1,-1],"loss_changes":[112.88559,44.08994,54.100113,0.0,0.0,0.0,0.0],"parents":[2147483647,0,0,1,1,2,2],"right_children":[2,4,6,-1,-1,-1,-1],"split_conditions":[0.0061637214,0.0031225611,0.015147255,-0.0034590603,-0.0005814276,0.0023166751,-0.0021316956],"split_indices":[1,3,2,0,0,0,0],"split_type":[0,0,0,0,0,0,0],"sum_hessian":[6202.152,3877.2747,2324.8772,632.1531,3245.1216,2019.2339,305.6434],"tree_param":{"num_deleted":"0","num_feature":"4","num_nodes":"7","size_leaf_vector":"1"}},{"base_weights":[0.0015288839,-0.28968957,0.07252272,-0.0069973753,-0.0018029463,-0.003487202,0.001352722],"categories":[],"categories_nodes":[],"categories_segments":[],"categories_sizes":[],"default_left":[0,0,0,0,0,0,0],"id":86,"left_children":[1,3,5,-1,-1,-1,-1],"loss_changes":[129.16432,52.755188,133.32042,0.0,0.0,0.0,0.0],"parents":[2147483647,0,0,1,1,2,2],"right_children":[2,4,6,-1,-1,-1,-1],"split_conditions":[-0.008144521,0.0113402475,0.0031225611,-0.0069973753,-0.0018029463,-0.003487202,0.001352722],"split_indices":[1,3,3,0,0,0,0],"split_type":[0,0,0,0,0,0,0],"sum_hessian":[6237.796,1213.8134,5023.9824,242.33965,971.47363,643.3832,4380.5996],"tree_param":{"num_deleted":"0","num_feature":"4","num_nodes":"7","size_leaf_vector":"1"}},{"base_weights":[-0.021401053,-0.16282849,0.10300327,0.005152881,-0.0019005187,0.0048154583,0.0007353377],"categories":[],"categories_nodes":[],"categories_segments":[],"categories_sizes":[],"default_left":[0,0,0,0,0,0,0],"id":87,"left_children":[1,3,5,-1,-1,-1,-1],"loss_changes":[109.95762,54.675552,36.131603,0.0,0.0,0.0,0.0],"parents":[2147483647,0,0,1,1,2,2],"right_children":[2,4,6,-1,-1,-1,-1],"split_conditions":[0.001101729,-0.022613384,-0.015043412,0.005152881,-0.0019005187,0.0048154583,0.0007353377],"split_indices":[1,2,2,0,0,0,0],"split_type":[0,0,0,0,0,0,0],"sum_hessian":[6226.724,2916.3076,3310.4167,104.22081,2812.087,225.5707,3084.846],"tree_param":{"num_deleted":"0","num_feature":"4","num_nodes":"7","size_leaf_vector":"1"}},{"base_weights":[0.009173261,-0.14652164,0.1213732,-0.0030133605,-3.5299476e-05,0.007851785,0.0009948786],"categories":[],"categories_nodes":[],"categories_segments":[],"categories_sizes":[],"default_left":[0,0,0,0,0,0,0],"id":88,"left_children":[1,3,5,-1,-1,-1,-1],"loss_changes":[109.6331,57.808006,51.382214,0.0,0.0,0.0,0.0],"parents":[2147483647,0,0,1,1,2,2],"right_children":[2,4,6,-1,-1,-1,-1],"split_conditions":[0.00013123588,0.011726054,-0.022613384,-0.0030133605,-3.5299476e-05,0.007851785,0.0009948786],"split_indices":[1,3,2,0,0,0,0],"split_type":[0,0,0,0,0,0,0],"sum_hessian":[6257.14,2615.6064,3641.5334,1247.2094,1368.3971,103.637505,3537.896],"tree_param":{"num_deleted":"0","num_feature":"4","num_nodes":"7","size_leaf_vector":"1"}},{"base_weights":[-0.013020794,-0.2755961,0.06467859,-0.005744437,-0.0014770378,-0.003933041,0.0011621875],"categories":[],"categories_nodes":[],"categories_segments":[],"categories_sizes":[],"default_left":[0,0,0,0,0,0,0],"id":89,"left_children":[1,3,5,-1,-1,-1,-1],"loss_changes":[128.24712,53.30822,114.45168,0.0,0.0,0.0,0.0],"parents":[2147483647,0,0,1,1,2,2],"right_children":[2,4,6,-1,-1,-1,-1],"split_conditions":[-0.005758079,0.012007655,0.0019866175,-0.005744437,-0.0014770378,-0.003933041,0.0011621875],"split_indices":[1,3,3,0,0,0,0],"split_type":[0,0,0,0,0,0,0],"sum_hessian":[6256.9507,1425.8546,4831.096,414.5155,1011.3391,480.0135,4351.0825],"tree_param":{"num_deleted":"0","num_feature":"4","num_nodes":"7","size_leaf_vector":"1"}},{"base_weights":[-0.00910423,-0.46056277,0.026049145,0.001108556,-0.005419611,-0.0009535935,0.0020596453],"categories":[],"categories_nodes":[],"categories_segments":[],"categories_sizes":[],"default_left":[0,0,0,0,0,0,0],"id":90,"left_children":[1,3,5,-1,-1,-1,-1],"loss_changes":[99.11262,22.019485,126.320854,0.0,0.0,0.0,0.0],"parents":[2147483647,0,0,1,1,2,2],"right_children":[2,4,6,-1,-1,-1,-1],"split_conditions":[-0.02339788,-0.024088224,0.012939464,0.001108556,-0.005419611,-0.0009535935,0.0020596453],"split_indices":[1,2,3,0,0,0,0],"split_type":[0,0,0,0,0,0,0],"sum_hessian":[6200.2285,441.22403,5759.0044,53.032272,388.19174,3438.0913,2320.913],"tree_param":{"num_deleted":"0","num_feature":"4","num_nodes":"7","size_leaf_vector":"1"}},{"base_weights":[-0.010109111,-0.12584522,0.13789864,-0.003960355,-0.0006470793,0.0019286022,-0.0025226038],"categories":[],"categories_nodes":[],"categories_segments":[],"categories_sizes":[],"default_left":[0,0,0,0,0,0,0],"id":91,"left_children":[1,3,5,-1,-1,-1,-1],"loss_changes":[106.98635,57.241196,59.130333,0.0,0.0,0.0,0.0],"parents":[2147483647,0,0,1,1,2,2],"right_children":[2,4,6,-1,-1,-1,-1],"split_conditions":[0.003917775,0.0031225611,0.015147255,-0.003960355,-0.0006470793,0.0019286022,-0.0025226038],"split_indices":[1,3,2,0,0,0,0],"split_type":[0,0,0,0,0,0,0],"sum_hessian":[6226.185,3498.6416,2727.5435,632.4511,2866.1904,2397.437,330.10632],"tree_param":{"num_deleted":"0","num_feature":"4","num_nodes":"7","size_leaf_vector":"1"}},{"base_weights":[-0.0064058374,-0.35363144,0.04248145,0.0031042134,-0.0041759987,-0.00094387226,0.002621763],"categories":[],"categories_nodes":[],"categories_segments":[],"categories_sizes":[],"default_left":[0,0,0,0,0,0,0],"id":92,"left_children":[1,3,5,-1,-1,-1,-1],"loss_changes":[105.65844,34.04567,163.95535,0.0,0.0,0.0,0.0],"parents":[2147483647,0,0,1,1,2,2],"right_children":[2,4,6,-1,-1,-1,-1],"split_conditions":[-0.0147485705,-0.026202207,0.012939464,0.0031042134,-0.0041759987,-0.00094387226,0.002621763],"split_indices":[1,2,3,0,0,0,0],"split_type":[0,0,0,0,0,0,0],"sum_hessian":[6187.2065,758.4411,5428.7656,61.882515,696.5586,3345.6167,2083.1487],"tree_param":{"num_deleted":"0","num_feature":"4","num_nodes":"7","size_leaf_vector":"1"}},{"base_weights":[-0.0051613403,-0.15914351,0.10896511,-0.002617375,0.0003324939,0.0014219093,-0.0022126825],"categories":[],"categories_nodes":[],"categories_segments":[],"categories_sizes":[],"default_left":[0,0,0,0,0,0,0],"id":93,"left_children":[1,3,5,-1,-1,-1,-1],"loss_changes":[109.31843,52.628906,39.380203,0.0,0.0,0.0,0.0],"parents":[2147483647,0,0,1,1,2,2],"right_children":[2,4,6,-1,-1,-1,-1],"split_conditions":[0.00033403691,0.015080019,0.016560026,-0.002617375,0.0003324939,0.0014219093,-0.0022126825],"split_indices":[1,3,2,0,0,0,0],"split_type":[0,0,0,0,0,0,0],"sum_hessian":[6197.9395,2640.3425,3557.5967,1723.0927,917.24994,3240.302,317.29465],"tree_param":{"num_deleted":"0","num_feature":"4","num_nodes":"7","size_leaf_vector":"1"}},{"base_weights":[-0.013540357,-0.1762687,0.08806599,-0.0063762623,-0.0011988479,0.006600889,0.00057689374],"categories":[],"categories_nodes":[],"categories_segments":[],"categories_sizes":[],"default_left":[0,0,0,0,0,0,0],"id":94,"left_children":[1,3,5,-1,-1,-1,-1],"loss_changes":[103.98544,61.401062,66.06855,0.0,0.0,0.0,0.0],"parents":[2147483647,0,0,1,1,2,2],"right_children":[2,4,6,-1,-1,-1,-1],"split_conditions":[-0.00024928365,0.0031225611,-0.017865606,-0.0063762623,-0.0011988479,0.006600889,0.00057689374],"split_indices":[1,3,2,0,0,0,0],"split_type":[0,0,0,0,0,0,0],"sum_hessian":[6264.377,2408.8926,3855.4844,249.17908,2159.7136,182.30334,3673.1812],"tree_param":{"num_deleted":"0","num_feature":"4","num_nodes":"7","size_leaf_vector":"1"}},{"base_weights":[-0.0045956387,-0.27705997,0.060708135,-0.0034027037,0.003516984,-0.0033702673,0.0011852928],"categories":[],"categories_nodes":[],"categories_segments":[],"categories_sizes":[],"default_left":[0,0,0,0,0,0,0],"id":95,"left_children":[1,3,5,-1,-1,-1,-1],"loss_changes":[111.938675,49.550255,116.60941,0.0,0.0,0.0,0.0],"parents":[2147483647,0,0,1,1,2,2],"right_children":[2,4,6,-1,-1,-1,-1],"split_conditions":[-0.008144521,0.1784942,0.0031225611,-0.0034027037,0.003516984,-0.0033702673,0.0011852928],"split_indices":[1,0,3,0,0,0,0],"split_type":[0,0,0,0,0,0,0],"sum_hessian":[6259.569,1206.9106,5052.658,1102.2753,104.63536,632.9813,4419.677],"tree_param":{"num_deleted":"0","num_feature":"4","num_nodes":"7","size_leaf_vector":"1"}},{"base_weights":[-0.0078158565,-0.25934637,0.05081733,0.003621333,-0.003195072,-0.0036911103,0.0009487578],"categories":[],"categories_nodes":[],"categories_segments":[],"categories_sizes":[],"default_left":[0,0,0,0,0,0,0],"id":96,"left_children":[1,3,5,-1,-1,-1,-1],"loss_changes":[92.19877,45.319115,93.62314,0.0,0.0,0.0,0.0],"parents":[2147483647,0,0,1,1,2,2],"right_children":[2,4,6,-1,-1,-1,-1],"split_conditions":[-0.008420885,-0.021487426,0.0019866175,0.003621333,-0.003195072,-0.0036911103,0.0009487578],"split_indices":[1,2,3,0,0,0,0],"split_type":[0,0,0,0,0,0,0],"sum_hessian":[6218.522,1172.2992,5046.223,97.56875,1074.7305,470.0096,4576.2134],"tree_param":{"num_deleted":"0","num_feature":"4","num_nodes":"7","size_leaf_vector":"1"}},{"base_weights":[0.013773028,-0.09864923,0.15042374,-0.0037083535,-0.00036355155,-0.0032626532,0.0025037997],"categories":[],"categories_nodes":[],"categories_segments":[],"categories_sizes":[],"default_left":[0,0,0,0,0,0,0],"id":97,"left_children":[1,3,5,-1,-1,-1,-1],"loss_changes":[96.000305,57.50193,135.23465,0.0,0.0,0.0,0.0],"parents":[2147483647,0,0,1,1,2,2],"right_children":[2,4,6,-1,-1,-1,-1],"split_conditions":[0.012679282,-0.0040497826,-0.019657478,-0.0037083535,-0.00036355155,-0.0032626532,0.0025037997],"split_indices":[3,1,1,0,0,0,0],"split_type":[0,0,0,0,0,0,0],"sum_hessian":[6225.941,3413.294,2812.647,623.48254,2789.8115,481.88815,2330.7588],"tree_param":{"num_deleted":"0","num_feature":"4","num_nodes":"7","size_leaf_vector":"1"}},{"base_weights":[-0.0012453812,-0.1729781,0.09751034,-0.007140164,-0.0012616517,0.00022851971,0.0029382748],"categories":[],"categories_nodes":[],"categories_segments":[],"categories_sizes":[],"default_left":[0,0,0,0,0,0,0],"id":98,"left_children":[1,3,5,-1,-1,-1,-1],"loss_changes":[105.69534,55.940712,57.515575,0.0,0.0,0.0,0.0],"parents":[2147483647,0,0,1,1,2,2],"right_children":[2,4,6,-1,-1,-1,-1],"split_conditions":[-0.00061739224,0.0031225611,0.015527573,-0.007140164,-0.0012616517,0.00022851971,0.0029382748],"split_indices":[1,3,3,0,0,0,0],"split_type":[0,0,0,0,0,0,0],"sum_hessian":[6207.7935,2267.4275,3940.366,167.51321,2099.914,2866.5066,1073.8595],"tree_param":{"num_deleted":"0","num_feature":"4","num_nodes":"7","size_leaf_vector":"1"}},{"base_weights":[0.002329057,-0.10419869,0.14728148,-0.004237769,-0.00051103387,-0.0030793434,0.0024771718],"categories":[],"categories_nodes":[],"categories_segments":[],"categories_sizes":[],"default_left":[0,0,0,0,0,0,0],"id":99,"left_children":[1,3,5,-1,-1,-1,-1],"loss_changes":[97.50584,60.97456,123.12178,0.0,0.0,0.0,0.0],"parents":[2147483647,0,0,1,1,2,2],"right_children":[2,4,6,-1,-1,-1,-1],"split_conditions":[0.013216808,-0.0061914343,-0.019657478,-0.004237769,-0.00051103387,-0.0030793434,0.0024771718],"split_indices":[3,1,1,0,0,0,0],"split_type":[0,0,0,0,0,0,0],"sum_hessian":[6291.821,3624.231,2667.5896,503.71918,3120.5117,476.64093,2190.9487],"tree_param":{"num_deleted":"0","num_feature":"4","num_nodes":"7","size_leaf_vector":"1"}},{"base_weights":[-0.012922043,-0.16193289,0.087831244,-0.005694157,-0.0009786874,0.0022640482,-0.0002435055],"categories":[],"categories_nodes":[],"categories_segments":[],"categories_sizes":[],"default_left":[0,0,0,0,0,0,0],"id":100,"left_children":[1,3,5,-1,-1,-1,-1],"loss_changes":[93.862236,64.65659,58.145584,0.0,0.0,0.0,0.0],"parents":[2147483647,0,0,1,1,2,2],"right_children":[2,4,6,-1,-1,-1,-1],"split_conditions":[1.670984e-05,0.0031225611,-6.297206e-05,-0.005694157,-0.0009786874,0.0022640482,-0.0002435055],"split_indices":[1,3,2,0,0,0,0],"split_type":[0,0,0,0,0,0,0],"sum_hessian":[6227.516,2513.6953,3713.8208,328.67188,2185.0234,1660.905,2052.9158],"tree_param":{"num_deleted":"0","num_feature":"4","num_nodes":"7","size_leaf_vector":"1"}},{"base_weights":[0.0125117265,-0.24884897,0.08081221,-0.003049475,0.0029705267,-0.0030918675,0.0013827715],"categories":[],"categories_nodes":[],"categories_segments":[],"categories_sizes":[],"default_left":[0,0,0,0,0,0,0],"id":101,"left_children":[1,3,5,-1,-1,-1,-1],"loss_changes":[111.35275,40.46261,111.29559,0.0,0.0,0.0,0.0],"parents":[2147483647,0,0,1,1,2,2],"right_children":[2,4,6,-1,-1,-1,-1],"split_conditions":[-0.007119257,0.1784942,0.0031225611,-0.003049475,0.0029705267,-0.0030918675,0.0013827715],"split_indices":[1,0,3,0,0,0,0],"split_type":[0,0,0,0,0,0,0],"sum_hessian":[6226.026,1281.422,4944.604,1167.674,113.74802,627.1437,4317.4604],"tree_param":{"num_deleted":"0","num_feature":"4","num_nodes":"7","size_leaf_vector":"1"}},{"base_weights":[0.010655516,0.6284512,-0.010837527,0.008075397,0.0033324307,-0.0015572993,0.00090886746],"categories":[],"categories_nodes":[],"categories_segments":[],"categories_sizes":[],"default_left":[0,0,0,0,0,0,0],"id":102,"left_children":[1,3,5,-1,-1,-1,-1],"loss_changes":[83.92684,7.4025497,89.620346,0.0,0.0,0.0,0.0],"parents":[2147483647,0,0,1,1,2,2],"right_children":[2,4,6,-1,-1,-1,-1],"split_conditions":[-0.022613384,0.043428708,0.00013123588,0.008075397,0.0033324307,-0.0015572993,0.00090886746],"split_indices":[2,3,1,0,0,0,0],"split_type":[0,0,0,0,0,0,0],"sum_hessian":[6258.9546,202.49754,6056.457,113.12666,89.37087,2500.028,3556.4287],"tree_param":{"num_deleted":"0","num_feature":"4","num_nodes":"7","size_leaf_vector":"1"}},{"base_weights":[-0.0,-0.24685667,0.061067715,-0.0063775606,-0.0016044914,-0.0005141176,0.002742904],"categories":[],"categories_nodes":[],"categories_segments":[],"categories_sizes":[],"default_left":[0,0,0,0,0,0,0],"id":103,"left_children":[1,3,5,-1,-1,-1,-1],"loss_changes":[94.46016,40.146187,120.908676,0.0,0.0,0.0,0.0],"parents":[2147483647,0,0,1,1,2,2],"right_children":[2,4,6,-1,-1,-1,-1],"split_conditions":[-0.0076262495,0.010635663,0.013561825,-0.0063775606,-0.0016044914,-0.0005141176,0.002742904],"split_indices":[1,3,3,0,0,0,0],"split_type":[0,0,0,0,0,0,0],"sum_hessian":[6248.728,1232.5051,5016.2227,209.47577,1023.02936,3285.7952,1730.4275],"tree_param":{"num_deleted":"0","num_feature":"4","num_nodes":"7","size_leaf_vector":"1"}},{"base_weights":[-0.005486853,-0.12890783,0.1217906,-0.0033582523,-0.0006200081,0.002558821,-0.00035604287],"categories":[],"categories_nodes":[],"categories_segments":[],"categories_sizes":[],"default_left":[0,0,0,0,0,0,0],"id":104,"left_children":[1,3,5,-1,-1,-1,-1],"loss_changes":[98.540695,43.53337,65.40567,0.0,0.0,0.0,0.0],"parents":[2147483647,0,0,1,1,2,2],"right_children":[2,4,6,-1,-1,-1,-1],"split_conditions":[0.002310879,-0.0147485705,0.0018356172,-0.0033582523,-0.0006200081,0.002558821,-0.00035604287],"split_indices":[1,1,2,0,0,0,0],"split_type":[0,0,0,0,0,0,0],"sum_hessian":[6252.551,3178.2905,3074.2603,763.11945,2415.1711,1660.0706,1414.1897],"tree_param":{"num_deleted":"0","num_feature":"4","num_nodes":"7","size_leaf_vector":"1"}},{"base_weights":[-0.018250814,-0.11919139,0.11645582,-0.0029535468,-0.00030623813,0.002523134,-0.0019242654],"categories":[],"categories_nodes":[],"categories_segments":[],"categories_sizes":[],"default_left":[0,0,0,0,0,0,0],"id":105,"left_children":[1,3,5,-1,-1,-1,-1],"loss_changes":[85.41069,55.658062,113.3039,0.0,0.0,0.0,0.0],"parents":[2147483647,0,0,1,1,2,2],"right_children":[2,4,6,-1,-1,-1,-1],"split_conditions":[0.013216808,-0.00048011646,0.0052983286,-0.0029535468,-0.00030623813,0.002523134,-0.0019242654],"split_indices":[3,1,2,0,0,0,0],"split_type":[0,0,0,0,0,0,0],"sum_hessian":[6261.0044,3583.976,2677.0283,1187.4558,2396.5203,1862.7795,814.24866],"tree_param":{"num_deleted":"0","num_feature":"4","num_nodes":"7","size_leaf_vector":"1"}},{"base_weights":[-0.003528552,-0.22015417,0.065834425,0.0034085345,-0.0026642191,-0.0035316302,0.0013114417],"categories":[],"categories_nodes":[],"categories_segments":[],"categories_sizes":[],"default_left":[0,0,0,0,0,0,0],"id":106,"left_children":[1,3,5,-1,-1,-1,-1],"loss_changes":[94.04129,40.259796,129.67065,0.0,0.0,0.0,0.0],"parents":[2147483647,0,0,1,1,2,2],"right_children":[2,4,6,-1,-1,-1,-1],"split_conditions":[-0.004964517,-0.021487426,0.0031225611,0.0034085345,-0.0026642191,-0.0035316302,0.0013114417],"split_indices":[1,2,3,0,0,0,0],"split_type":[0,0,0,0,0,0,0],"sum_hessian":[6228.7393,1508.9272,4719.812,108.4661,1400.4612,628.4672,4091.345],"tree_param":{"num_deleted":"0","num_feature":"4","num_nodes":"7","size_leaf_vector":"1"}},{"base_weights":[0.02515373,0.7360435,-0.0010704737,0.0015948752,0.009160502,-0.002780632,0.0006430459],"categories":[],"categories_nodes":[],"categories_segments":[],"categories_sizes":[],"default_left":[0,0,0,0,0,0,0],"id":107,"left_children":[1,3,5,-1,-1,-1,-1],"loss_changes":[116.32487,20.497765,108.82523,0.0,0.0,0.0,0.0],"parents":[2147483647,0,0,1,1,2,2],"right_children":[2,4,6,-1,-1,-1,-1],"split_conditions":[-0.022613384,-0.03009547,-0.0076262495,0.0015948752,0.009160502,-0.002780632,0.0006430459],"split_indices":[2,1,1,0,0,0,0],"split_type":[0,0,0,0,0,0,0],"sum_hessian":[6189.9146,211.94467,5977.9697,56.23644,155.70824,1138.2007,4839.769],"tree_param":{"num_deleted":"0","num_feature":"4","num_nodes":"7","size_leaf_vector":"1"}},{"base_weights":[-0.0073226145,-0.15717423,0.08544718,-0.0028371,-0.00015924388,0.0022222858,-0.0002770066],"categories":[],"categories_nodes":[],"categories_segments":[],"categories_sizes":[],"default_left":[0,0,0,0,0,0,0],"id":108,"left_children":[1,3,5,-1,-1,-1,-1],"loss_changes":[86.106995,42.020596,59.3583,0.0,0.0,0.0,0.0],"parents":[2147483647,0,0,1,1,2,2],"right_children":[2,4,6,-1,-1,-1,-1],"split_conditions":[-0.00024928365,0.013216808,-3.5021018e-05,-0.0028371,-0.00015924388,0.0022222858,-0.0002770066],"split_indices":[1,3,2,0,0,0,0],"split_type":[0,0,0,0,0,0,0],"sum_hessian":[6169.168,2360.3374,3808.8306,1235.9614,1124.3761,1723.9685,2084.8623],"tree_param":{"num_deleted":"0","num_feature":"4","num_nodes":"7","size_leaf_vector":"1"}},{"base_weights":[0.004951285,0.5838463,-0.016550066,0.0017315903,0.0077731954,-0.0037379193,0.00023845215],"categories":[],"categories_nodes":[],"categories_segments":[],"categories_sizes":[],"default_left":[0,0,0,0,0,0,0],"id":109,"left_children":[1,3,5,-1,-1,-1,-1],"loss_changes":[78.73738,15.706093,87.830925,0.0,0.0,0.0,0.0],"parents":[2147483647,0,0,1,1,2,2],"right_children":[2,4,6,-1,-1,-1,-1],"split_conditions":[-0.022613384,-0.040069208,-0.016144004,0.0017315903,0.0077731954,-0.0037379193,0.00023845215],"split_indices":[2,0,1,0,0,0,0],"split_type":[0,0,0,0,0,0,0],"sum_hessian":[6262.459,216.57008,6045.889,77.07694,139.49315,608.322,5437.567],"tree_param":{"num_deleted":"0","num_feature":"4","num_nodes":"7","size_leaf_vector":"1"}},{"base_weights":[0.0071869176,0.7022534,-0.01729513,0.0024929815,0.008631658,-0.003967994,0.0002724864],"categories":[],"categories_nodes":[],"categories_segments":[],"categories_sizes":[],"default_left":[0,0,0,0,0,0,0],"id":110,"left_children":[1,3,5,-1,-1,-1,-1],"loss_changes":[106.62392,12.2756195,102.16295,0.0,0.0,0.0,0.0],"parents":[2147483647,0,0,1,1,2,2],"right_children":[2,4,6,-1,-1,-1,-1],"split_conditions":[-0.022613384,-0.025247961,-0.01567549,0.0024929815,0.008631658,-0.003967994,0.0002724864],"split_indices":[2,1,1,0,0,0,0],"split_type":[0,0,0,0,0,0,0],"sum_hessian":[6208.4688,203.2084,6005.2603,61.578175,141.63022,624.8688,5380.3916],"tree_param":{"num_deleted":"0","num_feature":"4","num_nodes":"7","size_leaf_vector":"1"}},{"base_weights":[0.005171983,-0.23028255,0.061067637,-0.0062679625,-0.0013745449,-0.0027482503,0.0010939081],"categories":[],"categories_nodes":[],"categories_segments":[],"categories_sizes":[],"default_left":[0,0,0,0,0,0,0],"id":111,"left_children":[1,3,5,-1,-1,-1,-1],"loss_changes":[82.32583,42.512756,82.401505,0.0,0.0,0.0,0.0],"parents":[2147483647,0,0,1,1,2,2],"right_children":[2,4,6,-1,-1,-1,-1],"split_conditions":[-0.008144521,0.011036853,0.0031225611,-0.0062679625,-0.0013745449,-0.0027482503,0.0010939081],"split_indices":[1,3,3,0,0,0,0],"split_type":[0,0,0,0,0,0,0],"sum_hessian":[6247.513,1189.1703,5058.3433,212.62987,976.5404,627.6945,4430.6484],"tree_param":{"num_deleted":"0","num_feature":"4","num_nodes":"7","size_leaf_vector":"1"}},{"base_weights":[-0.010781416,-0.44671264,0.015759237,0.00077572424,-0.005558809,-0.0010297708,0.0018318383],"categories":[],"categories_nodes":[],"categories_segments":[],"categories_sizes":[],"default_left":[0,0,0,0,0,0,0],"id":112,"left_children":[1,3,5,-1,-1,-1,-1],"loss_changes":[72.404396,21.465828,116.871574,0.0,0.0,0.0,0.0],"parents":[2147483647,0,0,1,1,2,2],"right_children":[2,4,6,-1,-1,-1,-1],"split_conditions":[-0.027431574,-0.022613384,0.012874907,0.00077572424,-0.005558809,-0.0010297708,0.0018318383],"split_indices":[1,2,3,0,0,0,0],"split_type":[0,0,0,0,0,0,0],"sum_hessian":[6204.665,349.15448,5855.5103,59.092808,290.06168,3424.6497,2430.8606],"tree_param":{"num_deleted":"0","num_feature":"4","num_nodes":"7","size_leaf_vector":"1"}},{"base_weights":[0.016132416,-0.11675514,0.11618158,-0.0041269227,-0.0005659217,0.0056139133,0.0008700182],"categories":[],"categories_nodes":[],"categories_segments":[],"categories_sizes":[],"default_left":[0,0,0,0,0,0,0],"id":113,"left_children":[1,3,5,-1,-1,-1,-1],"loss_changes":[83.15522,47.06135,45.262474,0.0,0.0,0.0,0.0],"parents":[2147483647,0,0,1,1,2,2],"right_children":[2,4,6,-1,-1,-1,-1],"split_conditions":[0.00039381348,0.0031225611,-0.016622925,-0.0041269227,-0.0005659217,0.0056139133,0.0008700182],"split_indices":[1,3,2,0,0,0,0],"split_type":[0,0,0,0,0,0,0],"sum_hessian":[6234.3276,2672.7097,3561.618,438.84528,2233.8643,205.74872,3355.8691],"tree_param":{"num_deleted":"0","num_feature":"4","num_nodes":"7","size_leaf_vector":"1"}},{"base_weights":[-0.0036112801,0.6016018,-0.026746215,0.0005332595,0.0076574474,-0.0034259115,0.00010216878],"categories":[],"categories_nodes":[],"categories_segments":[],"categories_sizes":[],"default_left":[0,0,0,0,0,0,0],"id":114,"left_children":[1,3,5,-1,-1,-1,-1],"loss_changes":[86.871216,19.324005,70.59711,0.0,0.0,0.0,0.0],"parents":[2147483647,0,0,1,1,2,2],"right_children":[2,4,6,-1,-1,-1,-1],"split_conditions":[-0.022613384,-0.03009547,-0.016144004,0.0005332595,0.0076574474,-0.0034259115,0.00010216878],"split_indices":[2,1,1,0,0,0,0],"split_type":[0,0,0,0,0,0,0],"sum_hessian":[6223.9575,218.36018,6005.5977,54.7669,163.59328,623.3678,5382.23],"tree_param":{"num_deleted":"0","num_feature":"4","num_nodes":"7","size_leaf_vector":"1"}},{"base_weights":[0.010786634,-0.094373375,0.16248499,-0.004298788,-0.0003706223,-0.0027588652,0.0023819334],"categories":[],"categories_nodes":[],"categories_segments":[],"categories_sizes":[],"default_left":[0,0,0,0,0,0,0],"id":115,"left_children":[1,3,5,-1,-1,-1,-1],"loss_changes":[99.868164,70.35497,85.74458,0.0,0.0,0.0,0.0],"parents":[2147483647,0,0,1,1,2,2],"right_children":[2,4,6,-1,-1,-1,-1],"split_conditions":[0.013561825,-0.0061914343,-0.024360744,-0.004298788,-0.0003706223,-0.0027588652,0.0023819334],"split_indices":[3,1,1,0,0,0,0],